tree
version=v3
num_class=1
num_tree_per_iteration=1
label_index=0
max_feature_idx=3
objective=regression
feature_names=OPEN HIGH LOW VOLUME
feature_infos=[24.102:63.554000000000002] [24.838000000000001:63.823999999999998] [23.969999999999999:62.091000000000001] [12.98:148.55000000000001]
tree_sizes=1295 1409 1330 1408 1411 1493 1499 1498 1500 1417 1418 1502 1422 1423 1507 1509 1425 1586 1511 1515 1440 1517 1444 1524 1529 1451 1453 1615 1460 1373 1541 1544 1623 1376 1551 1550 1463 1470 1474 1561 1468 1479

Tree=0
num_leaves=15
num_cat=0
split_feature=2 2 2 1 1 2 1 1 1 1 2 2 1 2
split_gain=34246.5 4035.39 2097.1 1418.83 465.756 190.688 162.592 111.201 110.436 76.0241 30.5281 29.2035 20.0234 14.4201
threshold=40.402000000000008 49.367500000000007 32.63150000000001 56.921500000000009 46.159000000000006 51.620000000000012 28.285000000000004 36.928000000000004 48.025500000000001 44.477000000000011 28.630500000000001 53.198000000000008 49.175000000000004 50.447500000000005
decision_type=2 2 2 2 2 2 2 2 2 2 2 2 2 2
left_child=2 4 6 5 9 13 -1 -4 -6 -2 -8 -7 -10 -3
right_child=1 3 7 -5 8 11 10 -9 12 -11 -12 -13 -14 -15
leaf_value=42.560278560623772 44.155976991667686 44.965045799067319 43.430965364427074 45.837991397892999 44.562936571153244 45.209410317327418 42.773986280823244 43.73969744965504 44.721534341169949 44.413334946782093 42.926455824028153 45.3548997796808 44.855243270050188 45.058919639505312
leaf_weight=33 22 30 28 37 39 37 29 20 21 24 24 22 24 36
leaf_count=33 22 30 28 37 39 37 29 20 21 24 24 22 24 36
internal_value=44.3536 44.961 43.0301 45.294 44.546 45.133 42.7345 43.5596 44.6861 44.2903 42.843 45.2637 44.7928 45.0162
internal_weight=0 292 134 162 130 125 86 48 84 46 53 59 45 66
internal_count=426 292 134 162 130 125 86 48 84 46 53 59 45 66
is_linear=0
shrinkage=1


Tree=1
num_leaves=16
num_cat=0
split_feature=1 2 0 2 1 2 1 1 2 1 2 2 1 1 2
split_gain=27751.1 3368.55 1577.1 1154.45 411.037 153.822 119.358 89.4531 87.0838 70.6739 20.9506 17.9959 16.219 15.4758 1.28783
threshold=40.727500000000013 49.367500000000007 31.888000000000002 54.687000000000005 46.159000000000006 51.800500000000007 28.285000000000004 48.025500000000001 35.065500000000007 44.477000000000011 52.755000000000003 28.630500000000001 49.175000000000004 51.770000000000003 50.284500000000008
decision_type=2 2 2 2 2 2 2 2 2 2 2 2 2 2 2
left_child=2 4 6 5 9 13 -1 -6 -4 -2 -7 -8 -9 14 -3
right_child=1 3 8 -5 7 10 11 12 -10 -11 -12 -13 -14 -15 -16
leaf_value=-1.6140217723268451 -0.18895373543103536 0.54914325216542126 -0.90665641784667972 1.337025382067706 0.18837044483576068 0.74529707318260563 -1.4216848011674552 0.33110844975426085 -0.63344716344560892 0.05372898252680898 0.87163938249860495 -1.3017455621199174 0.45144650141398118 0.66401764297485355 0.58339488392784478
leaf_weight=33 24 23 20 37 39 21 29 21 28 24 35 22 24 25 21
leaf_count=33 24 23 20 37 39 21 29 21 28 24 35 22 24 25 21
internal_value=0 0.540815 -1.20454 0.846362 0.165826 0.701125 -1.46583 0.29922 -0.747284 -0.0676124 0.824261 -1.36995 0.395289 0.601189 0.565491
internal_weight=0 294 132 162 132 125 84 84 48 48 56 51 45 69 44
internal_count=426 294 132 162 132 125 84 84 48 48 56 51 45 69 44
is_linear=0
shrinkage=0.1


Tree=2
num_leaves=15
num_cat=0
split_feature=2 2 2 2 2 2 2 1 2 1 2 1 2 2
split_gain=22482.1 2769.45 1231.13 941.893 348.815 159.387 107.885 95.5582 53.5754 41.6089 23.966 22.9612 20.1667 1.04314
threshold=39.138000000000012 49.367500000000007 32.63150000000001 56.150500000000008 45.587500000000006 52.248500000000007 27.065000000000001 44.477000000000011 35.827500000000008 48.659500000000001 28.630500000000001 51.770000000000003 53.380500000000005 50.284500000000008
decision_type=2 2 2 2 2 2 2 2 2 2 2 2 2 2
left_child=2 4 6 5 7 11 -1 -2 -4 -6 -8 13 -7 -3
right_child=1 3 8 -5 9 12 10 -9 -10 -11 -12 -13 -14 -15
leaf_value=-1.4731115307126728 -0.17482502794265747 0.494228920729264 -0.76842361688613892 1.2574015648134296 0.2275664223564996 0.72852765492030558 -1.2880970225614661 0.075625273575767496 -0.54971108890715104 0.38302319844563804 -1.1575800895690918 0.61582561699119776 0.85646942528811376 0.52505539712451754
leaf_weight=28 25 23 24 31 36 28 34 39 21 33 24 37 22 21
leaf_count=28 25 23 24 31 36 28 34 39 21 33 24 37 22 21
internal_value=0 0.484103 -1.09016 0.761725 0.145947 0.644428 -1.31191 -0.0222069 -0.666358 0.301915 -1.23409 0.557765 0.784822 0.508942
internal_weight=0 295 131 162 133 131 86 64 45 69 58 81 50 44
internal_count=426 295 131 162 133 131 86 64 45 69 58 81 50 44
is_linear=0
shrinkage=0.1


Tree=3
num_leaves=16
num_cat=0
split_feature=2 2 1 2 2 2 2 1 1 1 1 2 1 2 2
split_gain=18216 2141.14 1117.7 762.933 252.471 129.539 92.4805 61.7802 57.0974 34.11 25.9665 24.6793 11.8457 10.4358 4.5441
threshold=40.402000000000008 49.367500000000007 33.786500000000011 56.150500000000008 45.587500000000006 52.611500000000007 26.756500000000006 44.477000000000011 36.928000000000004 49.175000000000004 29.426500000000001 51.20000000000001 54.602500000000013 46.610500000000009 50.447500000000005
decision_type=2 2 2 2 2 2 2 2 2 2 2 2 2 2 2
left_child=2 4 6 5 7 11 -1 -2 -4 13 -8 14 -7 -6 -3
right_child=1 3 8 -5 9 12 10 -9 -10 -11 -12 -13 -14 -15 -16
leaf_value=-1.3446145455042522 -0.14151530049063943 0.44384175062179571 -0.66722286365650318 1.1316614181764666 0.1665359574556351 0.67244880000750229 -1.1812689145406088 0.068062744093820071 -0.44429713964462281 0.36799952189127605 -1.0527226534756748 0.58268189430236816 0.77665309429168705 0.26344931983947756 0.50038995389585139
leaf_weight=24 22 30 27 31 20 24 30 39 20 24 33 30 20 25 27
leaf_count=24 22 30 27 31 20 24 30 39 20 24 33 30 20 25 27
internal_value=0 0.442978 -0.965296 0.685553 0.140693 0.579985 -1.17757 -0.00752278 -0.572361 0.271724 -1.11394 0.509267 0.719814 0.220377 0.470628
internal_weight=0 292 134 162 130 131 87 61 47 69 63 87 44 45 57
internal_count=426 292 134 162 130 131 87 61 47 69 63 87 44 45 57
is_linear=0
shrinkage=0.1


Tree=4
num_leaves=16
num_cat=0
split_feature=2 1 0 1 2 2 1 1 2 1 1 1 1 2 1
split_gain=14763.6 1815.81 810.603 628.869 227.141 86.1361 68.4515 54.3508 43.5828 25.8773 17.5133 14.3136 7.69252 5.68815 4.573
threshold=39.138000000000012 50.482500000000009 31.888000000000002 56.921500000000009 44.676500000000004 51.364000000000011 27.167500000000004 48.025500000000001 35.065500000000007 44.063500000000005 29.137500000000006 53.976000000000006 49.175000000000004 50.447500000000005 46.902500000000011
decision_type=2 2 2 2 2 2 2 2 2 2 2 2 2 2 2
left_child=2 4 6 5 9 13 -1 14 -4 -2 -8 -7 -9 -3 -6
right_child=1 3 8 -5 7 11 10 12 -10 -11 -12 -13 -14 -15 -16
leaf_value=-1.225843520391555 -0.1518197937445207 0.39786545261740686 -0.66275207519531254 0.97682718328527507 0.10070769774913789 0.54613990783691413 -1.0726679770151775 0.2426950840722947 -0.46798770692613395 0.0053458180930465466 -0.96709889787616155 0.64228652636210126 0.32731012322685937 0.45703662814516011 0.16400711735089621
leaf_weight=21 22 32 20 37 25 32 30 21 27 20 33 30 22 33 21
leaf_count=21 22 32 20 37 25 32 30 21 27 20 33 30 22 33 21
internal_value=0 0.392297 -0.883418 0.614034 0.114703 0.508338 -1.06949 0.20516 -0.550866 -0.076979 -1.01737 0.592662 0.285986 0.427906 0.129605
internal_weight=0 295 131 164 131 127 84 89 47 42 63 62 43 65 46
internal_count=426 295 131 164 131 127 84 89 47 42 63 62 43 65 46
is_linear=0
shrinkage=0.1


Tree=5
num_leaves=17
num_cat=0
split_feature=2 1 2 2 2 0 1 2 1 1 1 2 1 1 0 0
split_gain=11959.4 1344.53 814.008 376.991 311.771 60.562 59.8553 52.4591 51.1982 36.8822 14.2752 11.3982 3.01518 2.1148 1.5889 0.229908
threshold=40.957000000000001 51.770000000000003 32.63150000000001 57.245000000000012 46.511000000000003 37.208000000000006 27.897500000000004 53.565000000000005 45.291500000000006 49.736000000000011 29.846500000000002 52.433500000000002 46.495500000000007 50.879500000000007 48.268000000000008 51.926000000000009
decision_type=2 2 2 2 2 2 2 2 2 2 2 2 2 2 2 2
left_child=2 4 6 7 8 -4 -1 11 -2 14 -8 15 -10 -11 -6 -3
right_child=1 3 5 -5 9 -7 10 -9 12 13 -12 -13 -14 -15 -16 -17
leaf_value=-1.0805865146495679 -0.072799200597884403 0.44441035985946659 -0.54054785851509346 0.96920130157470707 0.2134070932865143 -0.31735034167766574 -0.93605147630740437 0.65565135192871093 0.072288562078028917 0.33458674294607982 -0.83213846921920787 0.53518039839608333 0.12241489092508953 0.3749481628922855 0.25326807379722593 0.45957306504249573
leaf_weight=27 28 20 31 25 20 20 39 25 24 21 20 28 24 34 20 20
leaf_count=27 28 20 31 25 20 20 39 25 24 21 20 28 24 34 20 20
internal_value=0 0.364805 -0.769552 0.624458 0.185629 -0.453019 -0.957263 0.531785 0.0346645 0.306401 -0.900827 0.486246 0.0973517 0.359537 0.233338 0.451992
internal_weight=0 289 137 118 171 51 86 93 76 95 59 68 48 55 40 40
internal_count=426 289 137 118 171 51 86 93 76 95 59 68 48 55 40 40
is_linear=0
shrinkage=0.1


Tree=6
num_leaves=17
num_cat=0
split_feature=2 2 1 2 1 0 1 1 2 1 2 1 1 2 1 2
split_gain=9699.41 1191.14 531.943 417.267 152.433 67.0775 51.0838 43.6293 21.1775 15.4746 10.1445 7.84119 5.81719 4.34063 3.82346 2.07601
threshold=39.138000000000012 49.367500000000007 33.786500000000011 56.150500000000008 45.600000000000009 52.595000000000006 27.167500000000004 48.025500000000001 35.827500000000008 29.846500000000002 53.380500000000005 52.291000000000004 49.175000000000004 45.587500000000006 28.824500000000004 50.447500000000005
decision_type=2 2 2 2 2 2 2 2 2 2 2 2 2 2 2 2
left_child=2 4 6 5 -2 11 -1 13 -4 14 -7 15 -9 -6 -8 -3
right_child=1 3 8 -5 7 10 9 12 -10 -11 -12 -13 -14 -15 -16 -17
leaf_value=-0.9952005340939476 -0.076238720035935584 0.3239789628982544 -0.49898661115895149 0.82996109070316448 0.071837919840106262 0.47102240215648306 -0.87647626002629608 0.19599964845748175 -0.36009033748081754 -0.74525020917256679 0.55868765874342485 0.41484730362892153 0.26806847254435223 0.13028647862374784 -0.81804848625546411 0.36258554458618164
leaf_weight=21 37 30 23 31 27 33 24 21 21 21 22 20 24 24 21 26
leaf_count=21 37 30 23 31 27 33 24 21 21 21 22 20 24 24 21 26
internal_value=0 0.317975 -0.71605 0.500044 0.0962053 0.421973 -0.859355 0.162668 -0.432695 -0.816132 0.506089 0.361099 0.234436 0.0993431 -0.84921 0.341903
internal_weight=0 295 131 162 133 131 87 96 44 66 55 76 45 51 45 56
internal_count=426 295 131 162 133 131 87 96 44 66 55 76 45 51 45 56
is_linear=0
shrinkage=0.1


Tree=7
num_leaves=17
num_cat=0
split_feature=2 2 1 2 1 2 0 2 2 1 1 2 2 2 3 3
split_gain=7859.69 852.087 590.744 226.427 223.604 47.1454 44.0947 29.9653 27.6747 25.6561 11.5379 5.09571 3.55743 2.75284 0.871262 0.274877
threshold=41.420000000000009 51.326500000000003 34.342000000000006 58.046500000000002 48.025500000000001 27.865500000000001 37.623000000000012 43.733000000000011 53.565000000000005 50.263500000000008 29.952500000000004 45.587500000000006 52.611500000000007 50.447500000000005 38.975000000000001 31.600000000000005
decision_type=2 2 2 2 2 2 2 2 2 2 2 2 2 2 2 2
left_child=2 4 5 8 7 14 -4 -2 12 15 -7 -9 -3 -11 -1 -6
right_child=1 3 6 -5 9 10 -8 11 -10 13 -12 -13 -14 -15 -16 -17
leaf_value=-0.83319663286209122 -0.057433338285911656 0.38589289100081836 -0.4150082731246949 0.81647031740708786 0.21290734887123108 -0.74317800916474441 -0.22331698596477512 0.05707520897335866 0.53437326465334212 0.28735424927302772 -0.64584950492495585 0.11725782553354901 0.43824305915832523 0.32863549153010052 -0.86271377325057985 0.19632792055606843
leaf_weight=20 21 27 30 22 20 29 20 34 28 35 21 24 25 30 20 20
leaf_count=20 21 27 30 22 20 29 20 34 28 35 21 24 25 30 20 20
internal_value=0 0.300524 -0.613927 0.532353 0.17201 -0.767036 -0.338332 0.0449196 0.45422 0.26763 -0.7023 0.0819784 0.411061 0.306407 -0.847955 0.204618
internal_weight=0 286 140 102 184 90 50 79 80 105 50 58 52 65 40 40
internal_count=426 286 140 102 184 90 50 79 80 105 50 58 52 65 40 40
is_linear=0
shrinkage=0.1


Tree=8
num_leaves=17
num_cat=0
split_feature=2 1 2 2 2 2 1 2 2 1 1 1 1 1 2 3
split_gain=6371.86 781.266 351.369 275.207 101.923 63.4313 31.445 25.443 21.5469 12.8791 12.214 9.63592 6.15018 5.92826 1.22427 0.0687184
threshold=39.138000000000012 50.538500000000006 30.657000000000004 58.046500000000002 44.676500000000004 52.755000000000003 27.167500000000004 46.511000000000003 35.065500000000007 44.063500000000005 55.321000000000005 52.291000000000004 29.137500000000006 49.417000000000009 50.592500000000008 35.745000000000005
decision_type=2 2 2 2 2 2 2 2 2 2 2 2 2 2 2 2
left_child=2 4 6 5 9 11 -1 15 -4 -2 -7 14 -8 -9 -3 -6
right_child=1 3 8 -5 7 10 12 13 -10 -11 -12 -13 -14 -15 -16 -17
leaf_value=-0.81067413829621815 -0.10253496359695087 0.26639319419860841 -0.44097890059153244 0.7348233136263761 0.082453457042574896 0.40394708315531419 -0.70162016868591315 0.15547743598620098 -0.30592055320739747 0.00834203951060772 0.50483467578887942 0.3453919705222635 -0.63859641253948218 0.22382032437758015 0.29740818500518801 0.074163799732923516
leaf_weight=21 22 35 21 22 20 30 30 30 27 20 20 34 32 22 20 20
leaf_count=21 22 35 21 22 20 30 30 30 27 20 20 34 32 22 20 20
internal_value=0 0.257723 -0.580368 0.406189 0.0793417 0.354175 -0.704914 0.138269 -0.365009 -0.0497364 0.444302 0.303542 -0.669092 0.184392 0.277671 0.0783086
internal_weight=0 295 131 161 134 139 83 92 48 42 50 89 62 52 55 40
internal_count=426 295 131 161 134 139 83 92 48 42 50 89 62 52 55 40
is_linear=0
shrinkage=0.1


Tree=9
num_leaves=16
num_cat=0
split_feature=2 2 1 2 1 1 1 1 2 1 2 2 2 1 1
split_gain=5165.82 539.279 423.193 148.277 134.369 38.3924 31.7797 18.5178 18.482 12.801 9.38991 4.25522 3.3415 1.78517 1.42664
threshold=41.655500000000011 51.326500000000003 34.342000000000006 58.046500000000002 48.659500000000001 38.430500000000009 27.167500000000004 46.159000000000006 53.972000000000008 29.952500000000004 49.808000000000007 46.215500000000006 52.755000000000003 28.986000000000004 51.352500000000006
decision_type=2 2 2 2 2 2 2 2 2 2 2 2 2 2 2
left_child=2 4 6 8 7 -4 -1 -2 12 13 -6 -9 -3 -8 -12
right_child=1 3 5 -5 10 -7 9 11 -10 -11 14 -13 -14 -15 -16
leaf_value=-0.72960669199625661 0.0014779711868991522 0.31540624777475995 -0.33196525067994087 0.66134095625443901 0.19033218469375221 -0.15637978285551071 -0.63460865197358318 0.06717357389904835 0.44624001546339553 -0.52399217741830018 0.24072535384085869 0.12504424154758453 0.36343981708799089 -0.59573374475751606 0.27359603591587234
leaf_weight=21 37 30 33 22 39 20 27 27 22 21 31 24 28 21 23
leaf_count=21 37 30 33 22 39 20 27 27 22 21 31 24 28 21 23
internal_value=0 0.247537 -0.48988 0.431424 0.143909 -0.265707 -0.621894 0.0553345 0.368197 -0.589111 0.227722 0.0944068 0.338595 -0.617601 0.254726
internal_weight=0 283 143 102 181 53 90 88 80 69 93 51 58 48 54
internal_count=426 283 143 102 181 53 90 88 80 69 93 51 58 48 54
is_linear=0
shrinkage=0.1


Tree=10
num_leaves=16
num_cat=0
split_feature=2 1 2 2 1 2 2 1 2 2 1 1 1 1 0
split_gain=4185.45 536.59 207.312 185.161 74.1949 29.7484 18.903 18.1334 14.7402 5.23816 4.37936 2.56677 2.29053 0.262614 0.0964769
threshold=38.023500000000006 50.482500000000009 30.284500000000005 56.150500000000008 45.291500000000006 51.800500000000007 46.215500000000006 27.167500000000004 34.75650000000001 53.258500000000005 49.175000000000004 28.986000000000004 51.770000000000003 46.433500000000002 50.682500000000012
decision_type=2 2 2 2 2 2 2 2 2 2 2 2 2 2 2
left_child=2 4 7 5 -2 12 13 -1 -4 -7 -8 -9 14 -6 -3
right_child=1 3 8 -5 6 9 10 11 -10 -11 -12 -13 -14 -15 -16
leaf_value=-0.65664602915445969 -0.06350246970919339 0.22298658575330463 -0.37680347192855113 0.54681339879189772 0.044511337896498547 0.30214379413707837 0.11847241611191722 -0.5711477844803422 -0.26509629708749277 0.36139736747741702 0.1760718822479248 -0.52928165048360831 0.25559503269195555 0.060326164641550606 0.2137924518585205
leaf_weight=21 37 21 21 31 21 37 33 27 27 25 22 32 25 21 25
leaf_count=21 37 21 21 31 21 37 33 27 27 25 22 32 25 21 25
internal_value=0 0.20543 -0.478266 0.326725 0.0569789 0.275426 0.102936 -0.576845 -0.313968 0.326036 0.141512 -0.548441 0.231231 0.0524188 0.21799
internal_weight=0 298 128 164 134 133 97 80 48 62 55 59 71 42 46
internal_count=426 298 128 164 134 133 97 80 48 62 55 59 71 42 46
is_linear=0
shrinkage=0.1


Tree=11
num_leaves=17
num_cat=0
split_feature=2 1 1 2 1 1 1 1 2 1 1 2 2 2 1 1
split_gain=3399.78 353.687 277.114 100.198 89.241 24.1238 20.6596 10.8575 10.703 7.66811 6.94394 3.69957 1.30543 0.895257 0.723012 0.212717
threshold=41.655500000000011 52.513000000000005 34.342000000000006 58.046500000000002 48.505500000000005 38.430500000000009 27.897500000000004 45.291500000000006 53.565000000000005 50.538500000000006 29.952500000000004 46.215500000000006 52.611500000000007 50.592500000000008 28.986000000000004 46.433500000000002
decision_type=2 2 2 2 2 2 2 2 2 2 2 2 2 2 2 2
left_child=2 4 6 8 7 -4 -1 -2 12 -6 14 15 -3 -11 -8 -9
right_child=1 3 5 -5 9 -7 10 11 -10 13 -12 -13 -14 -15 -16 -17
leaf_value=-0.57742840625621661 -0.017288538779724728 0.25500639867782593 -0.26853551575631807 0.54052553827112371 0.14729379898792991 -0.12935171425342559 -0.50947307405017672 0.040060204409417655 0.34838572059358874 0.19455439192908153 -0.42592566126868842 0.098582614319665099 0.28732266616821289 0.21905168661704433 -0.4832322120666504 0.05429354732457016
leaf_weight=27 22 25 33 22 37 20 21 21 28 35 21 21 25 26 21 21
leaf_count=27 22 25 33 22 37 20 21 21 28 35 21 21 25 26 21 21
internal_value=0 0.200815 -0.397416 0.352046 0.118175 -0.216013 -0.504242 0.043192 0.298885 0.18321 -0.472877 0.0643121 0.271165 0.204996 -0.496353 0.0471769
internal_weight=0 283 143 100 183 53 90 85 78 98 63 63 50 61 42 42
internal_count=426 283 143 100 183 53 90 85 78 98 63 63 50 61 42 42
is_linear=0
shrinkage=0.1


Tree=12
num_leaves=16
num_cat=0
split_feature=2 2 2 1 1 1 1 2 2 1 2 2 1 1 1
split_gain=2753.82 286.594 224.482 83.4291 70.6068 20.5375 16.7091 9.58126 9.1515 5.71853 5.21384 2.66487 1.86307 0.839995 0.757173
threshold=41.655500000000011 51.326500000000003 33.011500000000005 59.477500000000006 48.659500000000001 38.430500000000009 27.167500000000004 44.676500000000004 53.972000000000008 29.952500000000004 49.808000000000007 46.215500000000006 53.976000000000006 28.986000000000004 51.352500000000006
decision_type=2 2 2 2 2 2 2 2 2 2 2 2 2 2 2
left_child=2 4 6 8 7 -4 -1 -2 12 13 -6 -9 -3 -8 -12
right_child=1 3 5 -5 10 -7 9 11 -10 -11 14 -13 -14 -15 -16
leaf_value=-0.53323861757914226 -0.0048983760923147204 0.23200093133108957 -0.24412385821342469 0.48724867213856093 0.13808276515740614 -0.11641654059290887 -0.46157558052628134 0.046703650829765728 0.32227682417089287 -0.38626444339752197 0.17586656039760962 0.090225423624118173 0.26863879846489946 -0.43490899630955293 0.1998134872187739
leaf_weight=21 30 35 34 22 39 20 27 34 22 20 31 24 23 21 23
leaf_count=21 30 35 34 22 39 20 27 34 22 20 31 24 23 21 23
internal_value=0 0.180733 -0.357675 0.314787 0.105189 -0.196825 -0.455269 0.0409816 0.26736 -0.43119 0.165944 0.0647127 0.24653 -0.449909 0.186066
internal_weight=0 283 143 102 181 54 89 88 80 68 93 58 58 48 54
internal_count=426 283 143 102 181 54 89 88 80 68 93 58 58 48 54
is_linear=0
shrinkage=0.1


Tree=13
num_leaves=16
num_cat=0
split_feature=2 1 1 2 1 1 1 1 1 1 2 2 1 2 1
split_gain=2230.59 232.693 182.191 66.8236 58.9791 15.7591 13.9596 9.58482 7.13288 5.17785 3.19322 2.34 1.35699 0.708955 0.655341
threshold=41.655500000000011 52.513000000000005 34.342000000000006 58.046500000000002 49.175000000000004 38.430500000000009 27.167500000000004 45.772500000000008 55.321000000000005 29.952500000000004 46.215500000000006 49.808000000000007 53.976000000000006 28.100500000000004 51.352500000000006
decision_type=2 2 2 2 2 2 2 2 2 2 2 2 2 2 2
left_child=2 4 6 8 7 -4 -1 -2 12 13 -9 -6 -3 -8 -13
right_child=1 3 5 -5 11 -7 9 10 -10 -11 -12 14 -14 -15 -16
leaf_value=-0.47991472880045577 -0.0071715870739093848 0.21039844137249572 -0.21726958282066114 0.43924785635688091 0.13338450094064078 -0.10477488517761231 -0.41609731912612918 0.041602222833575481 0.29173288175037931 -0.3453835044588362 0.084667854733539355 0.15827990616521528 0.24164935300747553 -0.39170619140971796 0.18004080390930177
leaf_weight=21 28 33 33 22 30 20 26 36 21 21 33 31 24 22 25
leaf_count=21 28 33 33 22 30 20 26 36 21 21 33 31 24 22 25
internal_value=0 0.16266 -0.321907 0.285326 0.0956292 -0.174819 -0.408526 0.0421744 0.241912 -0.386799 0.0621988 0.155921 0.223557 -0.404918 0.167995
internal_weight=0 283 143 100 183 53 90 97 78 69 69 86 57 48 56
internal_count=426 283 143 100 183 53 90 97 78 69 69 86 57 48 56
is_linear=0
shrinkage=0.1


Tree=14
num_leaves=17
num_cat=0
split_feature=1 1 2 1 1 2 2 1 1 1 1 2 3 2 2 1
split_gain=1807.55 207.735 117.593 82.3026 24.1606 17.4503 10.874 7.73254 7.3598 3.62779 3.49434 2.61036 1.75891 0.824619 0.331692 0.318611
threshold=41.736500000000007 50.538500000000006 30.284500000000005 59.477500000000006 46.902500000000011 52.755000000000003 34.75650000000001 27.167500000000004 44.477000000000011 55.321000000000005 49.417000000000009 51.326500000000003 33.240000000000002 28.244500000000006 50.447500000000005 46.013000000000012
decision_type=2 2 2 2 2 2 2 2 2 2 2 2 2 2 2 2
left_child=2 4 7 5 8 11 -4 -1 -2 -7 12 14 -6 -9 -3 -10
right_child=1 3 6 -5 10 9 -8 13 15 -11 -12 -13 -14 -15 -16 -17
leaf_value=-0.43192326227823896 -0.046520116428534194 0.14138277995175327 -0.24644306046622144 0.3959400675513528 0.090603885923822736 0.21305690526962284 -0.15492061201263876 -0.37328816200124809 0.017275300746162733 0.26804018080234532 0.12074013704603369 0.18523808876673381 0.050974859432539057 -0.34964023669560751 0.15638080358505249 0.034694800907302474
leaf_weight=21 21 29 21 22 24 30 34 29 21 20 22 30 21 30 30 21
leaf_count=21 21 29 21 22 24 30 34 29 21 20 22 30 21 30 30 21
internal_value=0 0.140301 -0.302426 0.216223 0.0462746 0.187778 -0.189866 -0.379812 0.00181666 0.23505 0.0880783 0.161221 0.0721103 -0.361264 0.149009 0.0259851
internal_weight=0 291 135 161 130 139 55 80 63 50 67 89 45 59 59 42
internal_count=426 291 135 161 130 139 55 80 63 50 67 89 45 59 59 42
is_linear=0
shrinkage=0.1


Tree=15
num_leaves=17
num_cat=0
split_feature=2 1 2 2 2 2 1 2 2 1 2 1 1 1 3 1
split_gain=1467.3 187.486 73.3919 71.0003 22.6745 16.3417 6.26336 4.94044 4.91839 2.46495 2.30556 0.681531 0.669959 0.219482 0.191004 0.187776
threshold=38.023500000000006 49.736000000000011 30.284500000000005 58.046500000000002 43.733000000000011 52.611500000000007 27.167500000000004 34.75650000000001 46.215500000000006 51.961000000000006 53.972000000000008 28.986000000000004 48.659500000000001 46.306500000000007 25.245000000000005 50.879500000000007
decision_type=2 2 2 2 2 2 2 2 2 2 2 2 2 2 2 2
left_child=2 4 6 5 -2 9 -1 -4 13 15 -7 -8 -10 -6 -11 -3
right_child=1 3 7 -5 8 10 11 -9 12 14 -12 -13 -14 -15 -16 -17
leaf_value=-0.38873093809400289 -0.042793711642452492 0.11968727537563868 -0.22179875600905646 0.35689179734750232 0.023491429992612792 0.19176671120428271 -0.33683806701942731 -0.15712737639745078 0.065394749368230504 0.16641818881034853 0.23409535180438651 -0.31526499167084698 0.089554138253019611 0.037319485284388068 0.15259777754545212 0.13152650868570484
leaf_weight=21 33 21 21 22 22 31 27 27 24 20 22 32 22 24 20 37
leaf_count=21 33 21 21 22 22 31 27 27 24 20 22 32 22 24 20 37
internal_value=0 0.121633 -0.283177 0.189056 0.0283196 0.164603 -0.341831 -0.185421 0.0538277 0.140411 0.209337 -0.325137 0.0769492 0.0307061 0.159508 0.12724
internal_weight=0 298 128 173 125 151 80 48 92 98 53 59 46 46 40 58
internal_count=426 298 128 173 125 151 80 48 92 98 53 59 46 46 40 58
is_linear=0
shrinkage=0.1


Tree=16
num_leaves=16
num_cat=0
split_feature=2 1 1 1 1 1 1 1 1 1 2 2 3 1 1
split_gain=1189.87 124.036 97.2892 36.2796 30.7261 8.34588 7.24283 4.95347 3.55225 2.70181 1.71982 1.26755 1.24134 0.761494 0.330553
threshold=41.655500000000011 52.513000000000005 35.141500000000001 59.477500000000006 49.175000000000004 28.285000000000004 38.430500000000009 46.902500000000011 55.321000000000005 30.091000000000005 44.094500000000004 49.808000000000007 33.240000000000002 53.976000000000006 51.352500000000006
decision_type=2 2 2 2 2 2 2 2 2 2 2 2 2 2 2
left_child=2 4 5 8 7 -1 -4 10 13 -7 -2 -6 -9 -3 -13
right_child=1 3 6 -5 11 9 -8 12 -10 -11 -12 14 -14 -15 -16
leaf_value=-0.33598235086961226 -0.010968707776850179 0.15356036135644624 -0.15369334181149802 0.3217732055620714 0.096792412201563524 -0.288943642225021 -0.076003644615411758 0.074330774872075941 0.21152917827878681 -0.24445376339412872 0.025428994106786219 0.11536580766400983 0.039947253518870907 0.17697071780761084 0.13082061028480529
leaf_weight=33 21 33 30 22 30 39 20 21 21 21 34 31 21 24 25
leaf_count=33 21 33 30 22 30 39 20 21 21 21 34 31 21 24 25
internal_value=0 0.118801 -0.235109 0.208359 0.0698618 -0.295589 -0.122617 0.0312792 0.176371 -0.273372 0.0115317 0.113379 0.057139 0.163417 0.122265
internal_weight=0 283 143 100 183 93 50 97 78 60 55 86 42 57 56
internal_count=426 283 143 100 183 93 50 97 78 60 55 86 42 57 56
is_linear=0
shrinkage=0.1


Tree=17
num_leaves=18
num_cat=0
split_feature=2 1 1 2 1 0 2 2 2 1 2 2 2 3 1 3 3
split_gain=963.793 100.469 78.8871 29.6355 24.9757 6.98979 6.24409 2.85939 2.84519 2.64044 1.86719 0.778797 0.607943 0.455343 0.362352 0.210827 0.0131122
threshold=41.655500000000011 52.513000000000005 34.342000000000006 58.046500000000002 48.386500000000005 37.623000000000012 26.756500000000006 53.972000000000008 44.094500000000004 49.736000000000011 29.1005 45.997500000000009 52.755000000000003 28.490000000000006 51.275500000000008 36.085000000000008 35.745000000000005
decision_type=2 2 2 2 2 2 2 2 2 2 2 2 2 2 2 2 2
left_child=2 4 6 7 8 -4 -1 12 -2 -6 15 16 -3 14 -11 -8 -10
right_child=1 3 5 -5 9 -7 10 -9 11 13 -12 -13 -14 -15 -16 -17 -18
leaf_value=-0.31227499445279444 -0.0098718374878877697 0.13619175851345064 -0.14660884280999503 0.29002751274542377 0.070055839046835905 -0.073335615415935931 -0.25702242732048036 0.18915901346640154 0.022807044223882258 0.1040627452634996 -0.22892486832358619 0.048398983137061202 0.15703030186040062 0.093319986909627922 0.12084348066286608 -0.27092415442069373 0.026428116515744476
leaf_weight=24 21 28 30 22 28 23 20 22 20 31 22 21 28 20 22 24 20
leaf_count=24 21 28 30 22 28 23 20 22 20 31 22 21 28 20 22 24 20
internal_value=0 0.106921 -0.211598 0.187523 0.0628756 -0.114811 -0.268595 0.158612 0.0218753 0.096163 -0.252712 0.0328046 0.146611 0.106177 0.111028 -0.264605 0.0246176
internal_weight=0 283 143 100 183 53 90 78 82 101 66 61 56 73 53 44 40
internal_count=426 283 143 100 183 53 90 78 82 101 66 61 56 73 53 44 40
is_linear=0
shrinkage=0.1


Tree=18
num_leaves=17
num_cat=0
split_feature=2 1 2 1 2 2 1 2 2 3 2 2 2 3 1 1
split_gain=781.809 99.3991 39.8105 38.526 11.86 8.62679 3.51403 2.60178 2.39801 1.99149 1.4823 0.399213 0.333758 0.330243 0.166462 0.119678
threshold=38.023500000000006 49.736000000000011 30.284500000000005 59.477500000000006 43.733000000000011 52.755000000000003 27.167500000000004 46.215500000000006 34.75650000000001 24.050000000000004 51.326500000000003 47.571500000000007 50.004500000000007 35.57500000000001 51.352500000000006 46.306500000000007
decision_type=2 2 2 2 2 2 2 2 2 2 2 2 2 2 2 2
left_child=2 4 6 5 -2 10 -1 15 -4 -7 12 -9 -3 -8 -14 -6
right_child=1 3 8 -5 7 9 13 11 -10 -11 -12 -13 14 -15 -16 -17
leaf_value=-0.2850321179344541 -0.030589434402910148 0.085268425747104318 -0.16005034673781623 0.26151012073863639 0.017145420289175078 0.13387929606437685 -0.22867373561859133 0.047187055942292021 -0.11499417380050377 0.17379407072067263 0.12168493847052256 0.06583644199100408 0.094270736694335944 -0.24381400031201983 0.10605883468752322 0.027356435618518544
leaf_weight=21 33 23 21 22 22 25 25 24 27 25 30 22 25 34 23 24
leaf_count=21 33 23 21 22 22 25 25 24 27 25 30 22 25 34 23 24
internal_value=0 0.0887855 -0.206704 0.137878 0.0208415 0.119865 -0.249902 0.0392896 -0.134706 0.153837 0.103048 0.0561063 0.0951732 -0.237399 0.0999192 0.0224729
internal_weight=0 298 128 173 125 151 80 92 48 50 101 46 71 59 48 46
internal_count=426 298 128 173 125 151 80 92 48 50 101 46 71 59 48 46
is_linear=0
shrinkage=0.1


Tree=19
num_leaves=17
num_cat=0
split_feature=2 1 1 2 1 2 1 1 1 1 3 2 2 1 3 1
split_gain=633.975 65.8689 51.9961 19.8407 16.4095 4.66327 3.7356 2.76211 1.94783 1.10303 0.939968 0.789784 0.478113 0.387132 0.194097 0.147233
threshold=41.655500000000011 52.513000000000005 35.141500000000001 58.046500000000002 49.417000000000009 27.865500000000001 38.430500000000009 46.902500000000011 55.321000000000005 30.091000000000005 32.510000000000012 44.094500000000004 50.004500000000007 53.976000000000006 38.975000000000001 51.511500000000005
decision_type=2 2 2 2 2 2 2 2 2 2 2 2 2 2 2 2
left_child=2 4 5 8 7 14 -4 11 13 -7 -9 -2 -6 -3 -1 -14
right_child=1 3 6 -5 12 9 -8 10 -10 -11 -12 -13 15 -15 -16 -17
leaf_value=-0.23463939666748046 -0.0065076363051221487 0.11170516619176576 -0.11169493913650513 0.23585259914398193 0.074580523789380543 -0.20806278623640539 -0.055900656459853051 0.05759726606664204 0.1543600076720828 -0.17856791814168294 0.02862733016178633 0.018157664259128712 0.085658067067464205 0.12839700306455296 -0.24857126235961916 0.096734796166419987
leaf_weight=20 21 33 30 22 33 32 20 21 21 21 24 34 30 24 20 20
leaf_count=20 21 33 30 22 33 32 20 21 21 21 24 34 30 24 20 20
internal_value=0 0.0867173 -0.171615 0.151981 0.0510541 -0.21583 -0.0893772 0.023773 0.128325 -0.196376 0.0421466 0.00874 0.0839228 0.118733 -0.241605 0.0900888
internal_weight=0 283 143 100 183 93 50 100 78 53 45 55 83 57 40 50
internal_count=426 283 143 100 183 93 50 100 78 53 45 55 83 57 40 50
is_linear=0
shrinkage=0.1


Tree=20
num_leaves=16
num_cat=0
split_feature=2 1 2 1 2 2 1 1 2 2 2 3 2 3 1
split_gain=513.52 53.3538 42.3094 16.1764 13.2931 5.70894 2.48559 2.23688 1.55416 0.639725 0.387882 0.325007 0.310796 0.266227 0.143116
threshold=41.655500000000011 52.513000000000005 30.284500000000005 59.477500000000006 48.272000000000006 36.860500000000009 27.167500000000004 46.902500000000011 53.972000000000008 44.094500000000004 49.808000000000007 33.240000000000002 52.755000000000003 35.57500000000001 51.511500000000005
decision_type=2 2 2 2 2 2 2 2 2 2 2 2 2 2 2
left_child=2 4 6 8 7 -4 -1 9 12 -2 -6 -9 -3 -8 -12
right_child=1 3 5 -5 10 -7 13 11 -10 -11 14 -13 -14 -15 -16
leaf_value=-0.23226885341462636 -0.0058568726870275685 0.099125619871275772 -0.11677352679081453 0.21251468550075187 0.065686928039347683 -0.054785149358212951 -0.18437392234802247 0.047014356120711281 0.13794357722455805 0.016341897368650226 0.076510837922493621 0.029979556315811354 0.11402518387351718 -0.19796776455991411 0.087061315923929225
leaf_weight=21 21 28 39 22 27 24 25 21 22 34 36 24 28 34 20
leaf_count=21 21 28 39 22 27 24 25 21 22 34 36 24 28 34 20
internal_value=0 0.0780456 -0.154454 0.136783 0.0459487 -0.0931589 -0.202724 0.0213944 0.115423 0.007866 0.0755321 0.0379291 0.106575 -0.192208 0.0802789
internal_weight=0 283 143 100 183 63 80 100 78 55 83 45 56 59 56
internal_count=426 283 143 100 183 63 80 100 78 55 83 45 56 59 56
is_linear=0
shrinkage=0.1


Tree=21
num_leaves=17
num_cat=0
split_feature=2 1 1 2 1 2 1 1 2 1 2 3 3 1 3 3
split_gain=416.674 52.749 21.4614 20.9248 6.27529 4.52365 1.88545 1.84749 1.61223 1.04425 0.782156 0.323523 0.288794 0.225947 0.171976 0.18269
threshold=38.023500000000006 49.736000000000011 30.750500000000006 58.046500000000002 44.477000000000011 52.755000000000003 35.377000000000002 27.167500000000004 46.215500000000006 55.321000000000005 51.326500000000003 37.175000000000004 34.415000000000013 48.505500000000005 28.490000000000006 18.245000000000001
decision_type=2 2 2 2 2 2 2 2 2 2 2 2 2 2 2 2
left_child=2 4 7 5 -2 10 -4 -1 11 -7 14 -6 -9 -10 15 -3
right_child=1 3 6 -5 8 9 -8 12 13 -11 -12 -13 -14 -15 -16 -17
leaf_value=-0.20904196983291989 -0.026381604054144456 0.066277487034147431 -0.12257927826472692 0.1916937898505818 0.0087182127299808686 0.10010518809159596 -0.08323483847338578 -0.165690685355145 0.033287471497342701 0.12960446238517762 0.088664959470431015 0.025031511224806308 -0.18019938451402329 0.04735775320231915 0.06251938462567827 0.078772145271301275
leaf_weight=21 28 22 21 22 31 30 29 23 21 20 30 20 34 25 24 25
leaf_count=21 28 22 21 22 31 30 29 23 21 20 30 20 34 25 24 25
internal_value=0 0.0648172 -0.150903 0.10058 0.0153215 0.0873051 -0.0997595 -0.183686 0.0273595 0.111905 0.075127 0.0151156 -0.174345 0.0409344 0.0694067 0.0729236
internal_weight=0 298 128 173 125 151 50 78 97 50 101 51 57 46 71 47
internal_count=426 298 128 173 125 151 50 78 97 50 101 51 57 46 71 47
is_linear=0
shrinkage=0.1


Tree=22
num_leaves=16
num_cat=0
split_feature=2 1 1 0 1 1 2 2 1 2 3 3 2 1 1
split_gain=337.549 35.0951 28.2122 10.8247 8.7597 2.53996 1.90242 1.4147 1.07316 0.813999 0.500938 0.406519 0.248388 0.22484 0.0823749
threshold=41.655500000000011 52.513000000000005 35.141500000000001 59.155500000000011 49.417000000000009 27.623500000000003 37.362000000000009 45.587500000000006 55.321000000000005 28.630500000000001 38.285000000000004 32.510000000000012 50.004500000000007 53.976000000000006 51.352500000000006
decision_type=2 2 2 2 2 2 2 2 2 2 2 2 2 2 2
left_child=2 4 5 8 7 -1 -4 10 13 -7 -2 -9 -6 -3 -14
right_child=1 3 6 -5 12 9 -8 11 -10 -11 -12 -13 14 -15 -16
leaf_value=-0.18581409404675167 -0.0032026448543807161 0.081354151124303997 -0.081246445918905327 0.1747276109598932 0.054525264025186052 -0.15785620698803349 -0.041725321220500128 0.038156935599489288 0.11271162263371728 -0.13602067020631606 0.016485685016959906 0.019687094810334121 0.061644292235374459 0.094074872756997746 0.069762169301509858
leaf_weight=24 28 33 29 21 33 38 21 26 22 31 24 22 25 24 25
leaf_count=24 28 33 29 21 33 38 21 26 22 31 24 22 25 24 25
internal_value=0 0.0632759 -0.125224 0.110914 0.0372441 -0.157793 -0.0646476 0.0173118 0.0939511 -0.148046 0.00588428 0.0296916 0.061259 0.0867102 0.0657032
internal_weight=0 283 143 100 183 93 50 100 79 69 52 48 83 57 50
internal_count=426 283 143 100 183 93 50 100 79 69 52 48 83 57 50
is_linear=0
shrinkage=0.1


Tree=23
num_leaves=17
num_cat=0
split_feature=2 1 1 1 2 2 1 3 1 1 1 0 0 0 1 3
split_gain=273.739 34.6949 14.351 13.1137 5.0073 2.51601 1.42148 1.23113 1.20019 1.14645 0.389371 0.384872 0.350425 0.317512 0.236177 0.180005
threshold=38.023500000000006 50.538500000000006 30.750500000000006 59.477500000000006 43.733000000000011 52.755000000000003 48.025500000000001 24.050000000000004 27.167500000000004 35.377000000000002 52.513000000000005 46.127000000000002 50.728500000000004 28.916500000000003 49.417000000000009 20.615000000000006
decision_type=2 2 2 2 2 2 2 2 2 2 2 2 2 2 2 2
left_child=2 4 8 5 -2 10 11 -7 -1 -4 12 -6 -3 -10 -8 -14
right_child=1 3 9 -5 6 7 14 -9 13 -11 -12 -13 15 -15 -16 -17
leaf_value=-0.16955636200450719 -0.018392169126309456 0.068552847490424215 -0.09828426355407352 0.15574930892749267 0.023506815815644882 0.07491590686142445 0.032583509893932688 0.10629906588792802 -0.13589031481080585 -0.067604389362807923 0.07233637204127652 0.0071759462873968814 0.059308857470750813 -0.15136267060325259 0.046927870810031892 0.045892280265688895
leaf_weight=21 33 21 21 22 31 25 24 25 36 29 28 27 20 21 22 20
leaf_count=21 33 21 21 22 31 25 24 25 36 29 28 27 20 21 22 20
internal_value=0 0.0525364 -0.122311 0.0840119 0.015547 0.0726577 0.0263161 0.0906075 -0.14912 -0.0804899 0.0625736 0.0159045 0.0580923 -0.141591 0.0394439 0.0526006
internal_weight=0 298 128 161 137 139 104 50 78 50 89 58 61 57 46 40
internal_count=426 298 128 161 137 139 104 50 78 50 89 58 61 57 46 40
is_linear=0
shrinkage=0.1


Tree=24
num_leaves=17
num_cat=0
split_feature=2 1 1 2 2 2 2 1 2 2 2 3 2 2 3 1
split_gain=222.03 22.9481 18.4822 7.27649 5.6888 1.80305 1.23309 1.04155 0.630329 0.29159 0.273445 0.212169 0.185395 0.129711 0.097929 0.0843918
threshold=41.655500000000011 52.513000000000005 35.141500000000001 58.046500000000002 48.272000000000006 27.865500000000001 36.860500000000009 46.902500000000011 53.972000000000008 44.327000000000005 29.160500000000003 33.240000000000002 50.004500000000007 52.853000000000009 38.975000000000001 51.352500000000006
decision_type=2 2 2 2 2 2 2 2 2 2 2 2 2 2 2 2
left_child=2 4 5 8 7 14 -4 9 13 -2 -7 -9 -6 -3 -1 -14
right_child=1 3 6 -5 12 10 -8 11 -10 -11 -12 -13 15 -15 -16 -17
leaf_value=-0.13900101572275161 -0.0033008555066771808 0.065712040074868125 -0.067618581194144031 0.14063269956122068 0.043804004246538339 -0.12187597549730732 -0.036185256787575781 0.032829108326474114 0.089856799082322567 0.011381016551486907 -0.10729854133996097 0.019065515359397978 0.049352764129638675 0.075437312014400959 -0.14889692440629007 0.057569418042898182
leaf_weight=20 24 32 26 22 33 31 24 21 22 31 22 24 25 24 20 25
leaf_count=20 24 32 26 22 33 31 24 21 22 31 22 24 25 24 20 25
internal_value=0 0.0513188 -0.101561 0.0898405 0.0302686 -0.127921 -0.0525306 0.0142057 0.0755145 0.00497438 -0.115825 0.0254885 0.0496215 0.06988 -0.143949 0.0534611
internal_weight=0 283 143 100 183 93 50 100 78 55 53 45 83 56 40 50
internal_count=426 283 143 100 183 93 50 100 78 55 53 45 83 56 40 50
is_linear=0
shrinkage=0.1


Tree=25
num_leaves=16
num_cat=0
split_feature=2 1 0 1 1 2 1 3 1 2 0 1 3 0 0
split_gain=179.963 23.8297 9.64522 8.43116 2.7918 2.25036 0.841864 0.629121 0.548445 0.495874 0.451421 0.429741 0.380647 0.320078 0.151404
threshold=37.743500000000004 49.417000000000009 59.155500000000011 30.750500000000006 44.477000000000011 52.755000000000003 27.167500000000004 37.660000000000004 55.321000000000005 46.610500000000009 46.127000000000002 51.961000000000006 24.865000000000006 28.916500000000003 50.537500000000001
decision_type=2 2 2 2 2 2 2 2 2 2 2 2 2 2 2
left_child=3 4 5 6 -2 11 -1 -5 -7 10 -6 14 -13 -8 -3
right_child=1 2 -4 7 9 8 13 -9 -10 -11 -12 12 -14 -15 -16
leaf_value=-0.13813514134713584 -0.018922633040816553 0.047994909786126194 0.12824336030254407 -0.057004385556165993 0.017817726938260926 0.064924786674479637 -0.10898995560904344 -0.080275636556602664 0.085995607503822874 0.026986068327512061 -0.00011727911946566208 0.06567885904085069 0.046856479685414926 -0.12452472278050014 0.038557686623843283
leaf_weight=21 31 34 21 26 36 30 36 21 21 28 23 21 22 21 34
leaf_count=21 31 34 21 26 36 30 36 21 21 28 23 21 22 21 34
internal_value=0 0.041885 0.064479 -0.100859 0.00684533 0.0562132 -0.121019 -0.0674022 0.073601 0.016027 0.0108261 0.0482242 0.0560488 -0.114713 0.0432763
internal_weight=0 301 183 125 118 162 78 47 51 87 59 111 43 57 68
internal_count=426 301 183 125 118 162 78 47 51 87 59 111 43 57 68
is_linear=0
shrinkage=0.1


Tree=26
num_leaves=16
num_cat=0
split_feature=2 1 2 0 1 2 1 1 2 3 0 2 1 1 3
split_gain=145.979 15.1301 12.3174 4.80784 3.70051 1.51214 0.745391 0.722293 0.429916 0.345996 0.198395 0.146166 0.0950829 0.0512617 0.00437877
threshold=41.655500000000011 52.513000000000005 30.284500000000005 59.155500000000011 49.417000000000009 36.860500000000009 46.159000000000006 27.167500000000004 53.972000000000008 35.95000000000001 28.916500000000003 50.004500000000007 53.976000000000006 51.352500000000006 28.030000000000005
decision_type=2 2 2 2 2 2 2 2 2 2 2 2 2 2 2
left_child=2 4 7 8 6 -4 -2 -1 12 14 -9 -6 -3 -13 -8
right_child=1 3 5 -5 11 -7 9 10 -10 -11 -12 13 -14 -15 -16
leaf_value=-0.1243216304197198 0.00029827096071597693 0.053417924633531857 -0.061431238532830515 0.11541902421131021 0.034962437479672114 -0.029528496507555249 0.022550072614103557 -0.098090959464510297 0.073096519676239591 0.0080636039482090954 -0.10998080761536309 0.0403352262377739 0.061793688437698981 0.046739080227911477 0.024617561485086169
leaf_weight=21 37 33 39 21 33 24 20 36 23 22 23 25 23 25 21
leaf_count=21 37 33 39 21 33 24 20 36 23 22 23 25 23 25 21
internal_value=0 0.0416116 -0.0823503 0.0728907 0.0245193 -0.0492778 0.0115641 -0.108395 0.0615856 0.0181805 -0.102726 0.0401279 0.056858 0.0435372 0.023609
internal_weight=0 283 143 100 183 63 100 80 79 63 59 83 56 50 41
internal_count=426 283 143 100 183 63 100 80 79 63 59 83 56 50 41
is_linear=0
shrinkage=0.1


Tree=27
num_leaves=18
num_cat=0
split_feature=2 1 1 1 2 1 2 1 3 2 3 1 3 1 3 3 3
split_gain=118.329 11.8018 10.9402 3.93967 2.7618 1.07214 0.897746 0.508699 0.476817 0.766458 0.274585 0.22958 0.14864 0.216699 0.140917 0.0787714 0.077459
threshold=42.062000000000005 52.513000000000005 35.141500000000001 59.477500000000006 48.272000000000006 28.986000000000004 37.743500000000004 46.902500000000011 20.900000000000002 52.755000000000003 38.175000000000004 27.167500000000004 28.490000000000006 50.792500000000011 33.240000000000002 18.860000000000003 38.595000000000006
decision_type=2 2 2 2 2 2 2 2 2 2 2 2 2 2 2 2 2
left_child=2 4 5 8 7 11 -4 10 -3 -10 -2 -1 13 -6 -9 -15 -7
right_child=1 3 6 -5 12 16 -8 14 9 -11 -12 -13 -14 15 -16 -17 -18
leaf_value=-0.11188946596923328 -0.0011846618959680201 0.042179086697953089 -0.047268947679549457 0.10297528878701004 0.03052372407083484 -0.078851552963256841 -0.02065985515669343 0.025063890302997261 0.045179870174351065 0.068999569885033585 0.013751871157437562 -0.097948398634239486 0.028635008893907073 0.038334834519773722 0.013847011085211611 0.047103863351401834 -0.087200989406555907
leaf_weight=21 32 21 32 22 22 25 21 21 22 35 20 27 20 20 24 21 20
leaf_count=21 32 21 32 22 22 25 21 21 22 35 20 27 20 20 24 21 20
internal_value=0 0.0380573 -0.0729867 0.0656016 0.022755 -0.0936516 -0.0367257 0.0112969 0.0550603 0.059806 0.00456016 -0.104048 0.0361458 0.0385302 0.0190816 0.0428263 -0.0825624
internal_weight=0 280 146 100 180 93 53 97 78 57 52 48 83 63 45 41 45
internal_count=426 280 146 100 180 93 53 97 78 57 52 48 83 63 45 41 45
is_linear=0
shrinkage=0.1


Tree=28
num_leaves=16
num_cat=0
split_feature=2 1 1 2 2 2 1 3 2 2 3 0 2 0 1
split_gain=95.8667 11.6726 5.87327 4.78771 1.57419 0.785664 0.729718 0.668869 0.475025 0.411352 0.338545 0.161593 0.336774 0.143401 0.103652
threshold=39.138000000000012 50.538500000000006 30.206000000000003 58.046500000000002 43.733000000000011 52.755000000000003 35.270000000000003 33.240000000000002 46.215500000000006 27.065000000000001 24.490000000000006 50.728500000000004 51.326500000000003 45.835000000000008 49.417000000000009
decision_type=2 2 2 2 2 2 2 2 2 2 2 2 2 2 2
left_child=2 4 7 5 -2 11 -4 -1 13 -9 -7 -3 -13 -6 -10
right_child=1 3 6 -5 8 10 -8 9 14 -11 -12 12 -14 -15 -16
leaf_value=-0.076892568695324445 -0.010372269917279483 0.044931489362248354 -0.061420342397122157 0.09310526390644637 0.01315794949233532 0.044364879870166379 -0.037841200974902942 -0.10752026811242105 0.018343587435730217 -0.088742955907114923 0.060835152248350483 0.028642995782980796 0.042816306426345062 0.0019487187266349793 0.027056026772003285
leaf_weight=27 30 21 21 22 25 24 35 20 36 28 26 38 30 21 22
leaf_count=27 30 21 21 22 25 24 35 20 36 28 26 38 30 21 22
internal_value=0 0.0316121 -0.0711876 0.0497594 0.00980825 0.042899 -0.0466834 -0.0894841 0.0156296 -0.0965668 0.0529294 0.0372639 0.0348959 0.00804069 0.0216483
internal_weight=0 295 131 161 134 139 56 75 104 48 50 89 68 46 58
internal_count=426 295 131 161 134 139 56 75 104 48 50 89 68 46 58
is_linear=0
shrinkage=0.1


Tree=29
num_leaves=15
num_cat=0
split_feature=2 1 1 2 1 2 1 3 1 1 3 0 2 1
split_gain=77.8325 7.7627 7.13501 2.63933 1.79602 0.791226 0.56098 0.374285 0.581997 0.25683 0.300216 0.246871 0.163936 0.0501875
threshold=42.062000000000005 52.513000000000005 33.786500000000011 58.046500000000002 48.659500000000001 37.743500000000004 28.432000000000006 30.365000000000006 54.07200000000001 46.306500000000007 32.510000000000012 28.916500000000003 49.808000000000007 51.352500000000006
decision_type=2 2 2 2 2 2 2 2 2 2 2 2 2 2
left_child=2 4 6 7 9 -4 -1 8 -3 -2 -11 -8 -6 -14
right_child=1 3 5 -5 12 -7 11 -9 -10 10 -12 -13 13 -15
leaf_value=-0.08695651998536455 0.0016338883219538507 0.039141582188984531 -0.040958422608673578 0.083794736421921034 0.022925731668678617 -0.016771816058705251 -0.062336672771544692 0.035056023197938449 0.060510812431573871 0.021688257281978929 0.0057461271959322472 -0.076473421255747479 0.028681802862293777 0.034703806125093252
leaf_weight=36 37 26 38 22 39 21 21 27 25 21 27 30 31 25
leaf_count=36 37 26 38 22 39 21 21 27 25 21 27 30 31 25
internal_value=0 0.0308655 -0.0591941 0.0532045 0.0184549 -0.0323496 -0.0773989 0.0445765 0.0496167 0.00789474 0.0127208 -0.0706524 0.0279035 0.0313702
internal_weight=0 280 146 100 180 59 87 78 51 85 48 51 95 56
internal_count=426 280 146 100 180 59 87 78 51 85 48 51 95 56
is_linear=0
shrinkage=0.1


Tree=30
num_leaves=17
num_cat=0
split_feature=2 1 2 2 3 2 3 1 1 0 3 3 3 0 0 2
split_gain=63.0443 6.33341 5.87267 2.91267 1.90317 0.798293 0.428438 0.374074 0.285168 0.259029 0.257168 0.249797 0.124889 0.114955 0.110198 0.207143
threshold=42.062000000000005 55.756000000000007 30.284500000000005 48.272000000000006 28.490000000000006 37.743500000000004 43.130000000000003 52.513000000000005 46.902500000000011 53.733500000000006 35.375000000000007 38.175000000000004 33.240000000000002 47.422000000000004 50.537500000000001 50.592500000000008
decision_type=2 2 2 2 2 2 2 2 2 2 2 2 2 2 2 2
left_child=2 3 6 8 -3 10 12 14 11 -9 -4 -2 -1 -10 -5 -16
right_child=1 4 5 7 -6 -7 -8 9 13 -11 -12 -13 -14 -15 15 -17
leaf_value=-0.061704822712474398 -0.0022601963777560742 0.086431255205534407 -0.030977302348368208 0.03073783610546825 0.042805893942713738 -0.015094634682117476 -0.082345830947160734 0.041549107881310665 0.019494886483464924 0.027773585370076556 -0.046100368917636247 0.01198620803654194 -0.071236773048128407 0.0093638473345587659 0.016415467643705401 0.02944359814819808
leaf_weight=27 32 20 22 34 20 21 25 39 21 21 23 20 28 24 23 26
leaf_count=27 32 20 22 34 20 21 25 39 21 21 23 20 28 24 23 26
internal_value=0 0.0277789 -0.0532747 0.021639 0.0646186 -0.0311939 -0.0714913 0.0307121 0.00826312 0.0367277 -0.0387069 0.00321919 -0.0665575 0.0140917 0.0263636 0.0233284
internal_weight=0 280 146 240 40 66 80 143 97 60 45 52 55 45 83 49
internal_count=426 280 146 240 40 66 80 143 97 60 45 52 55 45 83 49
is_linear=0
shrinkage=0.1


Tree=31
num_leaves=17
num_cat=0
split_feature=2 1 1 1 3 2 3 3 1 2 1 0 3 0 0 3
split_gain=51.0659 5.13006 4.83639 2.37974 1.54157 0.730903 0.432181 0.346924 0.299055 0.273615 0.238533 0.244567 0.283726 0.209814 0.0932854 0.180978
threshold=42.062000000000005 55.756000000000007 30.206000000000003 49.417000000000009 28.490000000000006 37.743500000000004 33.240000000000002 38.285000000000004 52.513000000000005 27.065000000000001 46.159000000000006 46.604500000000009 32.510000000000012 53.733500000000006 50.537500000000001 20.035000000000004
decision_type=2 2 2 2 2 2 2 2 2 2 2 2 2 2 2 2
left_child=2 3 6 10 -3 7 -1 -4 14 -8 -2 -12 -13 -10 -5 -16
right_child=1 4 5 8 -6 -7 9 -9 13 -11 11 12 -14 -15 15 -17
leaf_value=-0.055534339447816217 0.00063445231165079521 0.077788130231201652 -0.029015228745217128 0.027812754028641126 0.038525304943323138 -0.013585171138956435 -0.080282368129119278 -0.046018271073698998 0.037394196652353572 -0.064968086725899155 0.020163489431142809 0.015092589848098302 -0.0011577671732414853 0.024996227185641016 0.027457081706708544 0.015279519255273044
leaf_weight=27 34 20 30 34 20 21 20 20 39 28 20 21 22 21 23 26
leaf_count=27 34 20 30 34 20 21 20 20 39 28 20 21 22 21 23 26
internal_value=0 0.025001 -0.0479472 0.0194751 0.0581567 -0.029241 -0.0656557 -0.0358164 0.0276763 -0.071349 0.00738469 0.0110277 0.00677845 0.0330549 0.0237881 0.0209955
internal_weight=0 280 146 240 40 71 75 50 143 48 97 63 43 60 83 49
internal_count=426 280 146 240 40 71 75 50 143 48 97 63 43 60 83 49
is_linear=0
shrinkage=0.1


Tree=32
num_leaves=18
num_cat=0
split_feature=2 1 1 1 3 1 1 2 3 1 0 3 3 3 0 3 0
split_gain=41.3634 4.15535 3.9732 1.94761 1.24867 0.466039 0.357953 0.28635 0.282229 0.305845 0.297828 0.230497 0.214508 0.164954 0.156893 0.0938539 0.0715815
threshold=42.062000000000005 55.756000000000007 35.141500000000001 50.538500000000006 28.490000000000006 29.137500000000006 46.902500000000011 37.743500000000004 35.275000000000006 53.976000000000006 50.728500000000004 20.035000000000004 38.175000000000004 33.470000000000006 29.723000000000003 35.57500000000001 48.268000000000008
decision_type=2 2 2 2 2 2 2 2 2 2 2 2 2 2 2 2 2
left_child=2 3 5 6 -3 13 12 -4 9 10 -5 -12 -2 -1 -7 16 -8
right_child=1 4 7 8 -6 14 15 -9 -10 -11 11 -13 -14 -15 -16 -17 -18
leaf_value=-0.054949530847370621 -0.0028592963702976705 0.070009316839277747 -0.027254678908320784 0.036376738129183649 0.03467277325689793 -0.041693386493162038 0.020156255690380931 -0.012226653453849611 0.016216129724952309 0.039449874737433027 0.028108571022148095 0.015470416457564744 0.01034252217039466 -0.066598052952078088 -0.053917230284284981 0.0079227470538832927 0.012161755061242729
leaf_weight=20 32 20 32 20 20 21 21 21 22 21 31 27 20 31 21 22 24
leaf_count=20 32 20 32 20 20 21 21 21 22 21 31 27 20 31 21 22 24
internal_value=0 0.0225009 -0.0431525 0.0175276 0.052341 -0.0556059 0.00844384 -0.0213002 0.0264612 0.0287379 0.0258539 0.0222253 0.00221833 -0.06203 -0.0478053 0.0132756 0.0158925
internal_weight=0 280 146 240 40 93 119 53 121 99 78 58 52 51 42 67 45
internal_count=426 280 146 240 40 93 119 53 121 99 78 58 52 51 42 67 45
is_linear=0
shrinkage=0.1


Tree=33
num_leaves=15
num_cat=0
split_feature=2 1 1 1 0 3 2 3 0 2 3 3 3 0
split_gain=33.5043 3.44075 3.29613 1.95764 0.474699 0.323088 0.563397 0.321919 0.296845 0.293012 0.189514 0.17 0.106651 0.100338
threshold=42.062000000000005 59.477500000000006 30.206000000000003 50.538500000000006 36.199000000000005 20.900000000000002 52.755000000000003 43.130000000000003 51.490500000000004 46.215500000000006 37.900000000000013 18.860000000000003 33.240000000000002 48.665500000000002
decision_type=2 2 2 2 2 2 2 2 2 2 2 2 2 2
left_child=2 3 7 9 -4 11 8 12 -7 10 -2 -5 -1 -11
right_child=1 -3 4 5 -6 6 -8 -9 -10 13 -12 -13 -14 -15
leaf_value=-0.044833453689460401 -0.0018840085042433606 0.05821256944063035 -0.032168754528869282 0.023310808940894073 -0.015774571410331287 0.031303223660215734 0.03868206590946232 -0.063625237752090807 0.015352088463467745 0.016182808277731324 0.0094494896084070211 0.01181201245635748 -0.053806741979832831 0.0077377823259060577
leaf_weight=27 36 22 33 36 38 20 35 22 28 34 25 20 26 24
leaf_count=27 36 22 33 36 38 20 35 22 28 34 25 20 26 24
internal_value=0 0.0202508 -0.0388372 0.0170138 -0.0233944 0.0250736 0.0290337 -0.0534565 0.0219984 0.00759946 0.00276087 0.0192041 -0.0492354 0.0126883
internal_weight=0 280 146 258 71 139 83 75 48 119 61 56 53 58
internal_count=426 280 146 258 71 139 83 75 48 119 61 56 53 58
is_linear=0
shrinkage=0.1


Tree=34
num_leaves=17
num_cat=0
split_feature=2 2 1 1 2 3 1 3 2 3 3 0 3 3 0 3
split_gain=27.2431 3.78909 1.59047 1.47478 0.717949 0.356199 0.35864 0.291086 0.371152 0.260754 0.252786 0.150632 0.0973644 0.0937288 0.090648 0.0863872
threshold=37.743500000000004 50.004500000000007 59.477500000000006 30.206000000000003 44.327000000000005 41.005000000000003 47.099500000000006 20.900000000000002 52.755000000000003 43.130000000000003 37.660000000000004 52.262000000000008 31.825000000000003 38.595000000000006 51.855500000000006 33.240000000000002
decision_type=2 2 2 2 2 2 2 2 2 2 2 2 2 2 2 2
left_child=3 4 7 9 13 6 -6 11 14 15 -5 -3 -8 -2 -9 -1
right_child=1 2 -4 10 5 -7 12 8 -10 -11 -12 -13 -14 -15 -16 -17
leaf_value=-0.04035010791073243 -0.010498497468969701 0.02176214126767732 0.052391312046992516 -0.019376338252159595 0.0024344748602463649 -0.0019737049259922722 0.013459940383640621 0.025473568267188967 0.034813858891970348 -0.057262714071707292 -0.03364278512156528 0.010763881944585593 0.021779904158955272 -0.0010397211834788321 0.015952644478529694 -0.048426068353896533
leaf_weight=27 22 33 22 27 26 22 39 20 35 22 23 20 22 20 20 26
leaf_count=27 22 33 22 27 26 22 39 20 35 22 23 20 22 20 20 26
internal_value=0 0.0162965 0.0275536 -0.039242 0.00511397 0.00939422 0.0122689 0.0232847 0.0272935 -0.0481108 -0.0259389 0.0176119 0.0164606 -0.00599432 0.0207131 -0.0443119
internal_weight=0 301 150 125 151 109 87 128 75 75 50 53 61 42 40 53
internal_count=426 301 150 125 151 109 87 128 75 75 50 53 61 42 40 53
is_linear=0
shrinkage=0.1


Tree=35
num_leaves=17
num_cat=0
split_feature=2 2 1 1 2 3 1 3 3 1 3 1 0 2 0 3
split_gain=22.0673 2.94928 1.33102 1.28828 0.522779 0.327114 0.29467 0.23578 0.355944 0.414756 0.211211 0.164781 0.122012 0.0870999 0.0895809 0.0699737
threshold=38.023500000000006 50.004500000000007 30.206000000000003 59.477500000000006 43.733000000000011 41.005000000000003 47.099500000000006 20.900000000000002 30.175000000000004 53.976000000000006 43.130000000000003 35.270000000000003 52.262000000000008 48.922500000000007 47.968500000000006 33.240000000000002
decision_type=2 2 2 2 2 2 2 2 2 2 2 2 2 2 2 2
left_child=2 4 10 7 -2 6 -6 12 9 -9 15 -4 -3 14 -8 -1
right_child=1 3 11 -5 5 -7 13 8 -10 -11 -12 -13 -14 -15 -16 -17
leaf_value=-0.036315097597738107 -0.0061936222045033268 0.019585927116162513 -0.029480011690230595 0.047152180715718056 0.0027095793560147287 -0.002300302591174841 0.016965079582296313 0.020733245706097001 0.016792197875452764 0.040607985925106782 -0.051536443363875153 -0.01807996447896585 0.0096874936483800425 0.020224819553550336 0.0076137155826602665 -0.043583461584953159
leaf_weight=27 33 33 21 22 30 24 20 21 33 21 22 32 20 20 21 26
leaf_count=27 33 33 21 22 30 24 20 21 33 21 22 32 20 20 21 26
internal_value=0 0.0149165 -0.0347275 0.0247983 0.00490119 0.00808492 0.0108239 0.0209562 0.0245641 0.0306706 -0.0432997 -0.022597 0.0158507 0.0148145 0.0121754 -0.0398807
internal_weight=0 298 128 150 148 115 91 128 75 42 75 53 53 61 41 53
internal_count=426 298 128 150 148 115 91 128 75 42 75 53 53 61 41 53
is_linear=0
shrinkage=0.1


Tree=36
num_leaves=16
num_cat=0
split_feature=2 1 1 3 3 1 3 3 3 0 1 1 0 3 1
split_gain=17.8987 2.17526 1.4023 0.953323 1.68715 0.427775 0.373229 0.937718 0.292527 0.198912 0.589494 0.180687 0.21083 0.140746 0.0844171
threshold=40.957000000000001 51.770000000000003 30.206000000000003 35.145000000000003 27.100000000000005 48.386500000000005 19.205000000000002 22.120000000000005 35.145000000000003 46.127000000000002 45.772500000000008 27.167500000000004 28.554500000000004 19.885000000000002 49.498500000000007
decision_type=2 2 2 2 2 2 2 2 2 2 2 2 2 2 2
left_child=2 5 11 4 6 9 -3 -8 -4 10 -2 -1 -13 -7 -15
right_child=1 3 8 -5 -6 13 7 -9 -10 -11 -12 12 -14 14 -16
leaf_value=-0.046840579435229304 -0.0024050808676025449 0.032409265767782927 -0.011074463377839752 0.0088106917377946715 0.05171698060631752 0.0067227149232020307 0.0013353104830126873 0.030532412510365248 -0.024877054625026443 -0.0040892446724077073 0.018904361377159756 -0.029660462767437654 -0.042157288371688792 0.010340187982434319 0.018551760028687216
leaf_weight=21 34 20 28 29 25 31 22 22 34 33 21 27 27 21 31
leaf_count=21 34 20 28 29 25 31 22 22 34 33 21 27 27 21 31
internal_value=0 0.0141129 -0.0297711 0.0245569 0.0296876 0.006906 0.0210824 0.0159339 -0.0186436 0.00204857 0.00573125 -0.0389698 -0.0359089 0.0120561 0.0152355
internal_weight=0 289 137 118 89 171 64 44 62 88 55 75 54 83 52
internal_count=426 289 137 118 89 171 64 44 62 88 55 75 54 83 52
is_linear=0
shrinkage=0.1


Tree=37
num_leaves=16
num_cat=0
split_feature=2 2 1 1 1 3 1 3 3 1 0 1 0 3 3
split_gain=14.5982 2.01291 0.953346 0.755318 0.372099 0.178167 0.313512 0.169486 0.160208 0.156804 0.195064 0.103439 0.200828 0.082831 0.0580284
threshold=37.743500000000004 50.004500000000007 59.477500000000006 30.206000000000003 44.477000000000011 42.050000000000004 47.099500000000006 43.130000000000003 37.660000000000004 51.770000000000003 54.455500000000008 53.879500000000007 52.262000000000008 31.825000000000003 33.240000000000002
decision_type=2 2 2 2 2 2 2 2 2 2 2 2 2 2 2
left_child=3 4 9 7 -2 6 -6 14 -5 -3 11 12 -11 -8 -1
right_child=1 2 -4 8 5 -7 13 -9 -10 10 -12 -13 -14 -15 -16
leaf_value=-0.028763001501836163 -0.0059879669138500772 0.010890590433369984 0.039363947187005338 -0.013980999713142714 0.00077776856099565821 -0.0016111999993091047 0.0097779683853821981 -0.04245119759580121 -0.025338454317787418 0.025156565904617314 0.011510124458716466 0.027332711350225677 0.012056309401734987 0.017451894605024297 -0.035381957430105943
leaf_weight=27 31 33 22 27 36 23 39 22 23 25 26 22 22 22 26
leaf_count=27 31 33 22 27 36 23 39 22 23 25 26 22 22 22 26
internal_value=0 0.0119293 0.0201342 -0.0287258 0.00377879 0.00630187 0.00817817 -0.0350728 -0.0192054 0.0168291 0.018892 0.0216735 0.0190245 0.0125456 -0.03201
internal_weight=0 301 150 125 151 120 97 75 50 128 95 69 47 61 53
internal_count=426 301 150 125 151 120 97 75 50 128 95 69 47 61 53
is_linear=0
shrinkage=0.1


Tree=38
num_leaves=16
num_cat=0
split_feature=2 2 0 1 1 3 3 3 1 1 0 3 2 0 3
split_gain=11.8245 1.63046 0.788035 0.611808 0.3014 0.192315 0.340984 0.144315 0.253945 0.143086 0.173866 0.129768 0.0942837 0.212384 0.0670931
threshold=37.743500000000004 50.004500000000007 59.155500000000011 30.206000000000003 44.477000000000011 30.175000000000004 23.590000000000003 42.050000000000004 47.099500000000006 27.167500000000004 28.554500000000004 37.660000000000004 50.731500000000004 53.129000000000005 31.825000000000003
decision_type=2 2 2 2 2 2 2 2 2 2 2 2 2 2 2
left_child=3 4 5 9 -2 6 12 8 -6 -1 -11 -5 -3 -14 -10
right_child=1 2 -4 11 7 -7 -8 -9 14 10 -12 -13 13 -15 -16
leaf_value=-0.038569653193865509 -0.0053891697387781837 0.0087794512348330547 0.03608518150590715 -0.012582899588677619 0.00069999179492394141 0.0088687143335118897 0.027838399804507693 -0.0014500800439197084 0.0088001716667069838 -0.023167393504883407 -0.034515930739817798 -0.022804608310410836 0.02237866475350327 0.0087826110725291087 0.015706705242734067
leaf_weight=21 31 23 21 27 36 35 24 23 39 27 27 23 27 20 22
leaf_count=21 31 23 21 27 36 35 24 23 39 27 27 23 27 20 22
internal_value=0 0.0107364 0.0181208 -0.0258533 0.00340091 0.0151964 0.0175524 0.00567168 0.00736035 -0.0315655 -0.0288417 -0.0172849 0.0140258 0.0165931 0.0112911
internal_weight=0 301 150 125 151 129 94 120 97 75 54 50 70 47 61
internal_count=426 301 150 125 151 129 94 120 97 75 54 50 70 47 61
is_linear=0
shrinkage=0.1


Tree=39
num_leaves=17
num_cat=0
split_feature=2 1 3 3 1 1 3 3 1 0 1 0 3 0 0 1
split_gain=9.57786 1.35046 0.642703 1.76102 0.513751 0.364386 0.322915 0.272818 0.181053 0.275584 0.120646 0.33396 0.0849307 0.0721763 0.047895 0.0146501
threshold=37.743500000000004 52.513000000000005 35.145000000000003 27.100000000000005 28.986000000000004 46.306500000000007 21.370000000000001 42.050000000000004 35.270000000000003 29.723000000000003 50.482500000000009 50.728500000000004 35.145000000000003 47.019000000000013 27.423000000000005 49.035000000000004
decision_type=2 2 2 2 2 2 2 2 2 2 2 2 2 2 2 2
left_child=4 5 3 6 14 12 -3 10 9 -6 13 -12 -2 -7 -1 -15
right_child=1 2 -4 -5 8 7 -8 -9 -10 -11 11 -13 -14 15 -16 -17
leaf_value=-0.028601928965912928 0.0023529973846894725 0.0065812934239927153 0.0056341694023173588 0.047627895117991349 -0.014398144527028004 0.01138511523604393 0.022388730425882387 -0.0031820952240377664 -0.011967749758784113 -0.029552466298143072 0.022429894393479283 0.0068716247792582263 -0.0053185597903305489 0.0023964189033469432 -0.034969503933652522 0.0060496109094293343
leaf_weight=27 27 28 26 22 24 20 24 20 29 24 22 37 31 23 21 21
leaf_count=27 27 28 26 22 24 20 24 20 29 24 22 37 31 23 21 21
internal_value=0 0.00966276 0.0191591 0.0239111 -0.0232679 0.00493823 0.013877 0.00764984 -0.0182062 -0.0219753 0.00941113 0.012673 -0.00174732 0.00640409 -0.0313877 0.00413999
internal_weight=0 301 100 74 125 201 52 143 77 48 123 59 58 64 48 44
internal_count=426 301 100 74 125 201 52 143 77 48 123 59 58 64 48 44
is_linear=0
shrinkage=0.1


Tree=40
num_leaves=16
num_cat=0
split_feature=1 1 1 2 3 0 3 3 2 3 2 3 0 3 2
split_gain=7.78616 0.92019 0.899191 0.360681 0.177525 0.159035 0.453756 0.131568 0.121964 0.102709 0.23825 0.212018 0.12083 0.0776024 0.154277
threshold=44.063500000000005 35.141500000000001 59.477500000000006 50.004500000000007 43.130000000000003 46.127000000000002 35.57500000000001 35.145000000000003 48.272000000000006 20.900000000000002 51.620000000000012 28.590000000000003 52.08400000000001 36.855000000000011 28.332000000000004
decision_type=2 2 2 2 2 2 2 2 2 2 2 2 2 2 2
left_child=1 4 3 5 13 -2 8 -3 -7 12 -11 -12 -5 14 -1
right_child=2 7 -4 9 -6 6 -8 -9 -10 10 11 -13 -14 -15 -16
leaf_value=-0.029201104375533762 0.0098319951253823742 -0.0035622852790201534 0.029506137535314669 0.012636085529811681 -0.030944880873513676 0.0027459984104479512 -0.0088726823003246243 -0.01293295314235072 0.011939218573927603 0.0060443868091248952 0.025164465326815846 0.012355820778092105 0.0028740469599142673 -0.016237633991986515 -0.017464526991049448
leaf_weight=24 39 29 22 32 28 31 26 31 27 23 24 28 21 20 21
leaf_count=24 39 29 22 32 28 31 26 31 27 23 24 28 21 20 21
internal_value=0 -0.0180589 0.0101209 0.00842185 -0.0242881 0.00455482 0.0021047 -0.0084038 0.0070256 0.0121378 0.0145191 0.0182675 0.00876811 -0.0214205 -0.023724
internal_weight=0 153 273 251 93 123 84 60 58 128 75 52 53 65 45
internal_count=426 153 273 251 93 123 84 60 58 128 75 52 53 65 45
is_linear=0
shrinkage=0.1


Tree=41
num_leaves=16
num_cat=0
split_feature=2 3 1 1 1 1 3 2 0 3 3 3 3 2 3
split_gain=6.3398 1.10254 1.57987 0.557097 0.356005 0.259866 0.235736 0.363847 0.215699 0.230388 0.140322 0.163607 0.119441 0.149225 0.0770107
threshold=37.743500000000004 51.895000000000003 59.477500000000006 51.770000000000003 30.206000000000003 44.063500000000005 37.900000000000013 45.785000000000004 52.08400000000001 24.490000000000006 33.240000000000002 40.275000000000013 19.885000000000002 48.272000000000006 38.285000000000004
decision_type=2 2 2 2 2 2 2 2 2 2 2 2 2 2 2
left_child=4 2 3 5 10 -2 7 -7 -5 -10 -1 -12 -9 -14 -6
right_child=1 -3 -4 8 14 6 -8 12 9 -11 11 -13 13 -15 -16
leaf_value=-0.017520593244720391 -0.0051337171274308977 -0.014824243411421776 0.036563209276646379 0.022681923849242076 -0.0091899701518317074 -0.0068869397267699237 0.014350015498124636 0.0015770000841228234 0.0057594524240247103 0.017446435035596935 -0.033151868748522939 -0.021383128232426114 0.0047441843491313716 0.014444307616815486 -0.017200936663430182
leaf_weight=27 26 20 20 21 30 25 26 31 37 31 21 27 35 29 20
leaf_count=27 26 20 20 21 30 25 26 31 37 31 21 27 35 29 20
internal_value=0 0.00786149 0.00947613 0.00740049 -0.0189305 0.00407714 0.00571743 0.00384704 0.0138231 0.0110873 -0.0232879 -0.026532 0.00667177 0.00913955 -0.0123944
internal_weight=0 301 281 261 125 172 146 120 89 68 75 48 95 64 50
internal_count=426 301 281 261 125 172 146 120 89 68 75 48 95 64 50
is_linear=0
shrinkage=0.1


end of trees

feature_importances:
HIGH=262
LOW=229
VOLUME=106
OPEN=52

parameters:
[boosting: gbdt]
[objective: regression]
[metric: rmse]
[tree_learner: serial]
[device_type: cpu]
[data: ]
[valid: ]
[num_iterations: 100]
[learning_rate: 0.1]
[num_leaves: 31]
[num_threads: 0]
[deterministic: 0]
[force_col_wise: 0]
[force_row_wise: 0]
[histogram_pool_size: -1]
[max_depth: -1]
[min_data_in_leaf: 20]
[min_sum_hessian_in_leaf: 0.001]
[bagging_fraction: 1]
[pos_bagging_fraction: 1]
[neg_bagging_fraction: 1]
[bagging_freq: 0]
[bagging_seed: 3]
[feature_fraction: 1]
[feature_fraction_bynode: 1]
[feature_fraction_seed: 2]
[extra_trees: 0]
[extra_seed: 6]
[early_stopping_round: 5]
[first_metric_only: 0]
[max_delta_step: 0]
[lambda_l1: 0]
[lambda_l2: 0]
[linear_lambda: 0]
[min_gain_to_split: 0]
[drop_rate: 0.1]
[max_drop: 50]
[skip_drop: 0.5]
[xgboost_dart_mode: 0]
[uniform_drop: 0]
[drop_seed: 4]
[top_rate: 0.2]
[other_rate: 0.1]
[min_data_per_group: 100]
[max_cat_threshold: 32]
[cat_l2: 10]
[cat_smooth: 10]
[max_cat_to_onehot: 4]
[top_k: 20]
[monotone_constraints: ]
[monotone_constraints_method: basic]
[monotone_penalty: 0]
[feature_contri: ]
[forcedsplits_filename: ]
[refit_decay_rate: 0.9]
[cegb_tradeoff: 1]
[cegb_penalty_split: 0]
[cegb_penalty_feature_lazy: ]
[cegb_penalty_feature_coupled: ]
[path_smooth: 0]
[interaction_constraints: ]
[verbosity: 1]
[saved_feature_importance_type: 0]
[linear_tree: 0]
[max_bin: 255]
[max_bin_by_feature: ]
[min_data_in_bin: 3]
[bin_construct_sample_cnt: 200000]
[data_random_seed: 1]
[is_enable_sparse: 1]
[enable_bundle: 1]
[use_missing: 1]
[zero_as_missing: 0]
[feature_pre_filter: 1]
[pre_partition: 0]
[two_round: 0]
[header: 0]
[label_column: ]
[weight_column: ]
[group_column: ]
[ignore_column: ]
[categorical_feature: ]
[forcedbins_filename: ]
[precise_float_parser: 0]
[objective_seed: 5]
[num_class: 1]
[is_unbalance: 0]
[scale_pos_weight: 1]
[sigmoid: 1]
[boost_from_average: 1]
[reg_sqrt: 0]
[alpha: 0.9]
[fair_c: 1]
[poisson_max_delta_step: 0.7]
[tweedie_variance_power: 1.5]
[lambdarank_truncation_level: 30]
[lambdarank_norm: 1]
[label_gain: ]
[eval_at: ]
[multi_error_top_k: 1]
[auc_mu_weights: ]
[num_machines: 1]
[local_listen_port: 12400]
[time_out: 120]
[machine_list_filename: ]
[machines: ]
[gpu_platform_id: -1]
[gpu_device_id: -1]
[gpu_use_dp: 0]
[num_gpu: 1]

end of parameters

pandas_categorical:[]
