tree
version=v3
num_class=1
num_tree_per_iteration=1
label_index=0
max_feature_idx=3
objective=regression
feature_names=OPEN HIGH LOW VOLUME
feature_infos=[24.102:63.554000000000002] [24.838000000000001:63.823999999999998] [23.969999999999999:62.091000000000001] [11.31:182.27000000000001]
tree_sizes=1993 1970 1971 2140 2049 2053 2071 2061 2134 2069 2068 2078 2139 2157 2085 2163 2242 2175 2176 2101 2022 2108 2112 2273 2275 2112 2286 1954 2135 2214 1971 2136 2046 2308 2126 2234 2056 2057 2069 2221 2243 2087 2249 2090 2249 2170 2172 2257 2344 2176

Tree=0
num_leaves=24
num_cat=0
split_feature=2 2 0 1 1 2 1 1 2 2 1 1 1 2 2 1 2 1 2 1 2 2 2
split_gain=41231.2 8690.98 2738.03 2017.46 835.756 286.952 206.84 190.424 171.338 170.957 139.123 50.0106 39.3617 31.5564 27.0706 20.3522 18.6571 7.655 4.63723 3.9162 2.57139 1.89844 1.78808
threshold=40.575500000000012 49.421000000000014 32.702000000000005 56.564000000000007 46.146000000000008 52.227500000000006 37.830000000000005 48.442500000000003 26.922000000000004 58.191500000000005 44.725000000000009 51.919500000000006 29.513000000000002 53.405500000000011 46.107500000000009 49.688000000000009 42.016000000000005 55.117500000000007 51.590000000000011 45.566500000000012 53.004000000000012 45.394000000000005 50.327000000000005
decision_type=2 2 2 2 2 2 2 2 2 2 2 2 2 2 2 2 2 2 2 2 2 2 2
left_child=2 4 8 5 10 11 -4 14 -1 -5 16 22 -10 20 21 -9 -2 -15 -13 -12 -7 -6 -3
right_child=1 3 6 9 7 13 -8 15 12 -11 19 18 -14 17 -16 -17 -18 -19 -20 -21 -22 -23 -24
leaf_value=43.929503543079711 45.508250484623467 46.37385225640957 44.869379185239538 47.073615697116942 45.902906292721312 46.647243316966254 45.260437963165799 46.167042713889863 44.156926936995276 47.383991278283041 45.788718953630145 46.516611275035103 44.315014198891561 46.744885605900869 46.049436851718674 46.288136486576647 45.631687310534673 46.829294057988534 46.577880775404218 45.849790349291297 46.694709348721972 45.943886650853507 46.415118887354325
leaf_weight=28 24 21 38 36 20 25 21 35 36 35 21 30 28 21 29 23 25 22 21 21 21 26 21
leaf_count=28 24 21 38 36 20 25 21 35 36 35 21 30 28 21 29 23 25 22 21 21 21 26 21
internal_value=45.917 46.3729 44.4768 46.7745 45.9192 46.5981 45.0086 46.079 44.1358 47.2266 45.6857 46.4753 44.2261 46.7265 45.9738 46.2151 45.5712 46.7881 46.5418 45.8193 46.6689 45.9261 46.3945
internal_weight=0 477 151 253 224 182 59 133 92 71 91 93 64 89 75 58 49 43 51 42 46 46 42
internal_count=628 477 151 253 224 182 59 133 92 71 91 93 64 89 75 58 49 43 51 42 46 46 42
is_linear=0
shrinkage=1


Tree=1
num_leaves=23
num_cat=0
split_feature=2 2 1 1 1 2 1 2 1 1 1 2 2 2 2 2 1 2 1 1 1 2
split_gain=33401.4 7198.5 2040.18 1638.43 719.76 248.395 154.243 139.009 135.39 123.888 119.716 47.104 27.8212 24.255 21.9272 19.4312 16.4853 6.22721 5.57509 3.17212 2.61643 1.53774
threshold=40.182500000000012 49.421000000000014 32.402500000000011 56.964500000000008 46.146000000000008 52.480000000000011 48.442500000000003 36.416500000000006 27.838500000000003 44.725000000000009 59.924500000000009 50.946000000000005 28.379000000000001 53.848500000000008 46.107500000000009 41.797500000000007 49.688000000000009 53.258500000000005 51.370000000000005 45.566500000000012 53.055000000000007 45.394000000000005
decision_type=2 2 2 2 2 2 2 2 2 2 2 2 2 2 2 2 2 2 2 2 2 2
left_child=2 4 8 5 9 11 14 -4 -1 15 -5 18 -10 17 21 -2 -8 -7 -3 -11 -13 -6
right_child=1 3 7 10 6 13 16 -9 12 19 -12 20 -14 -15 -16 -17 -18 -19 -20 -21 -22 -23
leaf_value=-1.7901962893349783 -0.3931277252378918 0.42089821858839555 -0.96353688240051272 1.0548785137407708 -0.012655646678758787 0.67434151557184041 0.22506713058267322 -0.63979532150995166 -1.5934324818272745 -0.11542425042106992 1.3203630065917968 0.56250452597935996 -1.4605088770389558 0.81825448615210394 0.11922185862886495 -0.26854414632243495 0.33405153440392538 0.74003131654527454 0.486808933530535 -0.060459994418280462 0.61083776383172905 0.024226676737173245
leaf_weight=28 21 33 36 33 20 31 35 21 31 21 35 24 32 28 29 31 23 27 21 21 21 26
leaf_count=28 21 33 36 33 20 31 35 21 31 21 35 24 32 28 29 31 23 27 21 21 21 26
internal_value=0 0.404961 -1.31339 0.771781 -0.00387388 0.617497 0.145825 -0.844264 -1.60723 -0.215682 1.19152 0.509498 -1.52592 0.74182 0.0511229 -0.318857 0.268285 0.704921 0.44653 -0.0879421 0.58506 0.00819088
internal_weight=0 480 148 253 227 185 133 57 91 94 68 99 63 86 75 52 58 58 54 42 45 46
internal_count=628 480 148 253 227 185 133 57 91 94 68 99 63 86 75 52 58 58 54 42 45 46
is_linear=0
shrinkage=0.1


Tree=2
num_leaves=23
num_cat=0
split_feature=2 1 0 2 1 1 1 1 2 2 1 1 1 2 1 2 1 1 2 2 2 2
split_gain=27071.8 5962.53 1507.1 1368.37 580.683 217.585 145.27 113.833 98.7086 78.9097 63.3664 39.6487 26.4522 22.0939 19.2362 16.1285 13.6524 6.96289 5.06226 3.3044 1.74854 1.23004
threshold=39.772500000000008 50.487500000000004 32.702000000000005 55.171500000000009 45.672500000000007 53.607000000000006 47.916000000000004 27.838500000000003 58.191500000000005 35.827500000000008 44.063500000000005 51.919500000000006 29.513000000000002 53.405500000000011 49.031500000000008 45.646000000000008 42.826000000000008 55.117500000000007 51.590000000000011 45.061500000000002 50.282000000000004 53.004000000000012
decision_type=2 2 2 2 2 2 2 2 2 2 2 2 2 2 2 2 2 2 2 2 2 2
left_child=2 4 7 5 10 11 15 -1 -5 -4 16 20 -9 21 -8 19 -2 -15 -13 -6 -3 -7
right_child=1 3 9 8 6 13 14 12 -10 -11 -12 18 -14 17 -16 -17 -18 -19 -20 -21 -22 -23
leaf_value=-1.6111765589032854 -0.35668549537658695 0.36280839343865717 -0.8845496983363712 0.94873286738540197 -0.051639872491359706 0.59624331308447798 0.15001942312717439 -1.4261289596557618 1.1898016112191339 -0.63941852251688647 -0.12043004294236502 0.47864926627704074 -1.2965331452233453 0.6688877014886766 0.26356863202275455 0.069116742202245146 -0.25109445949395498 0.74699543571472171 0.54055928611755377 0.00083548343429962798 0.40139329951742425 0.62971769741603312
leaf_weight=28 25 24 29 33 20 23 25 36 35 24 30 28 28 21 37 34 24 25 25 30 23 21
leaf_count=28 25 24 29 33 20 23 25 36 35 24 30 28 28 21 37 34 24 25 25 30 23 21
internal_value=0 0.35974 -1.19831 0.687853 -0.0164958 0.550078 0.101676 -1.44301 1.07281 -0.773547 -0.23489 0.448556 -1.36943 0.66288 0.217783 0.015979 -0.304967 0.711338 0.507852 -0.0201547 0.38169 0.61222
internal_weight=0 483 145 258 225 190 146 92 68 53 79 100 64 90 62 84 49 46 53 50 47 44
internal_count=628 483 145 258 225 190 146 92 68 53 79 100 64 90 62 84 49 46 53 50 47 44
is_linear=0
shrinkage=0.1


Tree=3
num_leaves=25
num_cat=0
split_feature=1 1 0 1 2 2 1 1 2 2 1 2 1 1 2 2 2 2 2 1 2 1 2 1
split_gain=21938.1 4516.05 1565.97 1055.93 431.812 151.875 142.875 114.811 93.733 80.4817 62.3784 28.1539 25.8375 21.4886 15.0261 11.5468 8.85268 8.73728 6.90156 4.40842 4.03403 1.78585 1.76271 0.677891
threshold=42.120000000000012 50.753000000000007 32.702000000000005 56.964500000000008 45.646000000000008 52.480000000000011 38.430500000000009 44.725000000000009 26.922000000000004 59.055500000000002 48.636500000000005 50.946000000000005 36.011000000000003 29.738000000000003 53.848500000000008 44.820000000000007 48.600500000000004 46.522000000000013 42.016000000000005 28.795000000000005 53.258500000000005 53.055000000000007 50.473500000000008 46.418500000000002
decision_type=2 2 2 2 2 2 2 2 2 2 2 2 2 2 2 2 2 2 2 2 2 2 2 2
left_child=2 4 8 5 7 11 12 18 -1 -5 17 22 -4 19 20 -9 -12 -6 -2 -10 -7 -13 -3 -17
right_child=1 3 6 9 10 14 -8 15 13 -11 16 21 -14 -15 -16 23 -18 -19 -20 -21 -22 -23 -24 -25
leaf_value=-1.4513081175940377 -0.28579226613044739 0.3472461581230164 -0.83846925735473643 0.87246542588258402 0.045774491863059152 0.5467057766452913 -0.43637119474865149 -0.084499344218741446 -1.306276421319871 1.0924396186039365 0.19688918189360546 0.45567949314912159 -0.67965403511410671 -1.1518788987940007 0.66052126373563502 -0.018782936527647759 0.27864275066940875 0.1299882010980086 -0.20697979068756106 -1.2414806411379862 0.59957720085426613 0.49561079570225308 0.38482847015062971 0.0063355269132270705
leaf_weight=28 20 26 20 39 28 31 21 34 21 29 26 24 21 22 28 22 27 22 25 21 27 21 24 21
leaf_count=28 20 26 20 39 28 31 21 34 21 29 26 24 21 22 28 22 27 22 25 21 27 21 24 21
internal_value=0 0.336892 -1.03693 0.630307 0.0121796 0.504086 -0.648482 -0.115111 -1.29871 0.966278 0.16295 0.416931 -0.757125 -1.23194 0.600361 -0.0409501 0.238537 0.0828285 -0.242008 -1.27388 0.571318 0.474314 0.365286 -0.00651578
internal_weight=0 474 154 249 225 181 62 122 92 68 103 95 41 64 86 77 53 50 45 42 58 45 50 43
internal_count=628 474 154 249 225 181 62 122 92 68 103 95 41 64 86 77 53 50 45 42 58 45 50 43
is_linear=0
shrinkage=0.1


Tree=4
num_leaves=24
num_cat=0
split_feature=0 1 1 0 2 1 2 2 1 1 2 1 1 2 1 1 2 2 2 2 1 2 1
split_gain=17786.5 4027.62 905.305 860.171 403.943 170.006 82.2168 67.2766 60.4126 47.9642 42.7679 26.4251 24.0789 13.9681 12.2517 11.9939 7.38008 4.46948 2.612 2.19656 1.83852 1.5848 0.549091
threshold=39.784500000000001 50.487500000000004 57.882500000000007 31.483500000000003 44.820000000000007 53.607000000000006 46.503000000000007 26.922000000000004 44.399000000000008 36.011000000000003 59.356000000000002 52.140000000000008 55.942 48.106000000000002 29.045500000000004 42.826000000000008 53.258500000000005 45.646000000000008 50.473500000000008 51.590000000000011 54.777000000000008 47.272000000000006 46.418500000000002
decision_type=2 2 2 2 2 2 2 2 2 2 2 2 2 2 2 2 2 2 2 2 2 2 2
left_child=3 4 5 7 8 11 17 -1 15 -5 -4 18 16 21 -9 -2 -7 22 -3 -13 -18 -8 -6
right_child=1 2 10 9 6 12 13 14 -10 -11 -12 19 -14 -15 -16 -17 20 -19 -20 -21 -22 -23 -24
leaf_value=-1.306177295957293 -0.29328217932156159 0.29694116972386836 0.83326610061857442 -0.77376832132754125 -0.016904642261480068 0.48850851058959965 0.11171312257647514 -1.1692350988034848 -0.082162612982446689 -0.58039458537923883 1.0078361511230469 0.39487613656304105 0.64323943683079321 0.22470594953607628 -1.0790070225210753 -0.19987045349898164 0.52919003395807174 0.046047047817544949 0.34232901732126875 0.43820117950439458 0.57055642388083727 0.15152267217636109 0.0057019739589166084
leaf_weight=28 28 32 36 23 22 35 20 27 37 29 23 22 21 27 34 27 21 27 21 25 22 20 21
leaf_count=28 28 32 36 23 22 35 20 27 37 29 23 22 21 27 34 27 21 27 21 25 22 20 21
internal_value=0 0.286359 0.557295 -0.989054 -0.0188888 0.455298 0.0899481 -1.17785 -0.180961 -0.665925 0.901319 0.363333 0.548193 0.169131 -1.11894 -0.247426 0.522603 0.0141587 0.314925 0.417921 0.550354 0.131618 -0.0058642
internal_weight=0 487 258 141 229 199 137 89 92 52 59 100 99 67 61 55 78 70 53 47 43 40 43
internal_count=628 487 258 141 229 199 137 89 92 52 59 100 99 67 61 55 78 70 53 47 43 40 43
is_linear=0
shrinkage=0.1


Tree=5
num_leaves=24
num_cat=0
split_feature=2 2 1 2 1 2 1 2 2 2 1 1 2 2 2 2 2 1 1 2 2 0 1
split_gain=14416.5 3167.87 797.527 713.605 328.569 105.339 67.3829 59.6487 58.7612 57.6021 45.1425 20.6139 16.1218 14.8263 13.162 10.2383 9.3498 5.51051 3.61468 1.92406 0.856528 0.6938 0.504251
threshold=39.772500000000008 49.421000000000014 32.402500000000011 55.171500000000009 46.146000000000008 52.480000000000011 48.636500000000005 26.363500000000005 57.553000000000004 43.580000000000005 36.843500000000013 52.326000000000008 28.379000000000001 59.543500000000002 46.107500000000009 41.620000000000012 53.405500000000011 49.688000000000009 55.117500000000007 50.473500000000008 51.590000000000011 45.952000000000005 54.08700000000001
decision_type=2 2 2 2 2 2 2 2 2 2 2 2 2 2 2 2 2 2 2 2 2 2 2
left_child=2 4 7 5 9 11 14 -1 -5 15 -4 19 -9 -10 21 -2 22 -8 -18 -3 -13 -6 -7
right_child=1 3 10 8 6 16 17 12 13 -11 -12 20 -14 -15 -16 -17 18 -19 -20 -21 -22 -23 -24
leaf_value=-1.1985008586536754 -0.26499601999918621 0.27196831791489212 -0.6429476304487749 0.65784653226534529 0.018416720628592884 0.43925374984741217 0.15645409639941396 -1.0543562115849676 0.79937739769617722 -0.052061369680823422 -0.45539497080303382 0.36643848532722112 -0.95742693245410926 0.91595685958862316 0.085144535669436069 -0.17757486378824391 0.48600204558599569 0.22251400947570801 0.54227946090698242 0.31088236471017205 0.3933662290926333 -0.0063571743541755354 0.4617092800140381
leaf_weight=22 21 27 33 24 20 20 28 37 24 39 21 21 32 20 36 37 21 23 25 24 27 26 20
leaf_count=22 21 27 33 24 20 20 28 37 24 39 21 21 32 20 36 37 21 23 25 24 27 26 20
internal_value=0 0.262518 -0.874458 0.5067 -0.0060817 0.40488 0.0959909 -1.05512 0.783713 -0.146037 -0.57001 0.33455 -1.0094 0.852368 0.0398567 -0.209227 0.485841 0.186246 0.516588 0.290281 0.381585 0.00441408 0.450482
internal_weight=0 483 145 253 230 185 133 91 68 97 54 99 69 44 82 58 86 51 46 51 48 46 40
internal_count=628 483 145 253 230 185 133 91 68 97 54 99 69 44 82 58 86 51 46 51 48 46 40
is_linear=0
shrinkage=0.1


Tree=6
num_leaves=24
num_cat=0
split_feature=0 1 1 2 1 1 1 1 2 2 1 2 2 2 1 1 2 2 2 2 3 2 0
split_gain=11680.8 2641.9 607.508 564.221 259.853 116.254 75.4431 43.8608 36.7243 27.8049 18.7921 15.2407 14.4365 11.5943 9.64618 7.86478 4.0556 3.94799 3.55701 2.05831 0.994039 0.729024 0.15036
threshold=39.784500000000001 50.370500000000007 57.882500000000007 30.330500000000004 45.232000000000006 53.607000000000006 47.916000000000004 27.116500000000006 34.75650000000001 59.356000000000002 51.919500000000006 54.171000000000006 42.189000000000007 45.101500000000009 28.879000000000001 49.031500000000008 53.213500000000003 41.436000000000014 46.107500000000009 51.590000000000011 22.845000000000002 50.282000000000004 46.050500000000007
decision_type=2 2 2 2 2 2 2 2 2 2 2 2 2 2 2 2 2 2 2 2 2 2 2
left_child=3 4 5 7 12 10 13 -1 -5 -4 21 16 17 -6 -9 -8 -7 -2 22 -12 -18 -3 -15
right_child=1 2 9 8 6 11 15 14 -10 -11 19 -13 -14 18 -16 -17 20 -19 -20 -21 -22 -23 -24
leaf_value=-1.0790378180417148 -0.25297734439373015 0.23684574983738088 0.6762199097209507 -0.64650777180989583 -0.044127372843332784 0.39362655580043793 0.098467118144035345 -0.95787594477335625 -0.47631944641470914 0.81697739518207058 0.31483318294797624 0.50946664443382861 -0.12692487427481899 0.014318131036125123 -0.88109779093000629 0.17235271604337921 0.42517438054084783 -0.19014428392052651 0.059010971443993712 0.35431023406982426 0.45632516202472506 0.26107333846714187 0.0020560082094743851
leaf_weight=22 20 27 36 21 39 32 25 30 32 23 28 26 27 20 36 34 20 20 21 25 21 23 20
leaf_count=22 20 27 36 21 39 32 25 30 32 23 28 26 27 20 36 34 20 20 21 25 21 23 20
internal_value=0 0.232061 0.448795 -0.801514 -0.0182389 0.366342 0.0513674 -0.956757 -0.543753 0.731091 0.291967 0.443722 -0.183424 -0.00154254 -0.915997 0.141045 0.420306 -0.221561 0.0256838 0.333454 0.44113 0.24799 0.00818707
internal_weight=0 487 261 141 226 202 159 88 53 59 103 99 67 100 66 59 73 40 61 53 41 50 40
internal_count=628 487 261 141 226 202 159 88 53 59 103 99 67 100 66 59 73 40 61 53 41 50 40
is_linear=0
shrinkage=0.1


Tree=7
num_leaves=24
num_cat=0
split_feature=2 1 1 1 1 2 1 1 1 1 2 1 2 1 2 2 2 2 2 1 1 2 1
split_gain=9465.42 1942.76 681.631 461.265 190.514 78.6838 55.0268 51.8143 50.3609 26.3946 22.522 15.1556 12.8535 12.0127 6.57449 4.90866 3.98478 2.98866 2.03416 0.936895 0.932893 0.520496 0.436418
threshold=40.713500000000003 50.753000000000007 34.64950000000001 57.882500000000007 47.052000000000007 52.480000000000011 44.82500000000001 28.310000000000006 38.430500000000009 49.031500000000008 59.356000000000002 29.915500000000005 50.946000000000005 55.942 46.722000000000001 44.820000000000007 42.189000000000007 53.258500000000005 48.938000000000009 53.055000000000007 54.777000000000008 50.473500000000008 46.418500000000002
decision_type=2 2 2 2 2 2 2 2 2 2 2 2 2 2 2 2 2 2 2 2 2 2 2
left_child=2 4 7 5 6 12 16 -1 -4 14 -5 -9 21 17 -6 -8 -2 -7 -11 -14 -19 -3 -17
right_child=1 3 8 10 9 13 15 11 -10 18 -12 -13 19 -15 -16 22 -18 20 -20 -21 -22 -23 -24
leaf_value=-0.93545789203128304 -0.18131536937185699 0.22884147488153897 -0.47845348384645253 0.60859791570239608 0.028883583898897527 0.35963282892780923 -0.053067056269481265 -0.82187311099125793 -0.28359323115575885 0.14672452285885812 0.7352796824082084 -0.71650242351350335 0.29881531198819483 0.46899684043157674 0.098668939206335293 -0.011022504207424143 -0.12369028216316587 0.38528920355297269 0.18882187171415851 0.32773784682864238 0.41475573994896631 0.24926361391941707 0.0082891356106847541
leaf_weight=37 28 26 36 36 27 31 29 39 21 24 23 21 24 21 27 22 21 21 22 21 22 24 25
leaf_count=37 28 26 36 36 27 31 29 39 21 24 23 21 24 21 27 22 21 21 22 21 22 24 25
internal_value=0 0.22129 -0.681113 0.413737 0.00831489 0.337892 -0.0739883 -0.842387 -0.406663 0.111194 0.657982 -0.784993 0.27354 0.402245 0.0637763 -0.0207133 -0.156619 0.383302 0.166858 0.312312 0.400365 0.238644 -0.000750355
internal_weight=0 474 154 249 225 190 125 97 57 100 59 60 95 95 54 76 49 74 46 45 43 50 47
internal_count=628 474 154 249 225 190 125 97 57 100 59 60 95 95 54 76 49 74 46 45 43 50 47
is_linear=0
shrinkage=0.1


Tree=8
num_leaves=25
num_cat=0
split_feature=2 2 2 2 1 2 1 1 1 2 1 2 2 2 1 2 2 2 1 1 1 1 1 0
split_gain=7672.55 1683.6 426.55 383.1 174.877 71.369 57.6736 37.0868 19.7219 14.7305 11.4221 11.3237 10.25 7.96544 6.81686 6.02455 2.4433 2.3984 1.03077 1.03002 1.00675 0.842138 0.758885 0.167139
threshold=39.772500000000008 49.421000000000014 33.011500000000005 56.233500000000014 45.232000000000006 52.480000000000011 47.916000000000004 27.838500000000003 36.843500000000013 59.543500000000002 55.942 50.946000000000005 28.678500000000003 42.189000000000007 49.031500000000008 45.101500000000009 53.213500000000003 46.107500000000009 49.850000000000009 51.370000000000005 28.795000000000005 54.777000000000008 53.055000000000007 46.050500000000007
decision_type=2 2 2 2 2 2 2 2 2 2 2 2 2 2 2 2 2 2 2 2 2 2 2 2
left_child=2 4 7 5 13 11 15 -1 -4 -5 16 19 20 -2 -8 -6 -7 23 -16 -3 -9 -18 -13 -17
right_child=1 3 8 9 6 10 14 12 -10 -11 -12 22 -14 -15 18 17 21 -19 -20 -21 -22 -23 -24 -25
leaf_value=-0.86070996012006484 -0.17486791634881818 0.20214205799680768 -0.45711573680241901 0.56209786600536771 -0.02990189835147344 0.32168125935963227 0.080149216093122963 -0.76942697706676677 -0.33076170512608122 0.66913545608520508 0.42436124483744309 0.26893377403418223 -0.67289439773559578 -0.10343276007031953 0.13116540800441395 0.012920014103874564 0.34619361460208897 0.048189543400491988 0.16253287136554717 0.23047252609616234 -0.73807770013809204 0.37328016541220926 0.29496406487056187 -8.2290178397670395e-06
leaf_weight=28 37 33 30 36 38 28 25 21 21 20 24 24 25 27 22 20 24 21 20 21 20 22 21 20
leaf_count=28 37 33 30 36 38 28 25 21 21 20 24 24 25 27 22 20 24 21 20 21 20 22 21 20
internal_value=0 0.191514 -0.637939 0.369526 -0.00429925 0.303918 0.0498432 -0.764274 -0.405088 0.600326 0.364414 0.244033 -0.723362 -0.144731 0.121493 0.00135297 0.344971 0.0208232 0.146102 0.213159 -0.754135 0.359148 0.281081 0.00645589
internal_weight=0 483 145 253 230 197 166 94 51 56 98 99 66 64 67 99 74 61 42 54 41 46 45 40
internal_count=628 483 145 253 230 197 166 94 51 56 98 99 66 64 67 99 74 61 42 54 41 46 45 40
is_linear=0
shrinkage=0.1


Tree=9
num_leaves=24
num_cat=0
split_feature=0 1 1 2 2 1 2 2 1 2 2 2 1 0 2 1 2 2 2 2 2 3 3
split_gain=6220.77 1403.1 320.825 302.035 141.636 62.4032 38.1701 25.4666 19.9813 11.8835 10.696 9.40788 9.40712 5.06548 4.59855 3.43343 3.17065 1.92863 1.09748 1.00128 0.647549 0.525695 0.297388
threshold=39.784500000000001 50.487500000000004 57.980500000000006 30.330500000000004 43.932000000000009 53.607000000000006 46.503000000000007 26.363500000000005 35.484000000000009 59.356000000000002 42.415500000000009 54.171000000000006 51.919500000000006 48.874000000000002 28.094500000000004 46.198500000000003 41.277500000000011 53.213500000000003 51.590000000000011 47.460000000000008 45.646000000000008 22.845000000000002 20.315000000000001
decision_type=2 2 2 2 2 2 2 2 2 2 2 2 2 2 2 2 2 2 2 2 2 2 2
left_child=3 4 5 7 10 12 15 -1 -5 -4 16 17 22 19 -9 -6 -2 -7 -14 -8 -17 -19 -3
right_child=1 2 9 8 6 11 13 14 -10 -11 -12 -13 18 -15 -16 20 -18 21 -20 -21 -22 -23 -24
leaf_value=-0.79168093204498291 -0.1818163237720728 0.18899587851304275 0.50259790709524443 -0.4721242257526943 -0.024668417032808067 0.28804456740617751 0.064461762678216808 -0.6954934550869849 -0.3465890690684319 0.59623430293539303 -0.069759763715167844 0.37376937044077907 0.22970251994473592 0.13603641581535339 -0.64260419300624305 0.0049475766856361325 -0.13041387163102627 0.30919968247413637 0.2585287594795227 0.095377321690320982 0.02684884865431943 0.33185312861487981 0.17299608872050332
leaf_weight=22 20 26 33 21 34 32 22 31 32 23 24 29 28 25 35 27 30 20 25 20 27 21 21
leaf_count=22 20 26 33 21 34 32 22 31 32 23 24 29 28 25 35 27 30 20 25 20 27 21 21
internal_value=0 0.169351 0.329265 -0.584921 -0.0108148 0.270551 0.0435251 -0.698505 -0.396329 0.541056 -0.124635 0.325585 0.214417 0.100397 -0.667446 0.000224742 -0.150975 0.306443 0.2433 0.0791835 0.0158982 0.320803 0.181847
internal_weight=0 487 258 141 229 202 155 88 53 56 74 102 100 67 66 88 50 73 53 42 54 41 47
internal_count=628 487 258 141 229 202 155 88 53 56 74 102 100 67 66 88 50 73 53 42 54 41 47
is_linear=0
shrinkage=0.1


Tree=10
num_leaves=24
num_cat=0
split_feature=0 2 2 0 1 1 1 1 1 2 1 1 1 2 1 1 2 2 2 1 1 2 0
split_gain=5038.83 1137.05 253.488 245.617 121.984 47.2348 39.8636 20.0665 19.3045 9.60838 8.92986 6.31715 6.20268 4.85221 4.6866 3.00501 1.85147 1.18864 0.775004 0.691686 0.662995 0.495683 0.249712
threshold=39.784500000000001 49.421000000000014 56.233500000000014 30.748500000000003 45.232000000000006 53.940000000000005 47.916000000000004 35.377000000000002 27.116500000000006 59.055500000000002 52.382500000000007 42.975500000000004 55.942 44.895000000000003 49.031500000000008 28.482500000000005 46.107500000000009 53.405500000000011 50.473500000000008 49.850000000000009 29.513000000000002 51.873000000000012 45.801500000000011
decision_type=2 2 2 2 2 2 2 2 2 2 2 2 2 2 2 2 2 2 2 2 2 2 2
left_child=3 4 5 8 11 10 13 -5 -1 -4 18 -2 17 -6 -8 -10 22 -7 -3 -16 -17 -12 -15
right_child=1 2 9 7 6 12 14 -9 15 -11 21 -13 -14 16 19 20 -18 -19 -20 -21 -22 -23 -24
leaf_value=-0.71278635588559247 -0.15354656211791501 0.16092666132109507 0.44417889824619999 -0.44129439353942868 -0.034374657625254865 0.27013957500457764 0.064673048377037051 -0.31572963305882046 -0.63520636785598039 0.52707579711387897 0.21877129836515949 -0.091962834157877496 0.34292498876651134 0.011643125917762518 0.10712267246774652 -0.60176599139258979 0.038536395398633821 0.29697957544615777 0.18490301370620729 0.1328179234266281 -0.57692502845417371 0.23839801934457597 -0.0028814588850042946
leaf_weight=22 31 28 27 20 30 33 25 35 21 29 22 36 24 20 22 21 21 33 26 20 22 31 29
leaf_count=22 31 28 27 20 30 33 25 35 21 29 22 36 24 20 22 21 21 33 26 20 22 31 29
internal_value=0 0.152416 0.299367 -0.526429 -0.00646751 0.245999 0.0392647 -0.36139 -0.631978 0.487108 0.201091 -0.120457 0.29939 -0.000726752 0.0989535 -0.6042 0.0136938 0.28356 0.172471 0.119359 -0.589057 0.230251 0.00304694
internal_weight=0 487 253 141 234 197 167 55 86 56 107 67 90 100 67 64 70 66 54 42 43 53 49
internal_count=628 487 253 141 234 197 167 55 86 56 107 67 90 100 67 64 70 66 54 42 43 53 49
is_linear=0
shrinkage=0.1


Tree=11
num_leaves=24
num_cat=0
split_feature=2 1 1 1 1 1 1 1 2 1 2 2 1 2 2 2 2 3 2 1 2 0 0
split_gain=4084.2 836.309 297.129 202.308 82.3409 35.7268 24.7744 22.7906 22.5445 11.266 8.06925 6.60707 5.67909 5.05341 3.47851 2.22456 1.63998 1.40555 1.00108 0.862515 0.839955 0.243057 0.20413
threshold=40.713500000000003 50.753000000000007 34.64950000000001 57.980500000000006 47.052000000000007 53.940000000000005 44.725000000000009 38.430500000000009 27.619000000000003 49.031500000000008 59.543500000000002 50.946000000000005 29.915500000000005 54.350000000000001 46.722000000000001 44.820000000000007 42.016000000000005 43.365000000000002 53.405500000000011 53.283500000000011 48.938000000000009 50.927500000000009 45.729000000000006
decision_type=2 2 2 2 2 2 2 2 2 2 2 2 2 2 2 2 2 2 2 2 2 2 2
left_child=2 4 8 5 6 11 16 -4 17 14 -5 21 -10 18 -6 -8 -2 -1 -7 -13 -11 -3 -17
right_child=1 3 7 10 9 13 15 -9 12 20 -12 19 -14 -15 -16 22 -18 -19 -20 -21 -22 -23 -24
leaf_value=-0.5926897716522217 -0.12742580629530406 0.16316665697097779 -0.31449991729524407 0.41066912876235118 0.01690137779029707 0.24312561858784068 -0.034847733372589576 -0.18341463633946009 -0.53760776122411091 0.096689688600599774 0.48989089012145998 0.19609397188309702 -0.47217190946851462 0.31075882369821728 0.067662313111402375 0.0063606645573269244 -0.089518853306770341 -0.63018039703369144 0.26740280321666171 0.22165247979371447 0.12374110492792996 0.14907778948545455 -0.0068468414880335339
leaf_weight=20 21 25 36 36 27 33 32 21 36 24 20 31 21 22 27 22 25 20 35 23 22 24 25
leaf_count=20 21 25 36 36 27 33 32 21 36 24 20 31 21 22 27 22 25 20 35 23 22 24 25
internal_value=0 0.14536 -0.447406 0.271626 0.00562577 0.223072 -0.0484822 -0.266205 -0.553885 0.0732608 0.438963 0.182854 -0.5135 0.269099 0.0422818 -0.0145109 -0.106824 -0.611435 0.255621 0.20698 0.109627 0.156266 -0.000664605
internal_weight=0 474 154 249 225 193 125 57 97 100 56 103 57 90 54 79 46 40 68 54 46 49 47
internal_count=628 474 154 249 225 193 125 57 97 100 56 103 57 90 54 79 46 40 68 54 46 49 47
is_linear=0
shrinkage=0.1


Tree=12
num_leaves=25
num_cat=0
split_feature=1 2 1 2 1 2 2 2 0 1 2 1 1 1 1 0 2 3 1 1 0 1 2 0
split_gain=3309.37 677.176 240.317 167.598 60.8919 30.7321 23.7532 19.107 18.3967 7.14789 6.8345 5.36003 5.00147 4.61704 1.76792 1.5836 1.57912 1.44611 1.17686 1.03205 0.513157 0.46226 0.441138 0.281077
threshold=42.120000000000012 49.421000000000014 34.64950000000001 56.233500000000014 47.591500000000003 52.480000000000011 43.783000000000008 26.363500000000005 37.81600000000001 29.915500000000005 58.191500000000005 49.031500000000008 52.326000000000008 55.942 46.198500000000003 52.417000000000009 42.415500000000009 32.620000000000012 28.482500000000005 54.08700000000001 54.458500000000008 49.850000000000009 50.473500000000008 46.326000000000008
decision_type=2 2 2 2 2 2 2 2 2 2 2 2 2 2 2 2 2 2 2 2 2 2 2 2
left_child=2 4 7 5 6 12 16 -1 -4 18 -5 17 22 19 -8 -14 -2 -6 -9 -7 -21 -13 -3 -16
right_child=1 3 8 10 11 13 14 9 -10 -11 -12 21 15 -15 23 -17 -18 -19 -20 20 -22 -23 -24 -25
leaf_value=-0.5804433497515592 -0.099175349894810375 0.12929295146906819 -0.28481870174407958 0.35011352698008219 0.064117449335753918 0.20834446115927263 -0.019083821709972582 -0.51221712884448822 -0.16812108646739612 -0.42495472431182862 0.42227470397949224 0.086249591613357712 0.2027812860228799 0.27697533965110782 0.018153174488764742 0.16632730066776277 -0.064299158342182638 0.0260896519292146 -0.48193458210338247 0.24235834652377714 0.22211247285207114 0.10725549727678299 0.14792602956295015 0.0023427401161329312
leaf_weight=22 37 27 35 21 20 22 37 21 22 21 35 22 22 24 23 26 20 20 33 31 21 20 24 22
leaf_count=22 37 27 35 21 20 22 37 21 22 21 35 22 22 24 23 26 20 20 33 31 21 20 24 22
internal_value=0 0.130847 -0.402737 0.242558 0.00296033 0.199164 -0.0373562 -0.498497 -0.239778 -0.474459 0.395214 0.0713017 0.159867 0.238862 -0.00289071 0.183035 -0.0869381 0.0451036 -0.493711 0.226501 0.234182 0.0962524 0.138061 0.0104236
internal_weight=0 474 154 253 221 197 139 97 57 75 56 82 99 98 82 48 57 40 54 74 52 42 51 45
internal_count=628 474 154 253 221 197 139 97 57 75 56 82 99 98 82 48 57 40 54 74 52 42 51 45
is_linear=0
shrinkage=0.1


Tree=13
num_leaves=25
num_cat=0
split_feature=0 1 2 0 1 1 1 2 1 1 2 1 2 2 2 1 1 1 0 1 1 2 2 3
split_gain=2683.54 603.814 140.31 132.015 61.3305 19.6364 18.6877 16.1185 11.027 10.5432 3.30928 3.1071 2.39082 2.34597 2.29919 2.23856 1.27435 1.01522 1.0062 0.741974 0.674047 0.481795 0.417923 0.157667
threshold=39.784500000000001 50.487500000000004 54.670500000000011 30.748500000000003 45.232000000000006 53.283500000000011 47.845500000000008 57.553000000000004 27.116500000000006 36.011000000000003 41.70600000000001 51.919500000000006 59.543500000000002 44.936000000000007 53.213500000000003 49.031500000000008 28.482500000000005 43.659500000000008 53.364000000000011 46.840000000000011 54.861000000000011 51.398500000000006 28.542500000000004 20.315000000000001
decision_type=2 2 2 2 2 2 2 2 2 2 2 2 2 2 2 2 2 2 2 2 2 2 2 2
left_child=3 4 5 8 10 11 13 -4 -1 -5 -2 23 -9 -6 18 -8 -10 -12 -7 -15 -16 -13 -18 -3
right_child=1 2 7 9 6 14 15 12 16 -11 17 21 -14 19 20 -17 22 -19 -20 -21 -22 -23 -24 -25
leaf_value=-0.5226299957795576 -0.11623762273788452 0.12397805864994343 0.27499093170519229 -0.30941870671052202 -0.023139545818169915 0.20077232271432877 0.046478625280516495 0.35185997883478803 -0.46075341815040227 -0.22172245074962749 -0.085108905217864295 0.14533333063125611 0.39867432594299318 -0.0014240150430029439 0.20360208970529065 0.083955314997080213 -0.44033215804533521 -0.053978920155204835 0.17040218214193981 0.020120992669553469 0.22574656541858401 0.16702028910319011 -0.42060968875885013 0.11232814377262479
leaf_weight=22 25 26 27 26 33 20 28 24 21 29 22 20 20 31 27 37 22 20 24 33 28 21 21 21
leaf_count=22 25 26 27 26 33 20 28 24 21 29 22 20 20 31 27 37 22 20 24 33 28 21 21 21
internal_value=0 0.111229 0.216134 -0.384175 -0.00696036 0.170693 0.0263209 0.335815 -0.461556 -0.263179 -0.0874316 0.136323 0.373139 -0.00148203 0.201245 0.0678115 -0.440561 -0.0702851 0.184207 0.00968513 0.214876 0.156441 -0.4307 0.118773
internal_weight=0 487 258 141 229 187 162 71 86 55 67 88 44 97 99 65 64 42 44 64 55 41 43 47
internal_count=628 487 258 141 229 187 162 71 86 55 67 88 44 97 99 65 64 42 44 64 55 41 43 47
is_linear=0
shrinkage=0.1


Tree=14
num_leaves=24
num_cat=0
split_feature=2 1 1 1 1 1 2 2 1 1 2 2 2 2 2 0 2 0 3 2 1 0 1
split_gain=2173.74 475.181 122.961 109.045 52.8806 19.3249 11.4107 10.9017 10.692 6.25408 4.45996 3.46169 3.20317 2.4673 1.81321 1.47188 1.01452 0.680463 0.785167 0.492767 0.443583 0.306516 0.24502
threshold=39.772500000000008 50.753000000000007 34.113000000000007 57.980500000000006 46.198500000000003 53.940000000000005 26.363500000000005 46.722000000000001 44.399000000000008 36.459500000000013 59.543500000000002 50.946000000000005 28.678500000000003 54.350000000000001 48.472000000000001 46.604500000000009 41.797500000000007 54.399000000000008 22.255000000000003 27.769000000000002 53.283500000000011 50.927500000000009 45.672500000000007
decision_type=2 2 2 2 2 2 2 2 2 2 2 2 2 2 2 2 2 2 2 2 2 2 2
left_child=2 4 6 5 8 11 -1 15 16 -4 -5 21 19 17 -9 -6 -2 18 -7 -8 -13 -3 -10
right_child=1 3 9 10 7 13 12 14 22 -11 -12 20 -14 -15 -16 -17 -18 -19 -20 -21 -22 -23 -24
leaf_value=-0.47041727196086536 -0.10250851745190828 0.12136927771568298 -0.25168069104353585 0.29990989002916546 0.025112257661959649 0.18171205249699682 -0.41490470454806377 0.054397102238962783 -0.027675679201881093 -0.18152233362197878 0.35880690693855288 0.14252175304197498 -0.35920797538757326 0.22540503198450265 0.087479701042175298 -0.0048023028829102888 -0.074385073267180343 0.17416378236733951 0.20908864319324494 -0.39430915759159973 0.16085079623305279 0.10554773844778538 -0.013273431076889948
leaf_weight=22 23 25 24 36 38 22 21 37 27 27 20 31 25 22 30 29 29 26 20 26 23 24 21
leaf_count=22 23 25 24 36 38 22 21 37 27 27 20 31 25 22 30 29 29 26 20 26 23 24 21
internal_value=0 0.101938 -0.339558 0.198091 -0.00037934 0.162444 -0.407387 0.0406872 -0.0554085 -0.214538 0.320945 0.132865 -0.388128 0.196296 0.0692102 0.0121642 -0.0868243 0.186878 0.194749 -0.403511 0.150329 0.11362 -0.0213747
internal_weight=0 483 145 249 234 193 94 134 100 51 56 103 72 90 67 67 52 68 42 47 54 49 48
internal_count=628 483 145 249 234 193 94 134 100 51 56 103 72 90 67 67 52 68 42 47 54 49 48
is_linear=0
shrinkage=0.1


Tree=15
num_leaves=25
num_cat=0
split_feature=2 1 2 1 2 2 1 1 1 1 1 1 2 1 2 0 3 1 1 2 2 0 1 3
split_gain=1764.04 410.789 94.0276 72.2817 43.6899 18.6598 12.9118 6.93314 4.89053 3.81772 2.82365 2.57894 2.189 2.11 1.41385 1.29364 1.01281 0.847097 0.703537 0.546965 0.411304 0.336208 0.264106 0.173494
threshold=37.835000000000008 50.370500000000007 56.233500000000014 30.876500000000004 42.912000000000013 52.227500000000006 47.591500000000003 27.116500000000006 35.377000000000002 59.924500000000009 51.919500000000006 56.220500000000008 41.079000000000001 49.031500000000008 44.820000000000007 52.417000000000009 32.620000000000012 54.08700000000001 28.482500000000005 53.38750000000001 45.646000000000008 28.924000000000003 43.027500000000011 20.415000000000003
decision_type=2 2 2 2 2 2 2 2 2 2 2 2 2 2 2 2 2 2 2 2 2 2 2 2
left_child=3 4 5 7 12 10 14 -1 -5 -4 23 17 -2 16 -6 -12 -8 -7 -9 -19 -16 -20 -14 -3
right_child=1 2 9 8 6 11 13 18 -10 -11 15 -13 22 -15 20 -17 -18 19 21 -21 -22 -23 -24 -25
leaf_value=-0.42357760667800903 -0.10481420321898027 0.10001789251963299 0.25521187555222286 -0.2616724513825916 -0.023914190230425448 0.14913307714462282 0.049428640231490135 -0.37331556252070835 -0.19875183939933777 0.3091445854731969 0.14144305038836696 0.20374798263822283 -0.07380570818980535 0.067399773264632507 -0.0041275183741862958 0.10882215186953546 0.017604019535501721 0.15873089161786169 -0.34195141905830023 0.17874476876523759 0.012972735765982757 -0.35984549068269278 -0.057946035088527775 0.087993822991847992
leaf_weight=22 22 30 21 21 32 25 20 21 30 35 31 21 21 34 39 20 20 22 21 36 22 21 21 20
leaf_count=22 22 30 21 21 32 25 20 21 30 35 31 21 21 34 39 20 20 22 21 36 22 21 21 20
internal_value=0 0.0881174 0.174081 -0.318778 -0.00900987 0.14271 0.0179127 -0.375248 -0.22466 0.28892 0.112095 0.172442 -0.0792609 0.0490844 -0.00689061 0.128651 0.0335163 0.164521 -0.358371 0.171153 0.00203979 -0.350898 -0.0658759 0.0952083
internal_weight=0 492 261 136 231 205 167 85 51 56 101 104 64 74 93 51 40 83 63 58 61 42 42 50
internal_count=628 492 261 136 231 205 167 85 51 56 101 104 64 74 93 51 40 83 63 58 61 42 42 50
is_linear=0
shrinkage=0.1


Tree=16
num_leaves=26
num_cat=0
split_feature=2 1 2 1 2 1 2 2 2 1 1 2 1 2 2 1 2 0 3 1 0 3 0 2 2
split_gain=1428.87 332.875 82.976 58.5482 32.1871 14.6106 9.1396 6.02856 5.62266 3.96133 2.52667 2.40501 1.2902 1.09878 0.899086 0.81634 0.610033 0.555398 0.435789 0.397576 0.296099 0.48401 0.288957 0.284362 0.181715
threshold=37.835000000000008 49.688000000000009 54.670500000000011 30.876500000000004 43.783000000000008 52.684000000000005 57.553000000000004 46.722000000000001 26.363500000000005 35.377000000000002 54.008000000000003 41.277500000000011 61.110500000000009 45.646000000000008 50.473500000000008 43.559000000000005 27.769000000000002 54.458500000000008 24.835000000000004 54.33400000000001 45.729000000000006 33.240000000000002 28.924000000000003 47.573500000000003 49.891500000000001
decision_type=2 2 2 2 2 2 2 2 2 2 2 2 2 2 2 2 2 2 2 2 2 2 2 2 2
left_child=3 4 5 8 11 14 -4 13 -1 -5 18 -2 -8 20 24 -13 -10 19 -7 -12 21 -6 -18 -9 -3
right_child=1 2 6 9 7 10 12 23 16 -11 17 15 -14 -15 -16 -17 22 -19 -20 -21 -22 -23 -24 -25 -26
leaf_value=-0.3812462535771457 -0.0919270190000534 0.073782822356692382 0.19943907724486457 -0.23550520851498558 -0.012130390240677767 0.133890264749527 0.25771400233109792 0.038239215910434721 -0.33644074485415509 -0.17887665708859762 0.15150981744130454 -0.065733295955039836 0.2921041578054428 0.015216518390095897 0.10057632755488158 -0.040095850444682272 -0.30727187111264187 0.14342431152860324 0.11521859053894878 0.17096859216690063 -0.01570306337317047 0.0096063541993498813 -0.3238609472910563 0.05490029801925024 0.08577884331993435
leaf_weight=22 25 28 27 21 21 25 24 20 21 30 21 27 20 36 32 23 21 30 25 21 23 20 21 21 23
leaf_count=22 25 28 27 21 21 25 24 20 21 30 21 27 20 36 32 23 21 30 25 21 23 20 21 21 23
internal_value=0 0.0793056 0.152072 -0.2869 -0.0136735 0.119804 0.24524 0.0144802 -0.337723 -0.202194 0.141824 -0.0666024 0.273346 0.00124013 0.087437 -0.0539401 -0.322525 0.153816 0.124554 0.161239 -0.00662159 -0.0015271 -0.315566 0.0467729 0.0791928
internal_weight=0 492 276 136 216 205 71 141 85 51 122 75 44 100 83 50 63 72 50 42 64 41 42 41 51
internal_count=628 492 276 136 216 205 71 141 85 51 122 75 44 100 83 50 63 72 50 42 64 41 42 41 51
is_linear=0
shrinkage=0.1


Tree=17
num_leaves=25
num_cat=0
split_feature=2 1 2 1 2 2 2 2 1 1 1 2 2 2 0 1 1 1 0 3 1 0 3 2
split_gain=1157.39 269.628 67.3401 47.424 26.0715 11.4676 8.22983 4.88313 4.59567 3.20868 2.42935 1.97669 1.12007 0.890015 0.80254 0.729216 0.536263 0.39544 0.370465 0.367436 0.31768 0.23984 0.392048 0.230333
threshold=37.835000000000008 49.688000000000009 54.501000000000012 30.876500000000004 43.783000000000008 50.946000000000005 57.553000000000004 46.722000000000001 27.116500000000006 35.377000000000002 54.008000000000003 41.079000000000001 59.543500000000002 45.646000000000008 54.458500000000008 43.559000000000005 29.409000000000002 50.753000000000007 50.927500000000009 21.880000000000006 53.283500000000011 45.729000000000006 33.240000000000002 47.573500000000003
decision_type=2 2 2 2 2 2 2 2 2 2 2 2 2 2 2 2 2 2 2 2 2 2 2 2
left_child=3 4 5 8 11 17 -4 13 -1 -5 20 -2 -8 21 19 -13 -10 -3 -19 -12 -7 22 -6 -9
right_child=1 2 6 9 7 10 12 23 16 -11 14 15 -14 -15 -16 -17 -18 18 -20 -21 -22 -23 -24 -25
leaf_value=-0.34329888712276113 -0.085140081969174483 0.066858202715714785 0.17808714429537456 -0.21195469016120549 -0.010917351284020004 0.10360474086576893 0.23144644101460776 0.034415294548962271 -0.29744772544273962 -0.16098898887634278 0.13800944572403318 -0.059753175998727481 0.26348914504051207 0.01369486618269649 0.12504488022791013 -0.036086265171837544 -0.27844914297262829 0.090484162211418154 0.073268700152635577 0.15694849401712418 0.11859347860400493 -0.014132756712142905 0.0086457192152738574 0.049410268664360046
leaf_weight=22 22 27 30 21 21 31 24 20 39 30 21 30 20 36 27 23 24 25 25 20 26 23 20 21
leaf_count=22 22 27 30 21 21 31 24 20 39 30 21 30 20 36 27 23 24 25 25 20 26 23 20 21
internal_value=0 0.0713751 0.136865 -0.25821 -0.0123061 0.106968 0.218474 0.0130322 -0.303951 -0.181975 0.125668 -0.0599421 0.246011 0.00111612 0.138432 -0.0494826 -0.29021 0.0766103 0.0818764 0.147248 0.110442 -0.00595943 -0.00137439 0.0420956
internal_weight=0 492 276 136 216 202 74 141 85 51 125 75 44 100 68 53 63 77 50 41 57 64 41 41
internal_count=628 492 276 136 216 202 74 141 85 51 125 75 44 100 68 53 63 77 50 41 57 64 41 41
is_linear=0
shrinkage=0.1


Tree=18
num_leaves=25
num_cat=0
split_feature=2 2 1 0 1 2 1 2 1 2 2 2 2 1 1 2 3 1 3 2 1 0 0 1
split_gain=937.484 218.631 49.0635 38.4663 25.7266 8.65268 7.59776 4.58752 2.03281 1.61363 1.55429 1.30088 1.18375 1.14201 0.973028 0.740336 0.594731 0.454497 0.396156 0.390094 0.29323 0.202527 0.178855 0.14535
threshold=37.835000000000008 49.421000000000014 57.980500000000006 32.702000000000005 45.232000000000006 52.480000000000011 47.845500000000008 26.363500000000005 61.110500000000009 41.277500000000011 50.946000000000005 54.171000000000006 28.542500000000004 36.011000000000003 49.031500000000008 44.936000000000007 17.975000000000005 43.559000000000005 31.590000000000003 53.405500000000011 46.840000000000011 52.237500000000004 50.721500000000006 28.482500000000005
decision_type=2 2 2 2 2 2 2 2 2 2 2 2 2 2 2 2 2 2 2 2 2 2 2 2
left_child=3 4 5 7 9 10 15 -1 -4 -2 22 16 23 -5 -8 -6 -7 -11 -16 -18 -17 -12 -3 -9
right_child=1 2 8 13 6 11 14 12 -10 17 21 -13 -14 -15 18 20 19 -19 -20 -21 -22 -23 -24 -25
leaf_value=-0.30900015614249488 -0.076884233003312902 0.080473761899130691 0.19742300071650082 -0.17313488721847536 -0.013091459313308766 0.10461226940155029 0.027863297837653331 -0.27290475822630383 0.23718568265438078 -0.053184648741174623 0.10592386595904829 0.14438514600283112 -0.24023851244537919 -0.14077998350063961 0.042669490978799088 -0.0016355681323236037 0.11702131165398494 -0.034055098844692114 0.062115552587783895 0.13495994481173429 0.011908735202230288 0.092422968983650211 0.068668361589538332 -0.261273653940721
leaf_weight=22 22 21 36 20 33 20 28 21 20 27 20 29 27 24 22 31 27 23 20 22 33 25 33 22
leaf_count=22 22 21 36 20 33 20 28 21 20 27 20 29 27 24 22 31 27 23 20 22 33 25 33 22
internal_value=0 0.0642376 0.129028 -0.232389 -0.00434823 0.105549 0.0171945 -0.269168 0.211624 -0.0543154 0.0846975 0.126613 -0.256649 -0.155487 0.042303 -0.000925077 0.119144 -0.0443851 0.0519295 0.125075 0.00534821 0.0984234 0.0732594 -0.266954
internal_weight=0 492 253 136 239 197 167 92 56 72 99 98 70 44 70 97 69 50 42 49 64 45 54 43
internal_count=628 492 253 136 239 197 167 92 56 72 99 98 70 44 70 97 69 50 42 49 64 45 54 43
is_linear=0
shrinkage=0.1


Tree=19
num_leaves=24
num_cat=0
split_feature=2 1 1 1 1 1 2 1 2 1 3 1 2 2 1 3 1 0 2 0 2 3 2
split_gain=760.103 151.628 62.5747 31.6319 23.9918 6.74881 5.66705 4.23494 3.85084 2.29899 2.02064 1.97049 1.42537 1.08267 0.819727 0.589614 0.520707 0.514751 0.842768 0.47121 0.470196 0.223112 0.185652
threshold=41.079000000000001 51.919500000000006 34.64950000000001 58.590000000000011 47.845500000000008 44.399000000000008 37.835000000000008 27.116500000000006 54.501000000000012 49.688000000000009 34.385000000000012 53.283500000000011 28.678500000000003 59.543500000000002 54.861000000000011 36.085000000000008 47.052000000000007 45.177000000000007 45.101500000000009 53.427500000000009 47.491500000000009 34.385000000000012 49.891500000000001
decision_type=2 2 2 2 2 2 2 2 2 2 2 2 2 2 2 2 2 2 2 2 2 2 2
left_child=2 4 7 8 5 21 -4 -1 10 20 11 -3 15 -5 19 -9 17 -7 -19 -13 -6 -2 -11
right_child=1 3 6 13 9 16 -8 12 -10 22 -12 14 -14 -15 -16 -17 -18 18 -20 -21 -22 -23 -24
leaf_value=-0.27823304208842192 -0.040974356754767627 0.082243399990016022 -0.13328211506207785 0.18417988439400992 0.020323684811592104 0.0066686281244511952 -0.069807551208544857 -0.22596363186836244 0.14121071243286132 0.05342905609203237 0.074017458671221031 0.1184729122302749 -0.21047597059181761 0.21421690821647643 0.1302029699087143 -0.24861715899573433 0.011781535755233982 -0.025216417420994154 0.00055176063130299251 0.10008299578177303 0.04033238015448054 -0.055567858265712859 0.064221677184104917
leaf_weight=22 22 29 39 30 23 27 22 20 25 28 27 22 28 20 20 27 26 22 30 38 24 20 37
leaf_count=22 22 29 39 30 23 27 22 20 25 28 27 22 28 20 20 27 26 22 30 38 24 20 37
internal_value=0 0.0637876 -0.189748 0.126716 0.0125213 -0.0140451 -0.11039 -0.239654 0.105139 0.0473896 0.0985084 0.104575 -0.228337 0.196195 0.11267 -0.238977 -0.000493671 -0.00453361 -0.0103502 0.106826 0.0305409 -0.0479236 0.0595725
internal_weight=0 470 158 211 259 147 61 97 161 112 136 109 75 50 80 47 105 79 52 60 47 42 65
internal_count=628 470 158 211 259 147 61 97 161 112 136 109 75 50 80 47 105 79 52 60 47 42 65
is_linear=0
shrinkage=0.1


Tree=20
num_leaves=23
num_cat=0
split_feature=2 1 1 1 1 1 2 1 2 1 3 1 2 2 2 0 1 2 0 0 3 2
split_gain=615.684 122.819 50.967 25.6219 19.471 4.82186 3.94688 3.80612 3.11918 2.57803 1.63672 1.68814 1.57041 0.882135 0.87696 0.561846 0.385017 0.285617 0.757219 0.205536 0.180721 0.150378
threshold=41.079000000000001 51.919500000000006 35.141500000000001 58.590000000000011 47.591500000000003 44.399000000000008 37.835000000000008 28.310000000000006 54.501000000000012 49.688000000000009 34.385000000000012 54.008000000000003 29.170000000000005 46.722000000000001 59.543500000000002 52.237500000000004 54.861000000000011 45.394000000000005 45.177000000000007 28.749500000000001 34.385000000000012 49.891500000000001
decision_type=2 2 2 2 2 2 2 2 2 2 2 2 2 2 2 2 2 2 2 2 2 2
left_child=2 4 7 8 5 20 -4 -1 10 13 11 15 19 -6 -5 -3 -13 18 -7 -9 -2 -11
right_child=1 3 6 14 9 17 -8 12 -10 21 -12 16 -14 -15 -16 -17 -18 -19 -20 -21 -22 -23
leaf_value=-0.23948463717022458 -0.036876920602199707 0.094236248433589936 -0.11658913460042741 0.16576189505557221 0.0076686701178550728 0.0060017653861669483 -0.062826795317232606 -0.20324492851893106 0.12708964288234711 0.048086150562656776 0.06661571206318008 0.099961552587715358 -0.17674830186934698 0.033499963820362709 0.1927952152490616 0.072870388874434866 0.11718267127871514 0.0051645508769786724 -0.016579455765189998 -0.21723596141451884 -0.050011073201894768 0.057799509610678701
leaf_weight=37 22 20 36 30 20 27 22 21 25 28 27 37 21 39 20 32 20 33 33 21 20 37
leaf_count=37 22 20 36 30 20 27 22 21 25 28 27 37 21 39 20 32 20 33 33 21 20 37
internal_value=0 0.0574088 -0.170773 0.114045 0.0112691 -0.0150086 -0.0961965 -0.214027 0.0946253 0.039878 0.0886576 0.0941175 -0.199076 0.0247436 0.176575 0.081088 0.106004 -0.002308 -0.00641791 -0.21024 -0.0431313 0.0536153
internal_weight=0 470 158 211 259 135 58 100 161 124 136 109 63 59 50 52 57 93 60 42 42 65
internal_count=628 470 158 211 259 135 58 100 161 124 136 109 63 59 50 52 57 93 60 42 42 65
is_linear=0
shrinkage=0.1


Tree=21
num_leaves=24
num_cat=0
split_feature=2 1 1 1 1 1 2 2 2 1 2 2 3 1 2 0 1 2 3 0 2 3 3
split_gain=498.704 99.4831 41.2833 20.7537 15.7838 3.55243 3.24926 3.19697 2.53105 2.48055 1.65222 0.948726 0.774392 0.748961 0.723459 0.566225 0.534469 0.352442 0.30655 0.297468 0.668338 0.240179 0.146384
threshold=41.079000000000001 51.919500000000006 35.141500000000001 58.590000000000011 47.279500000000006 44.399000000000008 26.363500000000005 37.835000000000008 53.213500000000003 49.031500000000008 29.170000000000005 54.501000000000012 30.565000000000001 61.110500000000009 46.722000000000001 54.505500000000005 53.283500000000011 49.891500000000001 31.590000000000003 45.177000000000007 45.101500000000009 35.485000000000007 34.385000000000012
decision_type=2 2 2 2 2 2 2 2 2 2 2 2 2 2 2 2 2 2 2 2 2 2 2
left_child=2 4 6 8 5 22 -1 -4 12 14 21 15 16 -5 -6 -10 -3 18 -11 -7 -21 -8 -2
right_child=1 3 7 13 9 19 10 -9 11 17 -12 -13 -14 -15 -16 -17 -18 -19 -20 20 -22 -23 -24
leaf_value=-0.22656595923683864 -0.033189228888262402 0.068789914691889734 -0.1049302210410436 0.14892463132739067 0.002875610390170054 0.0054015886635709279 -0.18427385985851288 -0.056544115326621319 0.099063495955159592 0.03139582471549511 -0.15907347173917863 0.11438067889213561 0.058089815988205375 0.17390731066465379 0.02751498648072951 0.077481887675821787 0.087635290381662997 0.052019558565036678 0.047581019007008188 -0.021036829896779224 0.0010864509838736721 -0.19742132172440038 -0.045009965277276937
leaf_weight=22 22 27 36 30 22 27 24 22 31 25 21 25 24 20 26 20 34 37 22 22 36 33 20
leaf_count=22 22 27 36 30 22 27 24 22 31 25 21 25 24 20 26 20 34 37 22 22 36 33 20
internal_value=0 0.0516679 -0.153696 0.10264 0.0101422 -0.0150253 -0.192625 -0.0865769 0.0851628 0.0343565 -0.183052 0.0984227 0.0733069 0.158918 0.0162219 0.0906001 0.0792939 0.0447191 0.0389719 -0.00326888 -0.00730514 -0.191886 -0.0388182
internal_weight=0 470 158 211 259 127 100 58 161 132 78 76 85 50 48 51 61 84 47 85 58 57 42
internal_count=628 470 158 211 259 127 100 58 161 132 78 76 85 50 48 51 61 84 47 85 58 57 42
is_linear=0
shrinkage=0.1


Tree=22
num_leaves=24
num_cat=0
split_feature=1 1 1 1 1 2 1 0 2 1 1 2 3 2 2 0 3 1 3 3 1 0 2
split_gain=404.045 82.7798 30.4405 16.8105 13.4946 3.10765 2.41497 2.20851 2.05015 1.74297 0.815303 0.768468 0.627258 0.616414 0.607403 0.458642 0.433733 0.43292 0.432394 0.387323 0.22909 0.358814 0.0907741
threshold=42.120000000000012 51.919500000000006 34.64950000000001 58.590000000000011 47.591500000000003 43.932000000000009 27.116500000000006 37.372000000000007 53.213500000000003 49.688000000000009 29.915500000000005 54.501000000000012 30.565000000000001 59.543500000000002 46.722000000000001 54.505500000000005 35.485000000000007 53.283500000000011 32.060000000000009 42.775000000000013 46.198500000000003 46.326000000000008 49.891500000000001
decision_type=2 2 2 2 2 2 2 2 2 2 2 2 2 2 2 2 2 2 2 2 2 2 2
left_child=2 4 6 8 5 18 -1 -4 12 14 16 15 17 -5 -6 -10 -8 -3 -2 -20 -7 -22 -11
right_child=1 3 7 13 9 20 10 -9 11 22 -12 -13 -14 -15 -16 -17 -18 -19 19 -21 21 -23 -24
leaf_value=-0.20393715338273483 -0.018257859628647566 0.061910923253054972 -0.10012277346104384 0.13396013975143434 0.0056584586575627333 -0.0062705451471950198 -0.16412385106086733 -0.060454569511115552 0.089157146023165795 0.039270888684716614 -0.14953889193988981 0.10294261050224306 0.052280833836024013 0.1566246196627617 0.027093154867776692 0.069733698675408962 -0.18206054591215576 0.078871762029388379 -0.046106332521885639 -0.026425805166363715 0.013338746065678803 -0.0045247304761274294 0.046817602660204918
leaf_weight=22 20 27 32 30 20 34 28 25 31 28 21 25 24 20 39 20 26 34 20 20 23 22 37
leaf_count=22 20 27 32 30 20 34 28 25 31 28 21 25 24 20 39 20 26 34 20 20 23 22 37
internal_value=0 0.04572 -0.140723 0.0923762 0.00828854 -0.0131061 -0.174804 -0.0827244 0.0766465 0.0322713 -0.166258 0.0885804 0.0659762 0.143026 0.0198272 0.0815401 -0.17276 0.0713645 -0.0302633 -0.0362661 -7.53348e-05 0.00460549 0.0435667
internal_weight=0 474 154 211 263 139 97 57 161 124 75 76 85 50 59 51 54 61 60 40 79 45 65
internal_count=628 474 154 211 263 139 97 57 161 124 75 76 85 50 59 51 54 61 60 40 79 45 65
is_linear=0
shrinkage=0.1


Tree=23
num_leaves=26
num_cat=0
split_feature=2 1 1 2 1 1 2 2 2 1 2 3 1 1 2 1 0 2 0 3 3 3 3 3 3
split_gain=327.649 65.18 27.0763 13.6691 10.3793 2.41035 2.14711 2.12799 1.67978 1.66408 1.10554 0.769016 0.520511 0.480513 0.472423 0.435905 0.319867 0.619695 0.313754 0.265948 0.622246 0.257182 0.155064 0.131584 0.0971405
threshold=41.079000000000001 51.919500000000006 35.141500000000001 56.753000000000007 47.279500000000006 44.399000000000008 26.363500000000005 37.835000000000008 53.405500000000011 49.031500000000008 29.170000000000005 30.565000000000001 61.110500000000009 54.008000000000003 46.722000000000001 55.117500000000007 45.116500000000009 45.061500000000002 45.952000000000005 32.850000000000009 20.545000000000005 24.885000000000002 35.485000000000007 19.895000000000003 34.385000000000012
decision_type=2 2 2 2 2 2 2 2 2 2 2 2 2 2 2 2 2 2 2 2 2 2 2 2 2
left_child=2 4 6 8 5 24 -1 -4 11 14 22 13 -5 23 -6 -10 -7 -18 -19 20 -11 -17 -8 -3 -2
right_child=1 3 7 12 9 16 10 -9 15 19 -12 -13 -14 -15 -16 21 17 18 -20 -21 -22 -23 -24 -25 -26
leaf_value=-0.18369661569595339 -0.027154577320272273 0.06609400391578675 -0.085196246869034251 0.12048051367203394 0.0022650167346000673 0.0073223785962909464 -0.14943408767382305 -0.045719974928281532 0.069720082623617993 0.04120307842661676 -0.12870982062248956 0.045547145653516058 0.141307408567518 0.07710552680492401 0.022175779723777222 0.095590415969491013 -0.020736517539526177 0.0096981331147253519 -0.0078028264588543353 0.046136535704135895 0.020889361262321472 0.080085284424864733 -0.15999814398360976 0.05539229528426573 -0.036783959227905144
leaf_weight=22 22 20 36 30 22 24 24 22 21 38 21 25 20 25 26 20 20 20 21 21 25 23 33 27 20
leaf_count=22 22 20 36 30 22 24 24 22 21 38 21 25 20 25 26 20 20 20 21 21 25 23 33 27 20
internal_value=0 0.0418798 -0.124579 0.0831386 0.00826737 -0.0121415 -0.156106 -0.0702225 0.0689545 0.0279032 -0.148324 0.0606576 0.128811 0.0659043 0.01305 0.0815296 -0.00245753 -0.00630536 0.000734227 0.0363907 0.0331421 0.087297 -0.15555 0.0599462 -0.03174
internal_weight=0 470 158 211 259 127 100 58 161 132 78 97 50 72 48 64 85 61 41 84 63 43 57 47 42
internal_count=628 470 158 211 259 127 100 58 161 132 78 97 50 72 48 64 85 61 41 84 63 43 57 47 42
is_linear=0
shrinkage=0.1


Tree=24
num_leaves=26
num_cat=0
split_feature=2 1 1 1 1 1 1 2 1 2 3 3 1 2 3 0 3 3 0 2 0 2 2 0 3
split_gain=265.396 52.8418 21.9318 10.5366 9.18708 1.95238 1.79835 1.72367 1.56912 1.1788 0.905894 0.804326 0.767081 0.562697 0.470741 0.675511 0.415273 0.321939 0.259093 0.501953 0.254141 0.151506 0.12706 0.183782 0.0786838
threshold=41.079000000000001 52.326000000000008 35.141500000000001 58.590000000000011 47.279500000000006 44.399000000000008 28.482500000000005 37.835000000000008 49.688000000000009 54.501000000000012 34.385000000000012 42.775000000000013 54.861000000000011 29.170000000000005 28.300000000000001 47.607500000000009 28.23 21.230000000000004 45.116500000000009 45.061500000000002 45.952000000000005 52.847000000000008 50.473500000000008 50.01850000000001 34.385000000000012
decision_type=2 2 2 2 2 2 2 2 2 2 2 2 2 2 2 2 2 2 2 2 2 2 2 2 2
left_child=2 4 6 9 5 24 11 -4 14 10 12 -1 17 -8 -6 -16 -5 21 -7 -20 -21 -3 23 -10 -2
right_child=1 3 7 16 8 18 13 -9 22 -11 -12 -13 -14 -15 15 -17 -18 -19 19 20 -22 -23 -24 -25 -26
leaf_value=-0.14318144787912784 -0.024439119767736307 0.04687304755672813 -0.076676622198687663 0.12357544620831809 0.025930975914001467 0.0065901406963045405 -0.13643631173504725 -0.041147977113723755 0.040159730071371254 0.083063188835978519 0.042247834786772728 -0.17060168743133547 0.081048125326633469 -0.11583884003616514 0.02069148145277392 -0.0047015477530658253 0.10497273765504361 0.065785144661099484 -0.018662866214290263 0.0087283200398087495 -0.0070225437859161985 0.058773685538250464 0.042171848146244889 0.027946055660556468 -0.033105563586577777
leaf_weight=23 22 20 36 30 25 24 36 22 22 25 25 20 20 21 22 20 20 39 20 20 21 23 24 28 20
leaf_count=23 22 20 36 30 25 24 36 22 22 25 25 20 20 21 22 20 20 39 20 20 21 23 24 28 20
internal_value=0 0.0376918 -0.112121 0.0763135 0.00858138 -0.0109273 -0.140495 -0.0632002 0.0261531 0.0632146 0.0593074 -0.155935 0.0634886 -0.128848 0.0150665 0.00859956 0.116134 0.0592058 -0.00221178 -0.00567483 0.000660804 0.0532385 0.0361909 0.0333201 -0.028566
internal_weight=0 470 158 202 268 127 100 58 141 152 127 43 102 57 67 42 50 82 85 61 41 43 74 50 42
internal_count=628 470 158 202 268 127 100 58 141 152 127 43 102 57 67 42 50 82 85 61 41 43 74 50 42
is_linear=0
shrinkage=0.1


Tree=25
num_leaves=24
num_cat=0
split_feature=2 1 1 2 1 1 2 2 2 1 0 2 0 1 1 1 0 3 0 1 3 2 0
split_gain=214.971 42.8019 17.7683 8.53854 7.52085 1.9593 1.60368 1.39415 0.89374 0.776512 0.617975 0.983547 0.633345 0.462027 0.412704 0.285488 0.273278 0.183919 0.183885 0.436043 0.171725 0.102919 0.148864
threshold=41.079000000000001 52.326000000000008 34.64950000000001 56.753000000000007 47.845500000000008 45.232000000000006 37.835000000000008 26.363500000000005 53.405500000000011 49.688000000000009 52.417000000000009 52.227500000000006 53.525000000000006 29.409000000000002 61.110500000000009 55.117500000000007 48.157000000000004 24.885000000000002 46.457000000000008 46.38450000000001 32.060000000000009 50.473500000000008 50.01850000000001
decision_type=2 2 2 2 2 2 2 2 2 2 2 2 2 2 2 2 2 2 2 2 2 2 2
left_child=2 4 7 8 5 20 -4 -1 10 16 -3 -12 -13 -9 -5 -10 -6 -17 19 -7 -2 22 -11
right_child=1 3 6 14 9 18 -8 13 15 21 11 12 -14 -15 -16 17 -18 -19 -20 -21 -22 -23 -24
leaf_value=-0.14963779530741952 -0.015823748397330441 0.064865666831081567 -0.070799180712455362 0.097111152360836672 0.023288711704313757 -0.0027559649395315273 -0.037033179131421172 -0.12855020654507174 0.056324797372023262 0.036143757026134565 0.026999336080625654 0.066364953276656924 0.042807975757867101 -0.11284004830651813 0.11565624356269838 0.077562795840203758 0.0080070722128518616 0.06445080022449079 -0.0054279433571380277 0.01386466928654247 -0.027461527392733845 0.037954662825601802 0.025151450183641701
leaf_weight=22 21 22 39 30 25 38 22 39 21 22 20 21 25 36 20 20 22 23 29 27 32 24 28
leaf_count=22 21 22 39 30 25 38 22 39 21 22 20 21 25 36 20 20 22 23 29 27 32 24 28
internal_value=0 0.0339226 -0.100909 0.0686822 0.00772325 -0.00747523 -0.0586213 -0.127502 0.0568904 0.0261875 0.0503511 0.0455129 0.0535622 -0.121009 0.104529 0.065882 0.0161356 0.0705494 0.00119371 0.00414799 -0.0228503 0.0325718 0.0299881
internal_weight=0 470 158 202 268 147 61 97 152 121 88 66 46 75 50 64 47 43 94 65 53 74 50
internal_count=628 470 158 202 268 147 61 97 152 121 88 66 46 75 50 64 47 43 94 65 53 74 50
is_linear=0
shrinkage=0.1


Tree=26
num_leaves=26
num_cat=0
split_feature=1 1 1 2 1 0 1 1 3 1 1 3 2 0 0 2 2 0 1 1 3 0 0 0 3
split_gain=174.199 35.8485 13.1572 9.10416 3.65512 1.66037 1.54068 0.959896 0.944959 0.758848 0.614149 0.473649 0.431069 0.417717 0.384112 0.63007 0.291179 0.254923 0.343314 0.215926 0.152695 0.142654 0.142166 0.123564 0.0875274
threshold=42.120000000000012 50.753000000000007 30.876500000000004 56.233500000000014 46.198500000000003 37.372000000000007 54.008000000000003 49.031500000000008 22.100000000000005 27.116500000000006 44.063500000000005 36.855000000000011 51.590000000000011 51.493000000000002 53.898500000000006 53.848500000000008 34.75650000000001 28.924000000000003 28.482500000000005 46.937000000000005 19.895000000000003 49.237500000000004 45.177000000000007 53.051000000000009 24.885000000000002
decision_type=2 2 2 2 2 2 2 2 2 2 2 2 2 2 2 2 2 2 2 2 2 2 2 2 2
left_child=2 4 9 6 10 16 12 11 -5 -1 -2 19 13 20 -8 -16 -4 18 -11 -6 -3 -9 -12 -14 -17
right_child=1 3 5 8 7 -7 14 21 -10 17 22 -13 23 -15 15 24 -18 -19 -20 -21 -22 -23 -24 -25 -26
leaf_value=-0.13472441922534595 -0.023966679392525784 0.031975547182373706 -0.079077214933931828 0.074232256561517718 0.0026687671386060262 -0.039378732651472098 0.067145660925995221 0.029301646204354867 0.1013425464431445 -0.11769478548140754 -0.0025113110630107776 -0.0045441430362482228 0.051517317183315758 0.021552528271620925 0.039405042104423048 0.064320075362920767 -0.06273970529437066 -0.12214768358639308 -0.099612593792733697 0.015364439982698281 0.043806443301339947 0.018121673256158832 -0.013121911365052927 0.040401403866708284 0.054964469000697139
leaf_weight=22 39 20 24 20 21 25 22 21 36 21 28 31 20 22 25 20 20 21 21 37 24 25 23 20 20
leaf_count=22 39 20 24 20 21 25 22 21 36 21 28 31 20 22 25 20 20 21 21 37 24 25 23 20 20
internal_value=0 0.0300203 -0.0924001 0.0561622 0.00108985 -0.0599582 0.0458623 0.0114966 0.0916603 -0.118735 -0.0145202 0.00543438 0.0377679 0.0328034 0.0557244 0.0518587 -0.0716511 -0.113152 -0.108654 0.0107677 0.0384288 0.0232256 -0.00729648 0.0459594 0.0596423
internal_weight=0 474 154 249 225 69 193 135 56 85 90 89 106 66 87 65 44 63 42 58 44 46 51 40 40
internal_count=628 474 154 249 225 69 193 135 56 85 90 89 106 66 87 65 44 63 42 58 44 46 51 40 40
is_linear=0
shrinkage=0.1


Tree=27
num_leaves=22
num_cat=0
split_feature=2 1 1 1 1 1 3 2 3 3 1 3 2 1 2 0 3 1 0 3 1
split_gain=141.34 28.2426 11.7453 5.42303 5.40415 1.5877 1.02705 0.889108 0.631991 0.568321 0.480583 0.365585 0.284536 0.479099 0.276777 0.472998 0.323754 0.266252 0.211602 0.141355 0.0442342
threshold=41.079000000000001 52.684000000000005 35.141500000000001 58.590000000000011 48.636500000000005 45.232000000000006 43.365000000000002 37.835000000000008 34.385000000000012 27.360000000000003 29.409000000000002 28.23 49.891500000000001 49.622000000000007 46.107500000000009 45.729000000000006 34.195000000000007 54.008000000000003 54.898000000000003 32.060000000000009 51.370000000000005
decision_type=2 2 2 2 2 2 2 2 2 2 2 2 2 2 2 2 2 2 2 2 2
left_child=2 4 6 8 5 19 10 -4 9 17 -1 -5 13 -6 15 16 -7 -3 -19 -2 -14
right_child=1 3 7 11 12 14 -8 -9 -10 -11 -12 -13 20 -15 -16 -17 -18 18 -20 -21 -22
leaf_value=-0.10241320943221069 -0.012282156802359083 0.039195756241679196 -0.055700876481003241 0.092203589615722503 0.029407971337437628 -0.0025219536386430264 -0.11670678034424782 -0.030183934217149561 0.033182172166804476 0.064637413299219168 -0.085057521004367753 0.074749251753091814 0.026549295581684548 0.010801858911591192 0.0095586850644192763 -0.0092125199496041286 0.015471209893003109 0.055062438528507188 0.043128275979931158 -0.022840817994438115 0.032229639725902905
leaf_weight=39 21 31 36 30 25 20 34 22 27 22 27 20 29 31 36 37 20 39 24 32 26
leaf_count=39 21 31 36 30 25 20 34 22 27 22 27 20 29 31 36 37 20 39 24 32 26
internal_value=0 0.0275063 -0.0818226 0.0568737 0.00704462 -0.00437709 -0.102587 -0.046022 0.0469617 0.050169 -0.0953132 0.0852219 0.0241257 0.0191082 0.00232066 -0.00106335 0.00647463 0.0467828 0.0505161 -0.0186572 0.0292345
internal_weight=0 470 158 193 277 166 100 58 143 116 66 50 111 56 113 77 40 94 63 53 55
internal_count=628 470 158 193 277 166 100 58 143 116 66 50 111 56 113 77 40 94 63 53 55
is_linear=0
shrinkage=0.1


Tree=28
num_leaves=24
num_cat=0
split_feature=1 1 1 1 1 2 2 2 2 3 2 3 3 2 0 1 0 2 0 0 2 3 1
split_gain=114.613 20.8292 12.3846 4.39265 3.70413 1.07078 0.913308 0.840814 0.54138 0.835556 0.419273 0.417146 0.46748 0.376412 0.533694 0.369986 0.362018 0.329549 0.205995 0.124456 0.120105 0.0611655 0.0483406
threshold=42.975500000000004 52.684000000000005 35.141500000000001 58.590000000000011 49.031500000000008 37.835000000000008 26.363500000000005 46.107500000000009 54.501000000000012 34.385000000000012 29.170000000000005 32.850000000000009 23.895000000000003 43.932000000000009 43.157500000000006 54.861000000000011 53.186000000000007 59.543500000000002 45.729000000000006 28.613500000000005 53.213500000000003 30.565000000000001 50.879500000000007
decision_type=2 2 2 2 2 2 2 2 2 2 2 2 2 2 2 2 2 2 2 2 2 2 2
left_child=2 4 6 8 7 -4 -1 13 9 15 19 12 22 14 -2 16 -3 -5 -15 -8 -18 -9 -6
right_child=1 3 5 17 11 -7 10 21 -10 -11 -12 -13 -14 18 -16 -17 20 -19 -20 -21 -22 -23 -24
leaf_value=-0.1103229862045158 -0.0017059415578842164 0.049101333890575916 -0.050130788650777608 0.070070948426922172 0.020378866492537784 -0.02574064942374308 -0.087718078448916936 0.0063649400677864582 0.055633155114948755 0.022331504516667971 -0.075173921732320681 0.034061971724033357 0.0072557569724386152 0.0034668401079742533 -0.024276617994870655 0.055658863335847852 0.029008790701627731 0.086642748676240444 -0.0070157007276508455 -0.097182261943817141 0.03931639584211203 0.01382953380437001 0.026574678450603698
leaf_weight=22 20 29 36 30 20 36 33 21 25 23 21 25 23 38 22 20 20 20 37 24 26 23 34
leaf_count=22 20 29 36 30 20 36 33 21 25 23 21 25 23 38 22 20 20 20 37 24 26 23 34
internal_value=0 0.0262373 -0.0695593 0.0511863 0.00792869 -0.0379357 -0.0923283 -0.00151741 0.0422655 0.0394334 -0.0872529 0.0228387 0.0191948 -0.00594911 -0.0135287 0.0435739 0.0403512 0.0766997 -0.00170455 -0.091703 0.0348348 0.0102669 0.0242799
internal_weight=0 456 172 193 263 72 100 161 143 118 78 102 77 117 42 95 75 50 75 57 46 44 54
internal_count=628 456 172 193 263 72 100 161 143 118 78 102 77 117 42 95 75 50 75 57 46 44 54
is_linear=0
shrinkage=0.1


Tree=29
num_leaves=25
num_cat=0
split_feature=2 2 1 2 1 0 1 3 1 3 2 2 0 0 2 2 0 3 3 3 2 3 0 3
split_gain=92.9192 18.5869 7.75188 5.03495 1.77961 0.976813 0.853746 0.803703 0.604252 0.480777 0.348306 0.333929 0.440094 0.304748 0.444939 0.24997 0.400631 0.265146 0.229042 0.15917 0.129805 0.118725 0.0957866 0.0685624
threshold=41.079000000000001 49.421000000000014 30.876500000000004 56.233500000000014 45.232000000000006 37.372000000000007 54.008000000000003 22.100000000000005 49.031500000000008 35.485000000000007 26.922000000000004 46.722000000000001 46.777000000000008 53.898500000000006 53.848500000000008 51.590000000000011 51.493000000000002 19.865000000000006 33.240000000000002 31.590000000000003 34.75650000000001 32.060000000000009 53.051000000000009 24.885000000000002
decision_type=2 2 2 2 2 2 2 2 2 2 2 2 2 2 2 2 2 2 2 2 2 2 2 2
left_child=2 4 9 6 21 20 15 -5 11 -1 -11 12 18 -8 -15 16 17 -3 -6 -10 -4 -2 -17 -16
right_child=1 3 5 7 8 -7 13 -9 19 10 -12 -13 -14 14 23 22 -18 -19 -20 -21 -22 -23 -24 -25
leaf_value=-0.077880763241222936 -0.009257676656402293 0.021733089655637743 -0.056790725296984118 0.051106108371168385 -0.0018608321729851396 -0.028192782825950918 0.050773761997168709 0.076108151203435337 0.010453621602871201 -0.10338425222784281 -0.086347389357785395 0.012230033286053826 -0.012415059250981911 0.026692028103396298 0.04783833879977465 0.03854343747720123 0.012565573677420616 0.036610561471594416 0.0094369383528828624 0.022779815718531611 -0.045882568173110483 -0.018934298941167074 0.02875637272372842 0.039558098185807467
leaf_weight=35 21 25 24 20 38 29 22 36 22 20 30 27 23 25 20 20 22 23 34 20 20 32 20 20
leaf_count=35 21 25 24 20 38 29 22 36 22 20 30 27 23 25 20 20 22 23 34 20 20 32 20 20
internal_value=0 0.0223025 -0.0663427 0.0407197 0.000829843 -0.0424414 0.0331983 0.0671789 0.00597796 -0.0868698 -0.0931621 0.00241647 -0.000372653 0.0406006 0.0371574 0.0273437 0.0237402 0.0288619 0.00347423 0.0163232 -0.0518325 -0.0151002 0.0336499 0.0436982
internal_weight=0 470 158 253 217 73 197 56 164 85 50 122 95 87 65 110 70 48 72 42 44 53 40 40
internal_count=628 470 158 253 217 73 197 56 164 85 50 122 95 87 65 110 70 48 72 42 44 53 40 40
is_linear=0
shrinkage=0.1


Tree=30
num_leaves=22
num_cat=0
split_feature=1 1 1 2 1 2 3 2 0 3 3 3 3 1 3 0 1 1 0 0 3
split_gain=75.4222 13.6981 8.11643 2.97293 2.38256 0.687864 0.68572 0.597907 0.404737 0.365941 0.436622 0.326244 0.396925 0.27673 0.229437 0.339418 0.228532 0.186843 0.141821 0.0669181 0.0602922
threshold=42.975500000000004 52.684000000000005 35.141500000000001 57.553000000000004 49.031500000000008 37.835000000000008 43.365000000000002 46.107500000000009 60.283500000000011 34.385000000000012 27.360000000000003 32.850000000000009 20.115000000000006 29.409000000000002 35.95000000000001 45.50950000000001 46.146000000000008 54.008000000000003 54.898000000000003 47.500500000000009 17.510000000000002
decision_type=2 2 2 2 2 2 2 2 2 2 2 2 2 2 2 2 2 2 2 2 2
left_child=2 4 6 9 7 -4 13 14 -5 10 17 12 20 -1 16 -16 -2 -3 -19 -9 -6
right_child=1 3 5 8 11 -7 -8 19 -10 -11 -12 -13 -14 -15 15 -17 -18 18 -20 -21 -22
leaf_value=-0.074303917892468291 -0.0053170693883051482 0.027971485845984953 -0.040600717160850765 0.074392719602301011 0.01797028785571456 -0.021052145866754777 -0.086397011501385901 0.012358143149564665 0.055191034301305598 0.024901634566485881 0.049979140643369072 0.028319928288459778 0.0075099046736593457 -0.06113390523112483 -0.0038354350062899099 -0.01985852443613112 0.0076196606524965979 0.041240254230200293 0.031812068913994289 0.0045260561490431429 0.025642098681557746
leaf_weight=39 36 31 36 21 20 36 34 24 23 30 22 25 36 27 39 20 22 39 27 20 21
leaf_count=39 36 31 36 21 20 36 34 24 23 30 22 25 36 27 39 20 22 39 27 20 21
internal_value=0 0.0212839 -0.0564271 0.0415163 0.0064366 -0.0308264 -0.0748597 -0.00113924 0.0643555 0.0347718 0.0372601 0.0183946 0.015172 -0.0689162 -0.00487636 -0.00926699 -0.000410034 0.0343754 0.0373833 0.0087981 0.0218998
internal_weight=0 456 172 193 263 72 100 161 44 149 119 102 77 66 117 59 58 97 66 44 41
internal_count=628 456 172 193 263 72 100 161 44 149 119 102 77 66 117 59 58 97 66 44 41
is_linear=0
shrinkage=0.1


Tree=31
num_leaves=24
num_cat=0
split_feature=2 2 1 1 1 1 2 1 0 2 3 1 3 3 0 0 2 3 0 2 1 0 2
split_gain=61.0966 12.2638 5.20923 3.43674 1.25808 0.688587 0.577825 0.446997 0.590732 0.715675 0.418199 0.391851 0.50206 0.397489 0.315367 0.271998 0.307755 0.213658 0.185144 0.183967 0.0825216 0.0481933 0.0403454
threshold=41.079000000000001 49.421000000000014 30.206000000000003 56.564000000000007 44.063500000000005 36.459500000000013 58.046500000000002 47.279500000000006 47.359000000000002 47.491500000000009 35.485000000000007 52.684000000000005 36.630000000000003 28.300000000000001 53.364000000000011 45.116500000000009 45.061500000000002 37.585000000000008 45.952000000000005 26.922000000000004 54.452500000000008 49.14950000000001 50.473500000000008
decision_type=2 2 2 2 2 2 2 2 2 2 2 2 2 2 2 2 2 2 2 2 2 2 2
left_child=2 4 10 11 -2 -4 -5 15 -9 -10 -1 22 13 14 -13 -6 -17 -7 -18 -12 -16 -11 -3
right_child=1 3 5 6 7 17 -8 8 9 21 19 12 -14 -15 20 16 18 -19 -20 -21 -22 -23 -24
leaf_value=-0.063000952601432805 -0.015624122273845551 0.016376369286860742 -0.044968649129279788 0.042024343314044407 0.0074954237237020776 -0.018596513305092231 0.060111837799807916 0.023405471444129945 -0.009796031353914221 0.015088734820323147 -0.084708450697362436 0.037878099742990279 0.014531916100531818 0.044499889761209492 0.020977367783586186 -0.014729712700936943 0.0072868855111300956 -0.033213570564985272 -0.0061569281809386762 -0.07205462510938998 0.028674526093527677 0.0085420038212429394 0.02157415829715319
leaf_weight=35 39 28 36 33 27 20 38 22 23 23 20 26 20 20 30 20 20 20 21 27 26 22 32
leaf_count=35 39 28 36 33 27 20 38 22 23 23 20 26 20 20 30 20 20 20 21 27 26 22 32
internal_value=0 0.0180846 -0.0537959 0.0330446 0.000642674 -0.0349352 0.051705 0.00420675 0.00916196 0.00455377 -0.0712766 0.025765 0.0290191 0.0318597 0.0287767 -0.000861086 -0.00455987 -0.025905 0.00040103 -0.0774392 0.024551 0.0118881 0.0191485
internal_weight=0 470 158 253 217 76 71 178 90 68 82 182 122 102 82 88 61 40 41 47 56 45 60
internal_count=628 470 158 253 217 76 71 178 90 68 82 182 122 102 82 88 61 40 41 47 56 45 60
is_linear=0
shrinkage=0.1


Tree=32
num_leaves=23
num_cat=0
split_feature=1 1 1 1 1 2 2 2 0 2 3 3 3 3 3 3 3 1 3 2 3 1
split_gain=49.5939 8.96644 5.34861 1.98627 1.5974 0.509748 0.468114 0.436903 0.441186 0.314082 0.483498 0.627877 0.564136 0.305073 0.278637 0.309751 0.220716 0.17384 0.140734 0.0880837 0.0479934 0.033578
threshold=42.975500000000004 52.684000000000005 35.141500000000001 58.590000000000011 49.031500000000008 26.363500000000005 37.835000000000008 44.631000000000007 43.981500000000004 54.501000000000012 24.835000000000004 21.230000000000004 29.200000000000003 28.23 32.850000000000009 20.115000000000006 36.855000000000011 29.409000000000002 27.790000000000003 53.213500000000003 17.510000000000002 46.840000000000011
decision_type=2 2 2 2 2 2 2 2 2 2 2 2 2 2 2 2 2 2 2 2 2 2
left_child=2 4 5 9 7 -1 -4 8 -2 10 11 19 -12 -5 15 20 18 -7 -9 -3 -6 -20
right_child=1 3 6 13 14 17 -8 16 -10 -11 12 -13 -14 -15 -16 -17 -18 -19 21 -21 -22 -23
leaf_value=-0.074163132093169479 -0.0013569450225023663 0.020222855130718514 -0.033037563785910606 0.057162305290500329 0.014497203757055106 -0.061648742090433077 -0.016911075855346604 0.00086207470226594635 -0.020074686333537102 0.037811281003057959 0.0052237747795879849 0.046091383341699842 0.026277273563402037 0.041217803040926815 0.024210631892085076 0.0052912141662091019 -0.0043671822956492827 -0.052206891851547435 0.0065510649420320996 0.029277283175282984 0.021341964320856194 0.012212490165521476
leaf_weight=22 34 22 36 30 20 39 36 34 20 25 20 20 35 20 25 36 31 39 20 21 21 22
leaf_count=22 34 22 36 30 20 39 36 34 20 25 20 20 35 20 25 36 31 39 20 21 21 22
internal_value=0 0.017259 -0.0457565 0.0336282 0.00524665 -0.0607196 -0.0249743 -0.000956558 -0.00828944 0.0276295 0.0254723 0.0314532 0.0186215 0.0507845 0.015038 0.0120599 0.00274415 -0.0569278 0.00564482 0.0246448 0.0180031 0.00951657
internal_weight=0 456 172 193 263 100 72 161 54 143 118 63 55 50 102 77 107 78 76 43 41 42
internal_count=628 456 172 193 263 100 72 161 54 143 118 63 55 50 102 77 107 78 76 43 41 42
is_linear=0
shrinkage=0.1


Tree=33
num_leaves=26
num_cat=0
split_feature=2 2 1 1 1 1 0 2 3 3 3 1 0 2 0 1 2 0 1 2 3 2 3 1 0
split_gain=40.1771 8.09543 3.46928 2.24506 0.889629 0.472999 0.867261 0.444634 0.334145 0.285352 0.456476 0.260643 0.511739 0.55708 0.336156 0.256052 0.347052 0.32861 0.197779 0.187088 0.182093 0.117036 0.0551561 0.052657 0.0470781
threshold=41.079000000000001 49.421000000000014 30.206000000000003 56.564000000000007 44.399000000000008 61.110500000000009 57.734500000000004 37.835000000000008 35.485000000000007 37.175000000000004 29.200000000000003 47.052000000000007 47.236000000000004 47.491500000000009 45.116500000000009 53.443500000000007 53.004000000000012 51.754000000000012 51.117500000000007 45.061500000000002 40.195000000000007 26.922000000000004 34.385000000000012 54.452500000000008 49.14950000000001
decision_type=2 2 2 2 2 2 2 2 2 2 2 2 2 2 2 2 2 2 2 2 2 2 2 2 2
left_child=2 4 8 9 22 6 -5 20 -1 10 15 14 -13 -14 -6 17 -17 18 -3 -16 -4 -10 -2 -18 -15
right_child=1 3 7 5 11 -7 -8 -9 21 -11 -12 12 13 24 19 16 23 -19 -20 -21 -22 -23 -24 -25 -26
leaf_value=-0.050492730422577431 -0.0091203732289035205 0.014422589565881275 -0.028482343194385369 0.050621988531202082 0.0092515778262168176 0.054935687966644768 0.024496010566751162 -0.016249163791706617 -0.069196722849010267 0.010525253192400157 0.035471296828726066 0.019435929078608753 -0.0088538359277523498 0.012695870947335725 -0.012647801695857198 0.035554840583354237 0.016322955126948233 0.0060955500295993108 0.028162628896534442 -0.00052354037229503905 -0.040394115660871782 -0.059103926464363382 -0.016376334745436909 0.02281083474216726 0.0062253298576582568
leaf_weight=35 22 22 33 24 24 20 27 22 20 23 23 25 26 23 20 20 22 23 20 35 21 27 20 29 22
leaf_count=35 22 22 33 24 24 20 27 22 20 23 23 25 26 23 20 20 22 23 20 35 21 27 20 29 22
internal_value=0 0.0146652 -0.0436244 0.0268198 0.000494211 0.0419019 0.0367906 -0.0282326 -0.0578901 0.0209362 0.0224422 0.00363096 0.00713188 0.00279947 -0.000623317 0.0202387 0.0243904 0.0157038 0.0209655 -0.00493236 -0.0331147 -0.0633987 -0.0125756 0.0200121 0.0095325
internal_weight=0 470 158 253 217 71 51 76 82 182 159 175 96 71 79 136 71 65 42 55 54 47 42 51 45
internal_count=628 470 158 253 217 71 51 76 82 182 159 175 96 71 79 136 71 65 42 55 54 47 42 51 45
is_linear=0
shrinkage=0.1


Tree=34
num_leaves=24
num_cat=0
split_feature=1 2 1 2 1 2 2 1 0 2 1 0 1 0 1 0 1 0 1 3 3 3 0
split_gain=32.5947 5.99155 3.56627 1.5592 0.889826 0.369741 0.304468 0.300469 0.308073 0.42576 0.294706 0.565922 0.458068 0.250404 0.305464 0.218095 0.13492 0.134799 0.204804 0.12708 0.0834905 0.0545515 0.0313135
threshold=42.975500000000004 50.839000000000006 34.113000000000007 58.046500000000002 49.031500000000008 37.835000000000008 26.363500000000005 46.146000000000008 45.952000000000005 46.107500000000009 54.452500000000008 56.676500000000004 55.942 50.721500000000006 50.538500000000006 53.186000000000007 52.883500000000005 28.924000000000003 28.482500000000005 35.270000000000003 35.485000000000007 30.565000000000001 49.237500000000004
decision_type=2 2 2 2 2 2 2 2 2 2 2 2 2 2 2 2 2 2 2 2 2 2 2
left_child=2 4 6 10 7 20 -1 19 -9 -10 15 12 -12 14 22 16 -3 18 -8 -2 -4 -11 -6
right_child=1 3 5 -5 13 -7 17 8 9 21 11 -13 -14 -15 -16 -17 -18 -19 -20 -21 -22 -23 -24
leaf_value=-0.060507291453805838 -0.0015775937187884536 0.017038770137435717 -0.022985393423587085 0.044958308378332541 0.012733316676458346 -0.013850714213913307 -0.05039163308129424 0.013562488555908204 -0.01011038333936422 0.0021562311177452404 0.025326113459757632 0.012969461509159633 0.043910212690631556 0.0037471630011818241 0.024605533412911676 0.012714248213514285 0.027294748514119921 -0.052185166279474893 -0.036425549135587758 -0.010161590329645311 -0.031912624209441923 0.0092056974120762036 0.0071374709252268083
leaf_weight=22 35 23 20 38 20 36 21 21 27 21 36 21 21 28 22 37 29 30 21 34 22 23 20
leaf_count=22 35 23 20 38 20 36 21 21 27 21 36 21 21 28 22 37 29 30 21 34 22 23 20
internal_value=0 0.0139919 -0.0370947 0.0266756 0.00363264 -0.0212873 -0.0502114 -0.000819044 0.00292222 -0.000224908 0.0225154 0.0270027 0.0321729 0.0115962 0.0151409 0.0185828 0.0227585 -0.0470655 -0.0434086 -0.00580739 -0.0276616 0.00584118 0.00993539
internal_weight=0 456 172 205 251 78 94 161 92 71 167 78 57 90 62 89 52 72 42 69 42 44 40
internal_count=628 456 172 205 251 78 94 161 92 71 167 78 57 90 62 89 52 72 42 69 42 44 40
is_linear=0
shrinkage=0.1


Tree=35
num_leaves=25
num_cat=0
split_feature=2 1 1 2 1 0 2 3 1 0 2 1 3 0 3 0 3 3 0 3 3 2 2 3
split_gain=26.4351 5.35224 2.33507 1.35219 0.851091 0.396851 0.813263 0.320802 0.303609 0.298212 0.785323 0.29624 0.270384 0.238162 0.182986 0.179618 0.554267 0.17562 0.134326 0.249204 0.171583 0.0630775 0.0586373 0.0206362
threshold=41.079000000000001 51.919500000000006 30.206000000000003 56.753000000000007 47.279500000000006 51.902500000000011 52.007500000000007 27.170000000000005 44.063500000000005 47.408000000000008 47.491500000000009 36.459500000000013 43.365000000000002 45.116500000000009 37.585000000000008 55.309500000000007 22.845000000000002 36.205000000000005 49.855500000000006 19.895000000000003 25.585000000000004 53.213500000000003 27.619000000000003 28.405000000000005
decision_type=2 2 2 2 2 2 2 2 2 2 2 2 2 2 2 2 2 2 2 2 2 2 2 2
left_child=2 4 12 5 8 -3 -7 -5 -2 -6 -11 -4 22 -10 -13 16 21 23 20 -20 -12 -8 -1 -15
right_child=1 3 11 7 9 6 15 -9 13 10 18 14 -14 17 -16 -17 -18 -19 19 -21 -22 -23 -24 -25
leaf_value=-0.038658177256584172 -0.010924876576814896 0.031737004813145508 -0.029339340148079731 0.031267476929672834 0.017719893611967564 -0.0013757260618149304 0.012349039058272657 0.047496596298047478 0.0074941096689414097 -0.012278888523578644 0.007545579708225671 -0.010071776775293985 -0.055064055775957445 -0.0022283441963649934 -0.023599007604352667 0.013246597067659927 0.031571238977500263 -0.011468895338475706 0.01244254314627212 -0.0024050059542059903 0.020487668327987194 0.019249951270305449 -0.045482028188074342 0.0022599611058831217
leaf_weight=20 39 22 36 29 25 20 26 21 27 20 21 20 28 21 20 27 39 20 26 20 20 27 34 20
leaf_count=20 39 22 36 29 25 20 26 21 27 20 21 20 28 21 20 27 39 20 26 20 20 27 34 20
internal_value=0 0.0118957 -0.0353859 0.0237187 0.00226383 0.0192575 0.0172823 0.0380837 -0.00358034 0.00788664 0.00558915 -0.0227583 -0.0470896 -0.000325374 -0.0168354 0.0204182 0.0225228 -0.00378646 0.00969674 0.00598709 0.0138588 0.0158646 -0.0429547 -3.8927e-05
internal_weight=0 470 158 211 259 161 139 50 127 132 107 76 82 88 40 119 92 61 87 46 41 53 54 41
internal_count=628 470 158 211 259 161 139 50 127 132 107 76 82 88 40 119 92 61 87 46 41 53 54 41
is_linear=0
shrinkage=0.1


Tree=36
num_leaves=23
num_cat=0
split_feature=1 2 1 2 1 3 3 0 1 0 1 0 2 1 0 2 3 0 3 3 3 2
split_gain=21.426 3.98287 2.37297 0.920124 0.784179 0.447437 0.340609 0.604862 0.320036 0.262869 0.725198 0.312544 0.375096 0.231654 0.352332 0.396095 0.227543 0.170357 0.146675 0.12466 0.0867988 0.00311291
threshold=42.975500000000004 51.590000000000011 30.206000000000003 58.046500000000002 49.031500000000008 30.485000000000003 23.895000000000003 49.855500000000006 51.247500000000009 56.676500000000004 55.942 53.100500000000004 53.213500000000003 46.38450000000001 46.412000000000006 46.239000000000011 35.485000000000007 37.372000000000007 43.990000000000002 35.270000000000003 22.845000000000002 44.631000000000007
decision_type=2 2 2 2 2 2 2 2 2 2 2 2 2 2 2 2 2 2 2 2 2 2
left_child=2 4 16 9 13 -4 8 -8 -6 10 11 -3 -13 19 -15 -16 -1 -7 -18 21 -14 -2
right_child=1 3 5 -5 6 17 7 -9 -10 -11 -12 12 20 14 15 -17 18 -19 -20 -21 -22 -23
leaf_value=-0.036276272120220325 -0.0018618147261440753 0.026661062674355453 -0.0064674192997203634 0.036695107082395179 0.009774463889805381 -0.027455614122083867 0.015484352842239396 -0.0047922131755659663 0.02547561832747999 0.0088544015550897238 0.037875576978105875 0.0049660742694478746 0.015664938611909748 0.012534290996308511 -0.012080877901594664 0.0047796949952546713 -0.05263293469729631 -0.017405916302795373 -0.041457686092083654 -0.0091516697619642533 0.02438573441689923 -9.7470893524587165e-05
leaf_weight=35 20 27 22 38 34 37 28 31 21 21 21 28 25 26 22 38 23 31 24 35 21 20
leaf_count=35 20 27 22 38 34 37 28 31 21 21 21 28 25 26 22 38 23 31 24 35 21 20
internal_value=0 0.0113442 -0.0300752 0.0228639 0.00376207 -0.0188636 0.0101081 0.00483056 0.0157695 0.0191885 0.0209673 0.0174517 0.0140915 -0.000731388 0.00281094 -0.00140252 -0.0423806 -0.0228741 -0.0469264 -0.00479326 0.0196462 -0.000979643
internal_weight=0 456 172 181 275 90 114 59 55 143 122 101 74 161 86 60 82 68 47 75 46 40
internal_count=628 456 172 181 275 90 114 59 55 143 122 101 74 161 86 60 82 68 47 75 46 40
is_linear=0
shrinkage=0.1


Tree=37
num_leaves=23
num_cat=0
split_feature=2 1 1 2 1 0 3 1 0 2 1 3 3 3 2 3 0 3 0 2 0 2
split_gain=17.4394 3.58059 1.50671 1.10249 0.431802 0.355297 0.21492 0.213487 0.202823 0.72801 0.459595 0.191397 0.52898 0.507324 0.253512 0.173626 0.271629 0.146868 0.146833 0.133494 0.154075 0.0474219
threshold=41.079000000000001 50.879500000000007 30.206000000000003 56.753000000000007 45.232000000000006 60.283500000000011 43.365000000000002 36.459500000000013 46.604500000000009 46.722000000000001 46.38450000000001 24.835000000000004 29.200000000000003 21.495000000000001 53.172000000000004 31.910000000000004 49.14950000000001 37.585000000000008 43.006000000000007 53.811500000000009 52.237500000000004 27.619000000000003
decision_type=2 2 2 2 2 2 2 2 2 2 2 2 2 2 2 2 2 2 2 2 2 2
left_child=2 4 6 11 18 -5 21 -4 10 -10 -6 13 -13 19 -14 16 -11 -9 -2 20 -3 -1
right_child=1 3 7 5 8 -7 -8 17 9 15 -12 12 14 -15 -16 -17 -18 -19 -20 -21 -22 -23
leaf_value=-0.030592249408364299 -0.0030738807763555087 0.016732405328319499 -0.024184549765454401 0.039054235912583495 -0.00052457671171348352 0.022140684631734117 -0.045252235546442018 -0.0075103051867336044 -0.013278529202115946 -0.0060759799597276884 0.015479210577905179 -0.00084077570309790866 0.011336970022613449 0.029543246611809505 0.025450361594557765 0.01266893299964621 0.0090217057400597978 -0.01962921703234315 -0.013835189065762929 0.020826071943447461 0.0071750270945296901 -0.03672890415554695
leaf_weight=20 32 31 36 27 38 23 28 20 29 22 34 26 35 26 20 23 26 20 21 20 37 34
leaf_count=20 32 31 36 27 38 23 28 20 29 22 34 26 35 26 20 23 26 20 21 20 37 34
internal_value=0 0.00966197 -0.0287413 0.0180264 0.000554031 0.031274 -0.0381426 -0.0185978 0.00298581 7.2009e-05 0.00703277 0.0146296 0.0109129 0.0172704 0.0164691 0.00552505 0.00210193 -0.0135698 -0.0073378 0.0136443 0.0115321 -0.0344561
internal_weight=0 470 158 245 225 50 82 76 172 100 72 195 81 114 55 71 48 40 53 88 68 54
internal_count=628 470 158 245 225 50 82 76 172 100 72 195 81 114 55 71 48 40 53 88 68 54
is_linear=0
shrinkage=0.1


Tree=38
num_leaves=23
num_cat=0
split_feature=2 1 1 2 1 0 2 0 2 0 3 3 0 1 3 3 3 0 3 1 2 2
split_gain=14.1517 3.39613 0.738713 0.704852 0.689056 0.428309 0.657657 0.376897 0.773416 0.28779 0.268286 0.357546 0.255323 0.409885 0.174085 0.122794 0.414592 0.0971522 0.0970721 0.0452265 0.0384117 0.0381597
threshold=37.835000000000008 52.326000000000008 46.38450000000001 56.753000000000007 30.206000000000003 52.417000000000009 52.227500000000006 46.604500000000009 46.722000000000001 60.283500000000011 29.855000000000004 39.135000000000005 54.898000000000003 54.777000000000008 43.365000000000002 31.910000000000004 25.020000000000003 53.525000000000006 40.195000000000007 50.879500000000007 27.619000000000003 42.526000000000003
decision_type=2 2 2 2 2 2 2 2 2 2 2 2 2 2 2 2 2 2 2 2 2 2
left_child=4 2 10 5 14 -3 -7 -4 -9 -5 -2 21 13 17 20 16 19 -8 -6 -10 -1 -12
right_child=1 3 7 9 18 6 12 8 15 -11 11 -13 -14 -15 -16 -17 -18 -19 -20 -21 -22 -23
leaf_value=-0.027533023953437808 0.001947686870527618 0.027363085708665576 0.014078195931182969 0.035148812226813146 -0.016398427748318876 -0.0044049386680126189 0.019483581654494628 -0.011950675719257059 0.0061001334164757287 0.019926616152667484 -0.01808021750655912 -0.001445551635697484 0.0084010157941116232 0.030492173831555103 -0.040727011893510023 0.011831533856069049 -0.0070628479406561542 0.010650906406843921 -0.025095586908892509 0.011552531455225987 -0.033056013527161941 -0.011976843453012406
leaf_weight=20 34 22 36 27 33 20 20 29 32 23 21 36 36 21 28 30 23 33 21 29 34 20
leaf_count=20 34 22 36 27 33 20 20 29 32 23 21 36 36 21 28 30 23 33 21 29 34 20
internal_value=0 0.00789243 0.000958392 0.0178472 -0.028552 0.0144593 0.0122756 0.00493281 0.00263048 0.0281466 -0.00545081 -0.00871768 0.0153084 0.0186687 -0.0343283 0.00633972 0.00437836 0.013984 -0.0197807 0.00869226 -0.0310105 -0.015103
internal_weight=0 492 290 202 136 152 130 179 143 50 111 77 110 74 82 114 84 53 54 61 54 41
internal_count=628 492 290 202 136 152 130 179 143 50 111 77 110 74 82 114 84 53 54 61 54 41
is_linear=0
shrinkage=0.1


Tree=39
num_leaves=25
num_cat=0
split_feature=2 1 1 1 1 3 3 3 3 2 0 2 0 2 0 0 1 3 1 0 3 0 2 3
split_gain=11.5295 2.43011 0.965623 0.599913 0.481355 0.27945 0.543446 0.631307 0.518584 0.292332 0.26717 0.370087 0.200049 0.167255 0.186715 0.156302 0.313053 0.227479 0.139431 0.13 0.123179 0.11294 0.170333 0.112937
threshold=41.079000000000001 52.684000000000005 30.206000000000003 61.110500000000009 47.052000000000007 17.820000000000004 25.225000000000005 28.23 35.370000000000012 55.171500000000009 47.236000000000004 47.491500000000009 53.898500000000006 26.363500000000005 28.829000000000004 45.729000000000006 45.232000000000006 34.195000000000007 36.459500000000013 43.006000000000007 37.585000000000008 49.855500000000006 50.473500000000008 25.585000000000004
decision_type=2 2 2 2 2 2 2 2 2 2 2 2 2 2 2 2 2 2 2 2 2 2 2 2
left_child=2 4 13 5 15 -3 9 -8 -9 12 -6 -12 -7 -1 -15 16 19 -18 -4 -2 -20 23 -23 -13
right_child=1 3 18 -5 10 6 7 8 -10 -11 11 21 -14 14 -16 -17 17 -19 20 -21 -22 22 -24 -25
leaf_value=-0.038353887945413591 -0.001935487732407637 0.0054287580241050041 -0.019763870149229965 0.032867810465395456 0.014998502105474473 0.024336088411151792 -0.0046982929762452849 0.025658550718799234 0.0065789589112431844 0.032664469718223531 -0.0069638782539046739 0.0053379974261458431 0.011213452812461626 -0.023916158441294869 -0.035492254311049527 -0.0094294823972242217 -0.0017699841782450676 0.013312425035983325 -0.0056361793330870569 -0.012061202029387158 -0.016734774298965933 -0.0014216222516552079 0.0088962398411240439 0.015837908769026399
leaf_weight=22 32 28 36 20 25 26 20 28 29 21 26 21 21 38 22 28 20 20 20 21 20 32 32 20
leaf_count=22 32 28 36 20 25 26 20 28 29 21 26 21 21 38 22 28 20 20 20 21 20 32 32 20
internal_value=0 0.00785606 -0.0233693 0.0164705 0.00185396 0.0145748 0.016341 0.0105878 0.0159514 0.0228555 0.00552529 0.00371743 0.0184728 -0.0308955 -0.0281607 -0.00287932 -0.000907226 0.00577122 -0.0152489 -0.00594756 -0.0111855 0.00636232 0.00373731 0.0104599
internal_weight=0 470 158 193 277 173 145 77 57 68 156 131 47 82 60 121 93 40 76 53 40 105 64 41
internal_count=628 470 158 193 277 173 145 77 57 68 156 131 47 82 60 121 93 40 76 53 40 105 64 41
is_linear=0
shrinkage=0.1


Tree=40
num_leaves=25
num_cat=0
split_feature=1 1 1 1 1 0 2 0 1 0 1 3 0 3 3 0 1 3 3 0 0 3 3 3
split_gain=9.38218 1.79139 1.00236 0.48593 0.314907 0.333178 0.439807 0.270011 0.955548 0.287798 0.271354 0.237943 0.158093 0.271966 0.125724 0.103183 0.20723 0.175236 0.0917486 0.0606048 0.232082 0.165146 0.0461205 0.034757
threshold=42.975500000000004 52.684000000000005 35.141500000000001 61.110500000000009 46.840000000000011 47.063000000000009 46.900000000000013 57.734500000000004 56.564000000000007 54.505500000000005 54.406500000000008 42.775000000000013 53.427500000000009 24.835000000000004 30.485000000000003 43.227500000000006 45.280500000000011 32.410000000000004 36.855000000000011 49.855500000000006 48.874000000000002 20.115000000000006 30.680000000000003 35.745000000000005
decision_type=2 2 2 2 2 2 2 2 2 2 2 2 2 2 2 2 2 2 2 2 2 2 2 2
left_child=2 4 11 7 15 -6 -7 8 9 10 12 18 13 -3 -4 -2 -17 -18 22 20 -8 -21 -1 -16
right_child=1 3 14 -5 5 6 19 -9 -10 -11 -12 -13 -14 -15 23 16 17 -19 -20 21 -22 -23 -24 -25
leaf_value=-0.021725249653682114 0.003769328476240238 0.021875482921799028 -0.0043929986034830417 0.029581029154360297 0.014932067036904671 -0.0092215983644127857 0.0016244534066774778 0.0039305723354185898 0.033056228219841916 0.0021175262828667957 0.023849956693482541 -0.033026797015752112 0.0044993329420685768 0.0069722711667418481 -0.016706732403309572 -0.012878048345446586 -0.0067395169080959431 0.0045514822538409916 -0.017164327567443252 0.0079874823002942987 0.015139523466738561 -0.0022169958382588012 -0.028167955622076992 -0.011402334383092239
leaf_weight=20 21 24 21 20 27 25 27 27 24 27 21 35 25 25 21 20 27 28 20 35 24 29 25 30
leaf_count=20 21 24 21 20 27 25 27 27 24 27 21 35 25 25 21 20 27 28 20 35 24 29 25 30
internal_value=0 0.00750678 -0.0199017 0.0148234 0.00213754 0.0047611 0.00279956 0.0131173 0.0148163 0.0112281 0.0138174 -0.0263793 0.0109703 0.0142718 -0.0109051 -0.00242636 -0.00416115 -0.000991372 -0.0227999 0.00541285 0.00798449 0.00336358 -0.0253045 -0.0135865
internal_weight=0 456 172 193 263 167 140 173 146 122 95 100 74 49 72 96 75 55 65 115 51 64 45 51
internal_count=628 456 172 193 263 167 140 173 146 122 95 100 74 49 72 96 75 55 65 115 51 64 45 51
is_linear=0
shrinkage=0.1


Tree=41
num_leaves=23
num_cat=0
split_feature=2 2 1 2 3 3 3 3 1 0 1 1 3 2 3 0 2 0 1 3 3 1
split_gain=7.63482 1.58165 0.642162 0.563986 0.463757 0.378435 0.361338 0.332883 0.214397 0.308497 0.318325 0.489103 0.225338 0.156757 0.151204 0.133327 0.129842 0.156178 0.0901927 0.105111 0.0901624 0.0533734
threshold=41.079000000000001 49.421000000000014 30.206000000000003 58.046500000000002 40.195000000000007 29.200000000000003 25.225000000000005 21.495000000000001 44.063500000000005 45.116500000000009 49.622000000000007 48.636500000000005 36.855000000000011 53.848500000000008 30.130000000000006 52.237500000000004 26.363500000000005 28.829000000000004 36.459500000000013 37.585000000000008 18.125000000000004 46.840000000000011
decision_type=2 2 2 2 2 2 2 2 2 2 2 2 2 2 2 2 2 2 2 2 2 2
left_child=2 8 16 4 5 6 7 13 -2 -10 11 12 14 15 21 20 -1 -18 -4 -20 -3 -11
right_child=1 3 18 -5 -6 -7 -8 -9 9 10 -12 -13 -14 -15 -16 -17 17 -19 19 -21 -22 -23
leaf_value=-0.031725952266292143 -0.0065860425313122766 0.0058458833396434788 -0.016026103462920421 0.022995972318427736 -0.0047215410391800109 0.020222267018337001 -0.0011967286700382829 0.020563633056978385 0.011236118119476099 -0.0054734588201556895 -0.010499104874208571 0.014372466854751111 -0.0083477550847155437 0.016447770055383445 0.007580753939691931 0.0023766249824219792 -0.018862903332582823 -0.029450150884010574 -0.0040005255886353553 -0.014252887368202211 0.015341270407661796 0.0017447546613402665
leaf_weight=22 39 20 36 38 20 38 28 30 28 21 25 25 31 20 28 39 38 22 20 20 20 20
leaf_count=22 39 20 36 38 20 38 28 30 28 21 25 25 31 20 28 39 38 22 20 20 20 20
internal_value=0 0.00639292 -0.0190169 0.0117654 0.00978048 0.0112679 0.00910056 0.0113356 0.000129138 0.00160044 -0.000198219 0.00186196 -0.00126567 0.00853926 0.00191614 0.00653711 -0.0251544 -0.0227449 -0.0123948 -0.00912671 0.0105936 -0.00195238
internal_weight=0 470 158 253 215 195 157 129 217 178 150 125 100 99 69 79 82 60 76 40 40 41
internal_count=628 470 158 253 215 195 157 129 217 178 150 125 100 99 69 79 82 60 76 40 40 41
is_linear=0
shrinkage=0.1


Tree=42
num_leaves=25
num_cat=0
split_feature=2 1 1 1 0 0 2 3 3 1 1 0 0 3 0 1 0 2 0 2 0 1 0 2
split_gain=6.19299 1.53764 0.506039 0.360586 0.325642 0.308015 0.931604 0.223666 0.332429 0.215132 0.207421 0.29302 0.282 0.178312 0.167618 0.282612 0.206738 0.36595 0.113552 0.0859982 0.0859783 0.240518 0.0841754 0.0558518
threshold=37.835000000000008 49.688000000000009 58.590000000000011 29.045500000000004 60.283500000000011 42.043000000000006 42.189000000000007 40.195000000000007 29.200000000000003 53.055000000000007 53.443500000000007 53.589500000000008 51.754000000000012 43.365000000000002 48.157000000000004 47.591500000000003 43.981500000000004 44.631000000000007 45.58700000000001 50.381000000000007 29.782500000000002 35.141500000000001 54.898000000000003 45.646000000000008
decision_type=2 2 2 2 2 2 2 2 2 2 2 2 2 2 2 2 2 2 2 2 2 2 2 2
left_child=3 5 7 13 -4 -2 -7 8 10 -10 12 -12 19 -1 15 16 -8 -18 -19 -3 -5 -22 -13 -20
right_child=1 2 4 20 -6 6 14 -9 9 -11 11 22 -14 -15 -16 -17 17 18 23 -21 21 -23 -24 -25
leaf_value=-0.020661818992812189 0.0091099054910815692 0.0039417884793753423 0.026718553045281659 -0.0097687433930113907 0.010526214353740217 -0.021363527192126797 0.0076587017492524209 -0.00097417547755564247 0.010206677089445294 0.024698394022416324 0.020497545345940376 0.010119216136732384 -0.0058737822636233082 -0.032381687100444527 -0.0080300361785868354 0.0088800824473838549 -0.015266762636601925 0.0058413931168615823 -0.0063919115515256482 0.012173200398683548 -0.025614307941868905 -0.011936962207902172 0.0027350053047904607 0.00073369851993034408
leaf_weight=34 26 30 27 25 23 23 21 24 21 20 22 38 23 21 22 37 20 23 22 22 20 36 26 22
leaf_count=34 26 30 27 25 23 23 21 24 21 20 22 38 23 21 22 37 20 23 22 22 20 36 26 22
internal_value=0 0.00522104 0.0101666 -0.0188879 0.0192701 -0.0010983 -0.00249521 0.00815257 0.00923694 0.0172758 0.00718977 0.0105417 0.00334623 -0.0251367 0.00010342 0.00133746 -0.00124658 -0.00339614 0.000147334 0.00742431 -0.0146449 -0.0168217 0.00711938 -0.00282911
internal_weight=0 492 276 136 50 216 190 226 202 41 161 86 75 55 167 145 108 87 67 52 81 56 64 44
internal_count=628 492 276 136 50 216 190 226 202 41 161 86 75 55 167 145 108 87 67 52 81 56 64 44
is_linear=0
shrinkage=0.1


Tree=43
num_leaves=23
num_cat=0
split_feature=2 1 1 2 3 1 0 1 0 1 0 2 0 3 3 3 3 0 3 3 1 3
split_gain=5.09768 1.06024 0.428733 0.349664 0.411931 0.502148 0.354301 0.349608 0.263811 0.217121 0.292846 0.358233 0.124766 0.186625 0.244486 0.109586 0.220518 0.106725 0.129795 0.0840049 0.0474178 0.0258911
threshold=41.079000000000001 52.684000000000005 30.206000000000003 59.543500000000002 35.150000000000006 58.906500000000008 54.898000000000003 54.452500000000008 53.186000000000007 47.279500000000006 47.500500000000009 47.573500000000003 45.952000000000005 41.015000000000008 29.855000000000004 35.485000000000007 43.990000000000002 49.855500000000006 20.115000000000006 42.380000000000003 36.742000000000004 33.805000000000007
decision_type=2 2 2 2 2 2 2 2 2 2 2 2 2 2 2 2 2 2 2 2 2 2
left_child=2 9 15 4 5 6 7 8 -3 12 -11 -12 13 14 -2 -1 -17 -13 -19 20 -4 -16
right_child=1 3 19 -5 -6 -7 -8 -9 -10 10 11 17 -14 -15 21 16 -18 18 -20 -21 -22 -23
leaf_value=-0.016317763983138969 0.0034717424307018521 0.015623836485861704 -0.010564138341578655 0.023432394955307245 -0.00058411383070051677 0.026092261945207914 -7.8454830994208657e-05 0.022515787929296496 0.0027264020485537393 0.013058459346315691 -0.010518737696111204 0.008316009497196462 -0.0082766149023276135 0.0065291681270725254 -0.010544273567696412 -0.030705782803504361 -0.017003243307893476 0.0057248590946463607 -0.0033217685329246117 -0.014876834481954574 -0.004436224375082099 -0.0055168841965496547
leaf_weight=35 33 29 28 20 33 21 30 25 35 28 20 38 24 29 21 23 24 35 29 25 23 20
leaf_count=35 33 29 28 20 33 21 30 25 35 28 20 38 24 29 21 23 24 35 29 25 23 20
internal_value=0 0.00522379 -0.0155391 0.0109138 0.00946658 0.0118357 0.0093198 0.0124878 0.00857055 0.00125927 0.00383539 0.00171863 -0.00178341 -0.000270428 -0.00293513 -0.0205541 -0.0237087 0.00411811 0.00162561 -0.0101283 -0.00780057 -0.00809189
internal_weight=0 470 158 193 173 140 119 89 64 277 150 122 127 103 74 82 47 102 64 76 51 41
internal_count=628 470 158 193 173 140 119 89 64 277 150 122 127 103 74 82 47 102 64 76 51 41
is_linear=0
shrinkage=0.1


Tree=44
num_leaves=25
num_cat=0
split_feature=1 2 1 3 3 3 3 0 1 1 0 3 2 2 0 2 0 3 3 3 0 0 2 1
split_gain=4.15337 0.719676 0.563997 0.472328 0.427071 0.424177 0.338815 0.317857 0.262968 0.237377 0.933555 0.383135 0.221302 0.206737 0.196111 0.271339 0.149055 0.214296 0.0887648 0.178619 0.0658821 0.0908073 0.051744 0.144281
threshold=44.063500000000005 53.38750000000001 30.206000000000003 53.195000000000007 27.170000000000005 30.680000000000003 32.955000000000005 56.966500000000003 55.228000000000002 52.326000000000008 52.417000000000009 45.960000000000008 52.380500000000005 47.911500000000011 47.500500000000009 46.159000000000006 49.855500000000006 20.415000000000003 35.485000000000007 43.990000000000002 42.186500000000009 37.81600000000001 44.742000000000012 46.44100000000001
decision_type=2 2 2 2 2 2 2 2 2 2 2 2 2 2 2 2 2 2 2 2 2 2 2 2
left_child=2 3 18 9 7 -4 -6 8 -3 11 -11 13 -12 14 15 22 -15 -18 -1 -20 21 -7 -2 -24
right_child=1 4 5 -5 6 20 -8 -9 -10 10 12 -13 -14 16 -16 -17 17 -19 19 -21 -22 -23 23 -25
leaf_value=-0.014685987396431822 -0.0068333307640965693 0.0054514313768595467 0.0028320013144021404 -0.010852675488137682 0.029567467762390155 -0.012385811360160773 0.011770888049479414 0.00040845424484680683 0.021667706565931439 0.027386692203581333 -0.0055423782693899493 0.015476853251457215 0.007060353046491448 0.010872997798853451 -0.010282698471564801 0.0099144331264224925 0.0066046208567807786 -0.006440533574204892 -0.027635204435690591 -0.015302918222732843 -0.015778959483799079 -0.0041920210811353864 0.0045058621074228235 -0.006459279882255942
leaf_weight=35 22 20 29 23 20 38 23 34 20 20 22 20 38 27 22 22 34 20 23 24 23 21 24 24
leaf_count=35 22 20 29 23 20 38 23 34 20 20 22 20 38 27 22 22 34 20 23 24 23 21 24 24
internal_value=0 0.00541694 -0.0122092 0.00294975 0.0121226 -0.00756289 0.0200484 0.00751716 0.0135596 0.00402587 0.00867619 0.00229552 0.00243935 0.000943591 -0.00180103 0.000227198 0.00480639 0.00177308 -0.0184986 -0.0213379 -0.0112391 -0.00946938 -0.00281736 -0.000976709
internal_weight=0 435 193 318 117 111 43 74 40 295 80 215 60 195 114 92 81 54 82 47 82 59 70 48
internal_count=628 435 193 318 117 111 43 74 40 295 80 215 60 195 114 92 81 54 82 47 82 59 70 48
is_linear=0
shrinkage=0.1


Tree=45
num_leaves=24
num_cat=0
split_feature=2 2 3 2 0 1 2 3 0 1 0 1 1 0 2 1 3 3 3 3 3 3 3
split_gain=3.41481 0.701377 0.350938 0.589587 0.447229 0.305621 0.287664 0.19252 0.267611 0.380191 0.202391 0.367655 0.194994 0.184232 0.285267 0.15292 0.151593 0.131773 0.159342 0.0888991 0.0912064 0.0788527 0.0419152
threshold=41.079000000000001 51.590000000000011 21.945000000000004 59.055500000000002 54.199500000000008 29.045500000000004 54.501000000000012 23.895000000000003 50.927500000000009 49.688000000000009 46.604500000000009 46.38450000000001 51.247500000000009 56.966500000000003 53.605000000000011 48.378000000000007 43.365000000000002 39.135000000000005 29.855000000000004 30.485000000000003 36.630000000000003 42.380000000000003 19.895000000000003
decision_type=2 2 2 2 2 2 2 2 2 2 2 2 2 2 2 2 2 2 2 2 2 2 2
left_child=5 7 13 4 -4 16 -6 12 9 10 11 17 22 14 -3 -12 -1 18 -9 -7 -21 -22 -2
right_child=1 2 3 -5 6 19 -8 8 -10 -11 15 -13 -14 -15 -16 -17 -18 -19 -20 20 21 -23 -24
leaf_value=-0.014610821446951697 -0.00010054262740344838 0.0020259684515902057 0.018203521474744334 0.028476633350364867 -0.004976241695492164 -0.004315014271764085 0.010674040415324271 0.0025465624267235402 -0.010701366438826715 0.012450188271701336 -0.0010418140620458872 0.010773619069368578 0.013845668076759294 -0.0037970656529068949 0.016482352901117079 -0.011479988463222981 -0.025417000702804046 0.0038949861398173708 -0.008585943328216673 -0.016003464276974019 -0.0038238773122429848 -0.011828116630204022 0.0058501835144124928
leaf_weight=34 29 39 33 20 23 25 24 20 22 25 32 32 21 21 21 25 21 27 36 26 20 32 20
leaf_count=34 29 39 33 20 23 25 24 20 22 25 32 32 21 21 21 25 21 27 36 26 20 32 20
internal_value=0 0.00427546 0.00915677 0.0131197 0.0092805 -0.0127181 0.00301539 0.00121831 -0.000240892 0.000927283 -0.000747558 0.00166746 0.00578353 0.00426424 0.0070857 -0.00561996 -0.0187368 -0.00184335 -0.00461005 -0.0095043 -0.0111675 -0.00874956 0.00232833
internal_weight=0 470 181 100 80 158 47 289 219 197 172 115 70 81 60 57 55 83 56 103 78 52 49
internal_count=628 470 181 100 80 158 47 289 219 197 172 115 70 81 60 57 55 83 56 103 78 52 49
is_linear=0
shrinkage=0.1


Tree=46
num_leaves=24
num_cat=0
split_feature=2 2 3 2 0 1 3 1 2 0 3 1 0 1 2 0 3 3 3 3 3 0 3
split_gain=2.766 0.57592 0.338781 0.408442 0.775022 0.33213 0.284468 0.247553 0.241678 0.291871 0.539784 0.281844 0.279233 0.474013 0.329343 0.305793 0.124528 0.122791 0.0805078 0.0738745 0.0720083 0.080071 0.0953594
threshold=41.079000000000001 53.38750000000001 19.865000000000006 59.055500000000002 57.186500000000009 55.361500000000007 54.105000000000004 29.045500000000004 49.421000000000014 48.157000000000004 44.150000000000013 47.845500000000008 51.82800000000001 51.370000000000005 51.946500000000007 53.186000000000007 35.085000000000001 43.365000000000002 27.790000000000003 30.935000000000006 30.485000000000003 29.974500000000003 42.380000000000003
decision_type=2 2 2 2 2 2 2 2 2 2 2 2 2 2 2 2 2 2 2 2 2 2 2
left_child=7 6 -3 4 5 -4 8 17 9 10 11 16 13 -10 -14 -16 18 -1 -2 -20 -9 -22 -23
right_child=1 2 3 -5 -6 -7 -8 20 12 -11 -12 -13 14 -15 15 -17 -18 -19 19 -21 21 22 -24
leaf_value=-0.013149739610140815 -0.0037270063587597439 0.00076464558175454546 0.0073402759885149342 0.025628969352692366 -0.0065734557718748147 0.024399274647235871 -0.0089201974965955905 -0.0038835130501538515 0.0034010961193196251 -0.0073706695947270756 0.016824315748685464 0.010063358282913333 -0.0087328102129201109 0.021871219990619771 0.015441335101301471 -8.8509818306192761e-05 -0.0074798260552568305 -0.02287530087466751 0.0062044770564310828 -0.0015757919511879268 -0.0045945898862555625 -0.0085255214013159279 -0.016758378362283111
leaf_weight=34 35 30 21 20 21 25 23 25 33 39 22 23 21 24 21 32 31 21 26 23 20 34 24
leaf_count=34 35 30 21 20 21 25 23 25 33 39 22 23 21 24 21 32 31 21 26 23 20 34 24
